<?xml version="1.0"?>
<MethodSetup Method="BDT::BDTG">
  <GeneralInfo>
    <Info name="TMVA Release" value="4.2.1 [262657]"/>
    <Info name="ROOT Release" value="6.04/02 [394242]"/>
    <Info name="Creator" value="salderwe"/>
    <Info name="Date" value="Thu Dec  3 15:39:15 2015"/>
    <Info name="Host" value="Linux heisenberg 4.1.6-1-ARCH #1 SMP PREEMPT Mon Aug 17 08:52:28 CEST 2015 x86_64 GNU/Linux"/>
    <Info name="Dir" value="/data/AA_UA/Workdir/git/vbfHbb/mvd/src/tmva"/>
    <Info name="Training events" value="320000"/>
    <Info name="TrainingTime" value="5.83493637e+02"/>
    <Info name="AnalysisType" value="Classification"/>
  </GeneralInfo>
  <Options>
    <Option name="V" modified="Yes">False</Option>
    <Option name="VerbosityLevel" modified="No">Default</Option>
    <Option name="VarTransform" modified="No">None</Option>
    <Option name="H" modified="Yes">False</Option>
    <Option name="CreateMVAPdfs" modified="No">False</Option>
    <Option name="IgnoreNegWeightsInTraining" modified="No">False</Option>
    <Option name="NTrees" modified="Yes">600</Option>
    <Option name="MaxDepth" modified="No">3</Option>
    <Option name="MinNodeSize" modified="No">5%</Option>
    <Option name="nCuts" modified="Yes">25</Option>
    <Option name="BoostType" modified="Yes">Grad</Option>
    <Option name="AdaBoostR2Loss" modified="No">quadratic</Option>
    <Option name="UseBaggedBoost" modified="No">False</Option>
    <Option name="Shrinkage" modified="Yes">2.000000e-01</Option>
    <Option name="AdaBoostBeta" modified="No">5.000000e-01</Option>
    <Option name="UseRandomisedTrees" modified="No">False</Option>
    <Option name="UseNvars" modified="No">2</Option>
    <Option name="UsePoissonNvars" modified="No">True</Option>
    <Option name="BaggedSampleFraction" modified="No">6.000000e-01</Option>
    <Option name="UseYesNoLeaf" modified="No">True</Option>
    <Option name="NegWeightTreatment" modified="No">ignorenegweightsintraining</Option>
    <Option name="Css" modified="No">1.000000e+00</Option>
    <Option name="Cts_sb" modified="No">1.000000e+00</Option>
    <Option name="Ctb_ss" modified="No">1.000000e+00</Option>
    <Option name="Cbb" modified="No">1.000000e+00</Option>
    <Option name="NodePurityLimit" modified="No">5.000000e-01</Option>
    <Option name="SeparationType" modified="No">giniindex</Option>
    <Option name="DoBoostMonitor" modified="No">False</Option>
    <Option name="UseFisherCuts" modified="No">False</Option>
    <Option name="MinLinCorrForFisher" modified="No">8.000000e-01</Option>
    <Option name="UseExclusiveVars" modified="No">False</Option>
    <Option name="DoPreselection" modified="No">False</Option>
    <Option name="SigToBkgFraction" modified="No">1.000000e+00</Option>
    <Option name="PruneMethod" modified="No">nopruning</Option>
    <Option name="PruneStrength" modified="No">0.000000e+00</Option>
    <Option name="PruningValFraction" modified="No">5.000000e-01</Option>
    <Option name="nEventsMin" modified="No">0</Option>
    <Option name="UseBaggedGrad" modified="No">False</Option>
    <Option name="GradBaggingFraction" modified="No">6.000000e-01</Option>
    <Option name="UseNTrainEvents" modified="No">0</Option>
    <Option name="NNodesMax" modified="No">0</Option>
  </Options>
  <Variables NVar="4">
    <Variable VarIndex="0" Expression="eta" Label="eta" Title="eta" Unit="" Internal="eta" Type="F" Min="-4.98140240e+00" Max="4.99892092e+00"/>
    <Variable VarIndex="1" Expression="etaIdx" Label="etaIdx" Title="etaIdx" Unit="" Internal="etaIdx" Type="I" Min="0.00000000e+00" Max="3.00000000e+00"/>
    <Variable VarIndex="2" Expression="btag" Label="btag" Title="btag" Unit="" Internal="btag" Type="F" Min="-1.00000000e+01" Max="1.00000000e+00"/>
    <Variable VarIndex="3" Expression="btagIdx" Label="btagIdx" Title="btagIdx" Unit="" Internal="btagIdx" Type="I" Min="0.00000000e+00" Max="3.00000000e+00"/>
  </Variables>
  <Spectators NSpec="0"/>
  <Classes NClass="2">
    <Class Name="Signal" Index="0"/>
    <Class Name="Background" Index="1"/>
  </Classes>
  <Transformations NTransformations="0"/>
  <MVAPdfs/>
  <Weights NTrees="600" AnalysisType="1">
    <BinaryTree type="DecisionTree" boostWeight="1.0000000000000000e+00" itree="0">
      <Node pos="s" depth="0" NCoef="0" IVar="2" Cut="5.7692307233810425e-01" cType="1" res="0.0000000000000000e+00" rms="5.0000000000000000e-01" purity="5.0000000000000000e-01" nType="0">
        <Node pos="l" depth="1" NCoef="0" IVar="2" Cut="1.7007558047771454e-01" cType="1" res="-3.3550620079040527e-01" rms="3.7072303891181946e-01" purity="1.6449378430843353e-01" nType="0">
          <Node pos="l" depth="2" NCoef="0" IVar="2" Cut="-6.1224037408828735e-01" cType="1" res="-4.0026691555976868e-01" rms="2.9964378476142883e-01" purity="9.9733091890811920e-02" nType="0">
            <Node pos="l" depth="3" NCoef="0" IVar="-1" Cut="0.0000000000000000e+00" cType="1" res="-1.8941162526607513e-01" rms="1.6053107380867004e-01" purity="2.6470934972167015e-02" nType="-99"/>
            <Node pos="r" depth="3" NCoef="0" IVar="-1" Cut="0.0000000000000000e+00" cType="1" res="-1.3259726762771606e-01" rms="3.7431573867797852e-01" purity="1.6850683093070984e-01" nType="-99"/>
          </Node>
          <Node pos="r" depth="2" NCoef="0" IVar="2" Cut="3.2653859257698059e-01" cType="1" res="-1.4001034200191498e-01" rms="4.7999697923660278e-01" purity="3.5998967289924622e-01" nType="0">
            <Node pos="l" depth="3" NCoef="0" IVar="-1" Cut="0.0000000000000000e+00" cType="1" res="-1.0214304924011230e-01" rms="4.2987495660781860e-01" purity="2.4464237689971924e-01" nType="-99"/>
            <Node pos="r" depth="3" NCoef="0" IVar="-1" Cut="0.0000000000000000e+00" cType="1" res="2.7232088148593903e-02" rms="4.9534338712692261e-01" purity="5.6808024644851685e-01" nType="-99"/>
          </Node>
        </Node>
        <Node pos="r" depth="1" NCoef="0" IVar="2" Cut="8.5355657339096069e-01" cType="1" res="4.6895653009414673e-01" rms="1.7343522608280182e-01" purity="9.6895653009414673e-01" nType="0">
          <Node pos="l" depth="2" NCoef="0" IVar="-1" Cut="0.0000000000000000e+00" cType="1" res="1.3876278698444366e-01" rms="3.6007714271545410e-01" purity="8.4690696001052856e-01" nType="-99"/>
          <Node pos="r" depth="2" NCoef="0" IVar="2" Cut="9.1551572084426880e-01" cType="1" res="4.8833081126213074e-01" rms="1.0739193856716156e-01" purity="9.8833078145980835e-01" nType="0">
            <Node pos="l" depth="3" NCoef="0" IVar="-1" Cut="0.0000000000000000e+00" cType="1" res="1.8275918066501617e-01" rms="2.0308683812618256e-01" purity="9.5689797401428223e-01" nType="-99"/>
            <Node pos="r" depth="3" NCoef="0" IVar="-1" Cut="0.0000000000000000e+00" cType="1" res="1.9773696362972260e-01" rms="7.5003981590270996e-02" purity="9.9434238672256470e-01" nType="-99"/>
          </Node>
        </Node>
      </Node>
    </BinaryTree>
    <BinaryTree type="DecisionTree" boostWeight="1.0000000000000000e+00" itree="1">
      <Node pos="s" depth="0" NCoef="0" IVar="2" Cut="5.7692307233810425e-01" cType="1" res="1.2637348845601082e-04" rms="4.3458840250968933e-01" purity="5.0000000000000000e-01" nType="0">
        <Node pos="l" depth="1" NCoef="0" IVar="2" Cut="1.7007558047771454e-01" cType="1" res="-2.6898860931396484e-01" rms="3.5979244112968445e-01" purity="1.6449378430843353e-01" nType="0">
          <Node pos="l" depth="2" NCoef="0" IVar="2" Cut="-6.1224037408828735e-01" cType="1" res="-3.2095319032669067e-01" rms="2.9667177796363831e-01" purity="9.9733091890811920e-02" nType="0">
            <Node pos="l" depth="3" NCoef="0" IVar="-1" Cut="0.0000000000000000e+00" cType="1" res="-1.5749384462833405e-01" rms="1.6053107380867004e-01" purity="2.6470934972167015e-02" nType="-99"/>
            <Node pos="r" depth="3" NCoef="0" IVar="-1" Cut="0.0000000000000000e+00" cType="1" res="-1.0811090469360352e-01" rms="3.7431573867797852e-01" purity="1.6850683093070984e-01" nType="-99"/>
          </Node>
          <Node pos="r" depth="2" NCoef="0" IVar="2" Cut="3.1089234352111816e-01" cType="1" res="-1.1212086677551270e-01" rms="4.7093263268470764e-01" purity="3.5998967289924622e-01" nType="0">
            <Node pos="l" depth="3" NCoef="0" IVar="-1" Cut="0.0000000000000000e+00" cType="1" res="-8.5639931261539459e-02" rms="4.2538064718246460e-01" purity="2.3722381889820099e-01" nType="-99"/>
            <Node pos="r" depth="3" NCoef="0" IVar="-1" Cut="0.0000000000000000e+00" cType="1" res="1.6930956393480301e-02" rms="4.9570772051811218e-01" purity="5.4996979236602783e-01" nType="-99"/>
          </Node>
        </Node>
        <Node pos="r" depth="1" NCoef="0" IVar="2" Cut="8.5355657339096069e-01" cType="1" res="3.7628400325775146e-01" rms="1.7085875570774078e-01" purity="9.6895653009414673e-01" nType="0">
          <Node pos="l" depth="2" NCoef="0" IVar="-1" Cut="0.0000000000000000e+00" cType="1" res="1.1334168910980225e-01" rms="3.6007717251777649e-01" purity="8.4690696001052856e-01" nType="-99"/>
          <Node pos="r" depth="2" NCoef="0" IVar="2" Cut="9.3804490566253662e-01" cType="1" res="3.9189088344573975e-01" rms="1.0708478093147278e-01" purity="9.8833078145980835e-01" nType="0">
            <Node pos="l" depth="3" NCoef="0" IVar="-1" Cut="0.0000000000000000e+00" cType="1" res="1.5409989655017853e-01" rms="1.8401193618774414e-01" purity="9.6484088897705078e-01" nType="-99"/>
            <Node pos="r" depth="3" NCoef="0" IVar="-1" Cut="0.0000000000000000e+00" cType="1" res="1.6569526493549347e-01" rms="6.2690988183021545e-02" purity="9.9605429172515869e-01" nType="-99"/>
          </Node>
        </Node>
      </Node>
    </BinaryTree>
    <BinaryTree type="DecisionTree" boostWeight="1.0000000000000000e+00" itree="2">
      <Node pos="s" depth="0" NCoef="0" IVar="2" Cut="5.7692307233810425e-01" cType="1" res="4.1558223892934620e-04" rms="3.8772174715995789e-01" purity="5.0000000000000000e-01" nType="0">
        <Node pos="l" depth="1" NCoef="0" IVar="2" Cut="1.7007558047771454e-01" cType="1" res="-2.1663300693035126e-01" rms="3.5273811221122742e-01" purity="1.6449378430843353e-01" nType="0">
          <Node pos="l" depth="2" NCoef="0" IVar="2" Cut="-9.6088438034057617e+00" cType="1" res="-2.5858867168426514e-01" rms="2.9482558369636536e-01" purity="9.9733091890811920e-02" nType="0">
            <Node pos="l" depth="3" NCoef="0" IVar="-1" Cut="0.0000000000000000e+00" cType="1" res="-1.4588274061679840e-01" rms="9.4823069870471954e-02" purity="9.0737473219633102e-03" nType="-99"/>
            <Node pos="r" depth="3" NCoef="0" IVar="-1" Cut="0.0000000000000000e+00" cType="1" res="-9.5646284520626068e-02" rms="3.5437944531440735e-01" purity="1.4888675510883331e-01" nType="-99"/>
          </Node>
          <Node pos="r" depth="2" NCoef="0" IVar="2" Cut="3.2653859257698059e-01" cType="1" res="-8.9979641139507294e-02" rms="4.6505734324455261e-01" purity="3.5998967289924622e-01" nType="0">
            <Node pos="l" depth="3" NCoef="0" IVar="-1" Cut="0.0000000000000000e+00" cType="1" res="-6.8397179245948792e-02" rms="4.2920997738838196e-01" purity="2.4464237689971924e-01" nType="-99"/>
            <Node pos="r" depth="3" NCoef="0" IVar="-1" Cut="0.0000000000000000e+00" cType="1" res="1.8441133201122284e-02" rms="4.9534338712692261e-01" purity="5.6808024644851685e-01" nType="-99"/>
          </Node>
        </Node>
        <Node pos="r" depth="1" NCoef="0" IVar="2" Cut="8.6982804536819458e-01" cType="1" res="3.0379700660705566e-01" rms="1.6925366222858429e-01" purity="9.6895653009414673e-01" nType="0">
          <Node pos="l" depth="2" NCoef="0" IVar="-1" Cut="0.0000000000000000e+00" cType="1" res="9.9026441574096680e-02" rms="3.4553179144859314e-01" purity="8.6045980453491211e-01" nType="-99"/>
          <Node pos="r" depth="2" NCoef="0" IVar="2" Cut="9.3992960453033447e-01" cType="1" res="3.1809961795806885e-01" rms="9.8206467926502228e-02" purity="9.9018114805221558e-01" nType="0">
            <Node pos="l" depth="3" NCoef="0" IVar="-1" Cut="0.0000000000000000e+00" cType="1" res="1.3697738945484161e-01" rms="1.6951256990432739e-01" purity="9.7033929824829102e-01" nType="-99"/>
            <Node pos="r" depth="3" NCoef="0" IVar="-1" Cut="0.0000000000000000e+00" cType="1" res="1.4661453664302826e-01" rms="6.1490502208471298e-02" purity="9.9620449542999268e-01" nType="-99"/>
          </Node>
        </Node>
      </Node>
    </BinaryTree>
    <BinaryTree type="DecisionTree" boostWeight="1.0000000000000000e+00" itree="3">
      <Node pos="s" depth="0" NCoef="0" IVar="2" Cut="5.7692307233810425e-01" cType="1" res="7.0496642729267478e-04" rms="3.5427299141883850e-01" purity="5.0000000000000000e-01" nType="0">
        <Node pos="l" depth="1" NCoef="0" IVar="0" Cut="1.5441936254501343e+00" cType="1" res="-1.7486236989498138e-01" rms="3.4805902838706970e-01" purity="1.6449378430843353e-01" nType="0">
          <Node pos="l" depth="2" NCoef="0" IVar="0" Cut="-1.4676328897476196e+00" cType="1" res="-1.3060948252677917e-01" rms="3.8792097568511963e-01" purity="2.1706366539001465e-01" nType="0">
            <Node pos="l" depth="3" NCoef="0" IVar="-1" Cut="0.0000000000000000e+00" cType="1" res="-1.2126956135034561e-01" rms="2.3293499648571014e-01" purity="6.3788525760173798e-02" nType="-99"/>
            <Node pos="r" depth="3" NCoef="0" IVar="-1" Cut="0.0000000000000000e+00" cType="1" res="-6.1660323990508914e-04" rms="4.6138966083526611e-01" purity="3.6973938345909119e-01" nType="-99"/>
          </Node>
          <Node pos="r" depth="2" NCoef="0" IVar="1" Cut="1.0000000000000000e+00" cType="1" res="-5.4035872220993042e-02" rms="1.8615405261516571e-01" purity="5.4900534451007843e-02" nType="0">
            <Node pos="l" depth="3" NCoef="0" IVar="-1" Cut="0.0000000000000000e+00" cType="1" res="-1.3798609375953674e-01" rms="1.5858329832553864e-01" purity="2.5842163711786270e-02" nType="-99"/>
            <Node pos="r" depth="3" NCoef="0" IVar="-1" Cut="0.0000000000000000e+00" cType="1" res="-1.1044791340827942e-01" rms="2.6449474692344666e-01" purity="8.6735047399997711e-02" nType="-99"/>
          </Node>
        </Node>
        <Node pos="r" depth="1" NCoef="0" IVar="2" Cut="8.5355657339096069e-01" cType="1" res="2.4610562622547150e-01" rms="1.6823713481426239e-01" purity="9.6895653009414673e-01" nType="0">
          <Node pos="l" depth="2" NCoef="0" IVar="-1" Cut="0.0000000000000000e+00" cType="1" res="8.0443568527698517e-02" rms="3.6007714271545410e-01" purity="8.4690696001052856e-01" nType="-99"/>
          <Node pos="r" depth="2" NCoef="0" IVar="2" Cut="9.0988343954086304e-01" cType="1" res="2.5688219070434570e-01" rms="1.0661756992340088e-01" purity="9.8833078145980835e-01" nType="0">
            <Node pos="l" depth="3" NCoef="0" IVar="-1" Cut="0.0000000000000000e+00" cType="1" res="1.1729093641042709e-01" rms="2.0683068037033081e-01" purity="9.5507550239562988e-01" nType="-99"/>
            <Node pos="r" depth="3" NCoef="0" IVar="-1" Cut="0.0000000000000000e+00" cType="1" res="1.3311804831027985e-01" rms="7.8239373862743378e-02" purity="9.9381071329116821e-01" nType="-99"/>
          </Node>
        </Node>
      </Node>
    </BinaryTree>
    <BinaryTree type="DecisionTree" boostWeight="1.0000000000000000e+00" itree="4">
      <Node pos="s" depth="0" NCoef="0" IVar="2" Cut="5.7692307233810425e-01" cType="1" res="8.5245032096281648e-04" rms="3.2785126566886902e-01" purity="5.0000000000000000e-01" nType="0">
        <Node pos="l" depth="1" NCoef="0" IVar="2" Cut="1.7007558047771454e-01" cType="1" res="-1.4147143065929413e-01" rms="3.4020683169364929e-01" purity="1.6449378430843353e-01" nType="0">
          <Node pos="l" depth="2" NCoef="0" IVar="1" Cut="1.0000000000000000e+00" cType="1" res="-1.4947397634387016e-02" rms="5.7783842086791992e-02" purity="9.9733091890811920e-02" nType="0">
            <Node pos="l" depth="3" NCoef="0" IVar="-1" Cut="0.0000000000000000e+00" cType="1" res="-1.1335586756467819e-01" rms="2.1030332148075104e-01" purity="4.8732437193393707e-02" nType="-99"/>
            <Node pos="r" depth="3" NCoef="0" IVar="-1" Cut="0.0000000000000000e+00" cType="1" res="-7.7099978923797607e-02" rms="3.1691837310791016e-01" purity="1.2481236457824707e-01" nType="-99"/>
          </Node>
          <Node pos="r" depth="2" NCoef="0" IVar="0" Cut="1.0838294029235840e+00" cType="1" res="-3.9336763322353363e-02" rms="4.4827696681022644e-01" purity="3.5998967289924622e-01" nType="0">
            <Node pos="l" depth="3" NCoef="0" IVar="-1" Cut="0.0000000000000000e+00" cType="1" res="1.1198740452528000e-02" rms="4.6378731727600098e-01" purity="4.3631246685981750e-01" nType="-99"/>
            <Node pos="r" depth="3" NCoef="0" IVar="-1" Cut="0.0000000000000000e+00" cType="1" res="-6.8529896438121796e-02" rms="3.9213955402374268e-01" purity="2.2259756922721863e-01" nType="-99"/>
          </Node>
        </Node>
        <Node pos="r" depth="1" NCoef="0" IVar="2" Cut="8.5355657339096069e-01" cType="1" res="1.9978681206703186e-01" rms="1.6751435399055481e-01" purity="9.6895653009414673e-01" nType="0">
          <Node pos="l" depth="2" NCoef="0" IVar="-1" Cut="0.0000000000000000e+00" cType="1" res="6.8814158439636230e-02" rms="3.6007714271545410e-01" purity="8.4690696001052856e-01" nType="-99"/>
          <Node pos="r" depth="2" NCoef="0" IVar="2" Cut="9.4367718696594238e-01" cType="1" res="2.0870773494243622e-01" rms="1.0655009001493454e-01" purity="9.8833078145980835e-01" nType="0">
            <Node pos="l" depth="3" NCoef="0" IVar="-1" Cut="0.0000000000000000e+00" cType="1" res="1.1153566837310791e-01" rms="1.7752568423748016e-01" purity="9.6721005439758301e-01" nType="-99"/>
            <Node pos="r" depth="3" NCoef="0" IVar="-1" Cut="0.0000000000000000e+00" cType="1" res="1.2550589442253113e-01" rms="5.9890948235988617e-02" purity="9.9640011787414551e-01" nType="-99"/>
          </Node>
        </Node>
      </Node>
    </BinaryTree>
    <BinaryTree type="DecisionTree" boostWeight="1.0000000000000000e+00" itree="5">
      <Node pos="s" depth="0" NCoef="0" IVar="2" Cut="5.7692307233810425e-01" cType="1" res="1.0833555134013295e-03" rms="3.1085631251335144e-01" purity="5.0000000000000000e-01" nType="0">
        <Node pos="l" depth="1" NCoef="0" IVar="0" Cut="-1.9105336666107178e+00" cType="1" res="-1.1432684957981110e-01" rms="3.3744427561759949e-01" purity="1.6449378430843353e-01" nType="0">
          <Node pos="l" depth="2" NCoef="0" IVar="2" Cut="-6.4414244890213013e-01" cType="1" res="-2.0400793850421906e-01" rms="1.8995016813278198e-01" purity="3.8751639425754547e-02" nType="0">
            <Node pos="l" depth="3" NCoef="0" IVar="-1" Cut="0.0000000000000000e+00" cType="1" res="-1.1509384959936142e-01" rms="1.2833799421787262e-01" purity="1.6864687204360962e-02" nType="-99"/>
            <Node pos="r" depth="3" NCoef="0" IVar="-1" Cut="0.0000000000000000e+00" cType="1" res="-1.1252829432487488e-01" rms="2.6463940739631653e-01" purity="7.8471377491950989e-02" nType="-99"/>
          </Node>
          <Node pos="r" depth="2" NCoef="0" IVar="0" Cut="1.2784799337387085e+00" cType="1" res="-8.0543637275695801e-02" rms="3.7282770872116089e-01" purity="2.1186134219169617e-01" nType="0">
            <Node pos="l" depth="3" NCoef="0" IVar="-1" Cut="0.0000000000000000e+00" cType="1" res="5.7003092952072620e-03" rms="4.4792419672012329e-01" purity="3.4906435012817383e-01" nType="-99"/>
            <Node pos="r" depth="3" NCoef="0" IVar="-1" Cut="0.0000000000000000e+00" cType="1" res="-9.5998324453830719e-02" rms="2.4341183900833130e-01" purity="7.3304951190948486e-02" nType="-99"/>
          </Node>
        </Node>
        <Node pos="r" depth="1" NCoef="0" IVar="2" Cut="8.6982804536819458e-01" cType="1" res="1.6239890456199646e-01" rms="1.6702798008918762e-01" purity="9.6895653009414673e-01" nType="0">
          <Node pos="l" depth="2" NCoef="0" IVar="-1" Cut="0.0000000000000000e+00" cType="1" res="6.2439035624265671e-02" rms="3.4525421261787415e-01" purity="8.6045980453491211e-01" nType="-99"/>
          <Node pos="r" depth="2" NCoef="0" IVar="2" Cut="9.2491197586059570e-01" cType="1" res="1.7077895998954773e-01" rms="9.8021477460861206e-02" purity="9.9018114805221558e-01" nType="0">
            <Node pos="l" depth="3" NCoef="0" IVar="-1" Cut="0.0000000000000000e+00" cType="1" res="1.0247290134429932e-01" rms="1.8100991845130920e-01" purity="9.6605020761489868e-01" nType="-99"/>
            <Node pos="r" depth="3" NCoef="0" IVar="-1" Cut="0.0000000000000000e+00" cType="1" res="1.1824979633092880e-01" rms="7.0025369524955750e-02" purity="9.9505704641342163e-01" nType="-99"/>
          </Node>
        </Node>
      </Node>
    </BinaryTree>
    <BinaryTree type="DecisionTree" boostWeight="1.0000000000000000e+00" itree="6">
      <Node pos="s" depth="0" NCoef="0" IVar="2" Cut="5.7692307233810425e-01" cType="1" res="1.0644558351486921e-03" rms="2.9729110002517700e-01" purity="5.0000000000000000e-01" nType="0">
        <Node pos="l" depth="1" NCoef="0" IVar="1" Cut="3.0000000000000000e+00" cType="1" res="-8.1131896004080772e-03" rms="3.7597924470901489e-02" purity="1.6449378430843353e-01" nType="0">
          <Node pos="l" depth="2" NCoef="0" IVar="1" Cut="1.0000000000000000e+00" cType="1" res="-1.4739873586222529e-03" rms="1.5375846065580845e-02" purity="2.0380954444408417e-01" nType="0">
            <Node pos="l" depth="3" NCoef="0" IVar="-1" Cut="0.0000000000000000e+00" cType="1" res="-8.6934380233287811e-02" rms="2.5461316108703613e-01" purity="8.5384108126163483e-02" nType="-99"/>
            <Node pos="r" depth="3" NCoef="0" IVar="-1" Cut="0.0000000000000000e+00" cType="1" res="1.0517941787838936e-02" rms="4.1350603103637695e-01" purity="3.0612719058990479e-01" nType="-99"/>
          </Node>
          <Node pos="r" depth="2" NCoef="0" IVar="0" Cut="-7.6280689239501953e-01" cType="1" res="-1.6770453751087189e-01" rms="2.4920508265495300e-01" purity="7.7978894114494324e-02" nType="0">
            <Node pos="l" depth="3" NCoef="0" IVar="-1" Cut="0.0000000000000000e+00" cType="1" res="-1.0890199989080429e-01" rms="2.0313514769077301e-01" purity="4.6314153820276260e-02" nType="-99"/>
            <Node pos="r" depth="3" NCoef="0" IVar="-1" Cut="0.0000000000000000e+00" cType="1" res="-7.0016995072364807e-02" rms="3.1172308325767517e-01" purity="1.3439603149890900e-01" nType="-99"/>
          </Node>
        </Node>
        <Node pos="r" depth="1" NCoef="0" IVar="1" Cut="1.0000000000000000e+00" cType="1" res="8.9690712047740817e-04" rms="6.1100982129573822e-02" purity="9.6895653009414673e-01" nType="0">
          <Node pos="l" depth="2" NCoef="0" IVar="-1" Cut="0.0000000000000000e+00" cType="1" res="6.7227840423583984e-02" rms="2.4820926785469055e-01" purity="9.2625814676284790e-01" nType="-99"/>
          <Node pos="r" depth="2" NCoef="0" IVar="1" Cut="3.0000000000000000e+00" cType="1" res="5.4107782489154488e-05" rms="4.5646756887435913e-02" purity="9.7587925195693970e-01" nType="0">
            <Node pos="l" depth="3" NCoef="0" IVar="-1" Cut="0.0000000000000000e+00" cType="1" res="1.0879287868738174e-01" rms="1.2150990962982178e-01" purity="9.8441636562347412e-01" nType="-99"/>
            <Node pos="r" depth="3" NCoef="0" IVar="-1" Cut="0.0000000000000000e+00" cType="1" res="7.5298741459846497e-02" rms="2.2910238802433014e-01" purity="9.3806439638137817e-01" nType="-99"/>
          </Node>
        </Node>
      </Node>
    </BinaryTree>
    <BinaryTree type="DecisionTree" boostWeight="1.0000000000000000e+00" itree="7">
      <Node pos="s" depth="0" NCoef="0" IVar="2" Cut="1.5384615957736969e-01" cType="1" res="1.0350444354116917e-03" rms="2.8740161657333374e-01" purity="5.0000000000000000e-01" nType="0">
        <Node pos="l" depth="1" NCoef="0" IVar="2" Cut="-9.6094675064086914e+00" cType="1" res="-1.0548844933509827e-01" rms="2.7718979120254517e-01" purity="9.6072070300579071e-02" nType="0">
          <Node pos="l" depth="2" NCoef="0" IVar="1" Cut="1.0000000000000000e+00" cType="1" res="-2.6801103726029396e-02" rms="6.1088312417268753e-02" purity="9.0737473219633102e-03" nType="0">
            <Node pos="l" depth="3" NCoef="0" IVar="-1" Cut="0.0000000000000000e+00" cType="1" res="-1.0936511307954788e-01" rms="8.5371285676956177e-02" purity="7.3408503085374832e-03" nType="-99"/>
            <Node pos="r" depth="3" NCoef="0" IVar="-1" Cut="0.0000000000000000e+00" cType="1" res="-1.1105833947658539e-01" rms="1.0035490244626999e-01" purity="9.9891424179077148e-03" nType="-99"/>
          </Node>
          <Node pos="r" depth="2" NCoef="0" IVar="1" Cut="3.0000000000000000e+00" cType="1" res="-1.8908701837062836e-02" rms="8.3825856447219849e-02" purity="1.4620423316955566e-01" nType="0">
            <Node pos="l" depth="3" NCoef="0" IVar="-1" Cut="0.0000000000000000e+00" cType="1" res="-3.5030465573072433e-02" rms="3.6454066634178162e-01" purity="1.7590831220149994e-01" nType="-99"/>
            <Node pos="r" depth="3" NCoef="0" IVar="-1" Cut="0.0000000000000000e+00" cType="1" res="-8.3891235291957855e-02" rms="2.6066040992736816e-01" purity="7.6495461165904999e-02" nType="-99"/>
          </Node>
        </Node>
        <Node pos="r" depth="1" NCoef="0" IVar="2" Cut="3.8166677951812744e-01" cType="1" res="7.8522726893424988e-02" rms="2.6932334899902344e-01" purity="7.9382663965225220e-01" nType="0">
          <Node pos="l" depth="2" NCoef="0" IVar="0" Cut="-8.8245272636413574e-01" cType="1" res="-4.2590349912643433e-02" rms="4.0523961186408997e-01" purity="2.5899335741996765e-01" nType="0">
            <Node pos="l" depth="3" NCoef="0" IVar="-1" Cut="0.0000000000000000e+00" cType="1" res="-6.1072241514921188e-02" rms="3.5822665691375732e-01" purity="1.7317891120910645e-01" nType="-99"/>
            <Node pos="r" depth="3" NCoef="0" IVar="-1" Cut="0.0000000000000000e+00" cType="1" res="6.8569188006222248e-03" rms="4.2571035027503967e-01" purity="3.1837353110313416e-01" nType="-99"/>
          </Node>
          <Node pos="r" depth="2" NCoef="0" IVar="0" Cut="-1.3098562955856323e+00" cType="1" res="1.1199668049812317e-01" rms="2.0498836040496826e-01" purity="9.4164705276489258e-01" nType="0">
            <Node pos="l" depth="3" NCoef="0" IVar="-1" Cut="0.0000000000000000e+00" cType="1" res="3.7655785679817200e-02" rms="3.0392035841941833e-01" purity="8.4183919429779053e-01" nType="-99"/>
            <Node pos="r" depth="3" NCoef="0" IVar="-1" Cut="0.0000000000000000e+00" cType="1" res="9.5314644277095795e-02" rms="1.8449434638023376e-01" purity="9.5631384849548340e-01" nType="-99"/>
          </Node>
        </Node>
      </Node>
    </BinaryTree>
    <BinaryTree type="DecisionTree" boostWeight="1.0000000000000000e+00" itree="8">
      <Node pos="s" depth="0" NCoef="0" IVar="2" Cut="1.5384615957736969e-01" cType="1" res="8.8640901958569884e-04" rms="2.8013896942138672e-01" purity="5.0000000000000000e-01" nType="0">
        <Node pos="l" depth="1" NCoef="0" IVar="0" Cut="1.1603350639343262e+00" cType="1" res="-8.5503630340099335e-02" rms="2.7654844522476196e-01" purity="9.6072070300579071e-02" nType="0">
          <Node pos="l" depth="2" NCoef="0" IVar="0" Cut="-9.6565347909927368e-01" cType="1" res="-6.6635869443416595e-02" rms="3.1765413284301758e-01" purity="1.3128410279750824e-01" nType="0">
            <Node pos="l" depth="3" NCoef="0" IVar="-1" Cut="0.0000000000000000e+00" cType="1" res="-8.4128446877002716e-02" rms="2.1223917603492737e-01" purity="5.1122892647981644e-02" nType="-99"/>
            <Node pos="r" depth="3" NCoef="0" IVar="-1" Cut="0.0000000000000000e+00" cType="1" res="1.3828739523887634e-02" rms="4.4862368702888489e-01" purity="2.9407224059104919e-01" nType="-99"/>
          </Node>
          <Node pos="r" depth="2" NCoef="0" IVar="1" Cut="1.0000000000000000e+00" cType="1" res="-1.7101323232054710e-02" rms="1.3915446400642395e-01" purity="4.0529426187276840e-02" nType="0">
            <Node pos="l" depth="3" NCoef="0" IVar="-1" Cut="0.0000000000000000e+00" cType="1" res="-1.0242936760187149e-01" rms="1.3516423106193542e-01" purity="1.8337229266762733e-02" nType="-99"/>
            <Node pos="r" depth="3" NCoef="0" IVar="-1" Cut="0.0000000000000000e+00" cType="1" res="-7.5863972306251526e-02" rms="2.3748269677162170e-01" purity="6.4921505749225616e-02" nType="-99"/>
          </Node>
        </Node>
        <Node pos="r" depth="1" NCoef="0" IVar="0" Cut="1.7392567396163940e+00" cType="1" res="6.3728548586368561e-02" rms="2.6561954617500305e-01" purity="7.9382663965225220e-01" nType="0">
          <Node pos="l" depth="2" NCoef="0" IVar="0" Cut="-1.7899781465530396e+00" cType="1" res="8.2152411341667175e-02" rms="2.5264286994934082e-01" purity="8.3966410160064697e-01" nType="0">
            <Node pos="l" depth="3" NCoef="0" IVar="-1" Cut="0.0000000000000000e+00" cType="1" res="-5.9252358973026276e-02" rms="3.2255983352661133e-01" purity="3.6973297595977783e-01" nType="-99"/>
            <Node pos="r" depth="3" NCoef="0" IVar="-1" Cut="0.0000000000000000e+00" cType="1" res="8.2727506756782532e-02" rms="2.3339831829071045e-01" purity="8.9667618274688721e-01" nType="-99"/>
          </Node>
          <Node pos="r" depth="2" NCoef="0" IVar="-1" Cut="0.0000000000000000e+00" cType="1" res="-6.1247568577528000e-02" rms="3.1700533628463745e-01" purity="3.8701424002647400e-01" nType="-99"/>
        </Node>
      </Node>
    </BinaryTree>
    <BinaryTree type="DecisionTree" boostWeight="1.0000000000000000e+00" itree="9">
      <Node pos="s" depth="0" NCoef="0" IVar="2" Cut="5.7692307233810425e-01" cType="1" res="5.9706950560212135e-04" rms="2.7310869097709656e-01" purity="5.0000000000000000e-01" nType="0">
        <Node pos="l" depth="1" NCoef="0" IVar="0" Cut="1.9280521869659424e+00" cType="1" res="-5.2453536540269852e-02" rms="3.1880578398704529e-01" purity="1.6449378430843353e-01" nType="0">
          <Node pos="l" depth="2" NCoef="0" IVar="0" Cut="-1.2609292268753052e+00" cType="1" res="-3.0810510739684105e-02" rms="3.5439023375511169e-01" purity="2.1202696859836578e-01" nType="0">
            <Node pos="l" depth="3" NCoef="0" IVar="-1" Cut="0.0000000000000000e+00" cType="1" res="-7.1733057498931885e-02" rms="2.4395711719989777e-01" purity="7.8103676438331604e-02" nType="-99"/>
            <Node pos="r" depth="3" NCoef="0" IVar="-1" Cut="0.0000000000000000e+00" cType="1" res="1.7915459349751472e-02" rms="4.2762976884841919e-01" purity="3.4590899944305420e-01" nType="-99"/>
          </Node>
          <Node pos="r" depth="2" NCoef="0" IVar="2" Cut="-6.4359283447265625e-01" cType="1" res="-1.1121145635843277e-01" rms="1.7854271829128265e-01" purity="3.5447575151920319e-02" nType="0">
            <Node pos="l" depth="3" NCoef="0" IVar="-1" Cut="0.0000000000000000e+00" cType="1" res="-9.6943743526935577e-02" rms="1.2529033422470093e-01" purity="1.6167683526873589e-02" nType="-99"/>
            <Node pos="r" depth="3" NCoef="0" IVar="-1" Cut="0.0000000000000000e+00" cType="1" res="-8.6141645908355713e-02" rms="2.4826310575008392e-01" purity="7.2298236191272736e-02" nType="-99"/>
          </Node>
        </Node>
        <Node pos="r" depth="1" NCoef="0" IVar="2" Cut="8.5355657339096069e-01" cType="1" res="7.4748985469341278e-02" rms="1.6537347435951233e-01" purity="9.6895653009414673e-01" nType="0">
          <Node pos="l" depth="2" NCoef="0" IVar="-1" Cut="0.0000000000000000e+00" cType="1" res="1.0512278415262699e-02" rms="3.5333338379859924e-01" purity="8.4690696001052856e-01" nType="-99"/>
          <Node pos="r" depth="2" NCoef="0" IVar="2" Cut="9.1551572084426880e-01" cType="1" res="8.4292411804199219e-02" rms="1.0586278885602951e-01" purity="9.8833078145980835e-01" nType="0">
            <Node pos="l" depth="3" NCoef="0" IVar="-1" Cut="0.0000000000000000e+00" cType="1" res="6.9141529500484467e-02" rms="2.0044150948524475e-01" purity="9.5689797401428223e-01" nType="-99"/>
            <Node pos="r" depth="3" NCoef="0" IVar="-1" Cut="0.0000000000000000e+00" cType="1" res="1.0366705805063248e-01" rms="7.4887029826641083e-02" purity="9.9434238672256470e-01" nType="-99"/>
          </Node>
        </Node>
      </Node>
    </BinaryTree>
    <BinaryTree type="DecisionTree" boostWeight="1.0000000000000000e+00" itree="10">
      <Node pos="s" depth="0" NCoef="0" IVar="2" Cut="1.5384615957736969e-01" cType="1" res="5.5033469107002020e-04" rms="2.6875481009483337e-01" purity="5.0000000000000000e-01" nType="0">
        <Node pos="l" depth="1" NCoef="0" IVar="1" Cut="1.0000000000000000e+00" cType="1" res="-6.0260114260017872e-03" rms="2.6965958997607231e-02" purity="9.6072070300579071e-02" nType="0">
          <Node pos="l" depth="2" NCoef="0" IVar="2" Cut="-6.2721991539001465e-01" cType="1" res="-8.9084647595882416e-02" rms="2.0462915301322937e-01" purity="4.6290252357721329e-02" nType="0">
            <Node pos="l" depth="3" NCoef="0" IVar="-1" Cut="0.0000000000000000e+00" cType="1" res="-8.7388724088668823e-02" rms="1.2844333052635193e-01" purity="1.7741108313202858e-02" nType="-99"/>
            <Node pos="r" depth="3" NCoef="0" IVar="-1" Cut="0.0000000000000000e+00" cType="1" res="-7.4106268584728241e-02" rms="2.6290616393089294e-01" purity="7.8023284673690796e-02" nType="-99"/>
          </Node>
          <Node pos="r" depth="2" NCoef="0" IVar="1" Cut="3.0000000000000000e+00" cType="1" res="-3.0967677012085915e-03" rms="1.8495731055736542e-02" purity="1.2056557089090347e-01" nType="0">
            <Node pos="l" depth="3" NCoef="0" IVar="-1" Cut="0.0000000000000000e+00" cType="1" res="-4.2411433532834053e-03" rms="3.6546215415000916e-01" purity="1.9167065620422363e-01" nType="-99"/>
            <Node pos="r" depth="3" NCoef="0" IVar="-1" Cut="0.0000000000000000e+00" cType="1" res="-7.7246293425559998e-02" rms="2.0440986752510071e-01" purity="4.7130316495895386e-02" nType="-99"/>
          </Node>
        </Node>
        <Node pos="r" depth="1" NCoef="0" IVar="2" Cut="3.8166677951812744e-01" cType="1" res="4.4751781970262527e-02" rms="2.5670006871223450e-01" purity="7.9382663965225220e-01" nType="0">
          <Node pos="l" depth="2" NCoef="0" IVar="0" Cut="8.6535358428955078e-01" cType="1" res="-2.9756419360637665e-02" rms="3.8993027806282043e-01" purity="2.5899335741996765e-01" nType="0">
            <Node pos="l" depth="3" NCoef="0" IVar="-1" Cut="0.0000000000000000e+00" cType="1" res="2.8276657685637474e-03" rms="4.1200643777847290e-01" purity="3.1554535031318665e-01" nType="-99"/>
            <Node pos="r" depth="3" NCoef="0" IVar="-1" Cut="0.0000000000000000e+00" cType="1" res="-4.5064073055982590e-02" rms="3.4824612736701965e-01" purity="1.7536921799182892e-01" nType="-99"/>
          </Node>
          <Node pos="r" depth="2" NCoef="0" IVar="1" Cut="1.0000000000000000e+00" cType="1" res="-1.2780108954757452e-03" rms="7.2169236838817596e-02" purity="9.4164705276489258e-01" nType="0">
            <Node pos="l" depth="3" NCoef="0" IVar="-1" Cut="0.0000000000000000e+00" cType="1" res="2.3163432255387306e-02" rms="2.8251987695693970e-01" purity="8.6697161197662354e-01" nType="-99"/>
            <Node pos="r" depth="3" NCoef="0" IVar="-1" Cut="0.0000000000000000e+00" cType="1" res="7.8222922980785370e-02" rms="1.8144358694553375e-01" purity="9.5457923412322998e-01" nType="-99"/>
          </Node>
        </Node>
      </Node>
    </BinaryTree>
    <BinaryTree type="DecisionTree" boostWeight="1.0000000000000000e+00" itree="11">
      <Node pos="s" depth="0" NCoef="0" IVar="2" Cut="1.5384615957736969e-01" cType="1" res="4.5122491428628564e-04" rms="2.6578691601753235e-01" purity="5.0000000000000000e-01" nType="0">
        <Node pos="l" depth="1" NCoef="0" IVar="2" Cut="-9.6094675064086914e+00" cType="1" res="-4.8789873719215393e-02" rms="2.7207869291305542e-01" purity="9.6072070300579071e-02" nType="0">
          <Node pos="l" depth="2" NCoef="0" IVar="1" Cut="1.0000000000000000e+00" cType="1" res="-1.4694995246827602e-02" rms="3.9981909096240997e-02" purity="9.0737473219633102e-03" nType="0">
            <Node pos="l" depth="3" NCoef="0" IVar="-1" Cut="0.0000000000000000e+00" cType="1" res="-9.5589414238929749e-02" rms="8.5343904793262482e-02" purity="7.3408503085374832e-03" nType="-99"/>
            <Node pos="r" depth="3" NCoef="0" IVar="-1" Cut="0.0000000000000000e+00" cType="1" res="-9.7793400287628174e-02" rms="1.0017193108797073e-01" purity="9.9891424179077148e-03" nType="-99"/>
          </Node>
          <Node pos="r" depth="2" NCoef="0" IVar="1" Cut="1.0000000000000000e+00" cType="1" res="-1.0255483910441399e-02" rms="7.3959402740001678e-02" purity="1.4620423316955566e-01" nType="0">
            <Node pos="l" depth="3" NCoef="0" IVar="-1" Cut="0.0000000000000000e+00" cType="1" res="-6.4036935567855835e-02" rms="2.5103384256362915e-01" purity="7.0487797260284424e-02" nType="-99"/>
            <Node pos="r" depth="3" NCoef="0" IVar="-1" Cut="0.0000000000000000e+00" cType="1" res="-9.1854026541113853e-03" rms="3.6343660950660706e-01" purity="1.8193557858467102e-01" nType="-99"/>
          </Node>
        </Node>
        <Node pos="r" depth="1" NCoef="0" IVar="0" Cut="-1.7563558816909790e+00" cType="1" res="3.6270350217819214e-02" rms="2.5521406531333923e-01" purity="7.9382663965225220e-01" nType="0">
          <Node pos="l" depth="2" NCoef="0" IVar="-1" Cut="0.0000000000000000e+00" cType="1" res="-5.0858784466981888e-02" rms="3.1696256995201111e-01" purity="3.8260731101036072e-01" nType="-99"/>
          <Node pos="r" depth="2" NCoef="0" IVar="0" Cut="1.7728805541992188e+00" cType="1" res="4.8919990658760071e-02" rms="2.4404864013195038e-01" purity="8.4040266275405884e-01" nType="0">
            <Node pos="l" depth="3" NCoef="0" IVar="-1" Cut="0.0000000000000000e+00" cType="1" res="6.3639961183071136e-02" rms="2.3113876581192017e-01" purity="8.9649623632431030e-01" nType="-99"/>
            <Node pos="r" depth="3" NCoef="0" IVar="-1" Cut="0.0000000000000000e+00" cType="1" res="-5.2024532109498978e-02" rms="3.0642199516296387e-01" purity="3.7343794107437134e-01" nType="-99"/>
          </Node>
        </Node>
      </Node>
    </BinaryTree>
    <BinaryTree type="DecisionTree" boostWeight="1.0000000000000000e+00" itree="12">
      <Node pos="s" depth="0" NCoef="0" IVar="2" Cut="5.7692307233810425e-01" cType="1" res="2.7085962938144803e-04" rms="2.6297000050544739e-01" purity="5.0000000000000000e-01" nType="0">
        <Node pos="l" depth="1" NCoef="0" IVar="1" Cut="3.0000000000000000e+00" cType="1" res="-3.2125674188137054e-03" rms="1.9293004646897316e-02" purity="1.6449378430843353e-01" nType="0">
          <Node pos="l" depth="2" NCoef="0" IVar="1" Cut="1.0000000000000000e+00" cType="1" res="-6.8705005105584860e-04" rms="7.2947428561747074e-03" purity="2.0380954444408417e-01" nType="0">
            <Node pos="l" depth="3" NCoef="0" IVar="-1" Cut="0.0000000000000000e+00" cType="1" res="-5.8250170201063156e-02" rms="2.4837195873260498e-01" purity="8.5384108126163483e-02" nType="-99"/>
            <Node pos="r" depth="3" NCoef="0" IVar="-1" Cut="0.0000000000000000e+00" cType="1" res="2.3265935480594635e-02" rms="3.8957363367080688e-01" purity="3.0612719058990479e-01" nType="-99"/>
          </Node>
          <Node pos="r" depth="2" NCoef="0" IVar="2" Cut="-6.4392393827438354e-01" cType="1" res="-7.6168321073055267e-02" rms="2.4343149363994598e-01" purity="7.7978894114494324e-02" nType="0">
            <Node pos="l" depth="3" NCoef="0" IVar="-1" Cut="0.0000000000000000e+00" cType="1" res="-8.4153451025485992e-02" rms="1.2204205244779587e-01" purity="1.5630550682544708e-02" nType="-99"/>
            <Node pos="r" depth="3" NCoef="0" IVar="-1" Cut="0.0000000000000000e+00" cType="1" res="-5.9315394610166550e-02" rms="3.0458179116249084e-01" purity="1.2591806054115295e-01" nType="-99"/>
          </Node>
        </Node>
        <Node pos="r" depth="1" NCoef="0" IVar="2" Cut="8.6982804536819458e-01" cType="1" res="4.3358244001865387e-02" rms="1.6441340744495392e-01" purity="9.6895653009414673e-01" nType="0">
          <Node pos="l" depth="2" NCoef="0" IVar="-1" Cut="0.0000000000000000e+00" cType="1" res="-8.9090680703520775e-03" rms="3.3635237812995911e-01" purity="8.6045980453491211e-01" nType="-99"/>
          <Node pos="r" depth="2" NCoef="0" IVar="2" Cut="9.3992960453033447e-01" cType="1" res="5.3785804659128189e-02" rms="9.7589470446109772e-02" purity="9.9018114805221558e-01" nType="0">
            <Node pos="l" depth="3" NCoef="0" IVar="-1" Cut="0.0000000000000000e+00" cType="1" res="6.4415588974952698e-02" rms="1.6764958202838898e-01" purity="9.7033929824829102e-01" nType="-99"/>
            <Node pos="r" depth="3" NCoef="0" IVar="-1" Cut="0.0000000000000000e+00" cType="1" res="1.0002978146076202e-01" rms="6.1973296105861664e-02" purity="9.9620449542999268e-01" nType="-99"/>
          </Node>
        </Node>
      </Node>
    </BinaryTree>
    <BinaryTree type="DecisionTree" boostWeight="1.0000000000000000e+00" itree="13">
      <Node pos="s" depth="0" NCoef="0" IVar="2" Cut="5.7692307233810425e-01" cType="1" res="2.9477686621248722e-04" rms="2.6057392358779907e-01" purity="5.0000000000000000e-01" nType="0">
        <Node pos="l" depth="1" NCoef="0" IVar="0" Cut="-1.5266751050949097e+00" cType="1" res="-2.4810971692204475e-02" rms="3.0948367714881897e-01" purity="1.6449378430843353e-01" nType="0">
          <Node pos="l" depth="2" NCoef="0" IVar="2" Cut="-6.4414244890213013e-01" cType="1" res="-6.3677839934825897e-02" rms="2.2029924392700195e-01" purity="5.9826970100402832e-02" nType="0">
            <Node pos="l" depth="3" NCoef="0" IVar="-1" Cut="0.0000000000000000e+00" cType="1" res="-8.0546453595161438e-02" rms="1.3451442122459412e-01" purity="1.8512386828660965e-02" nType="-99"/>
            <Node pos="r" depth="3" NCoef="0" IVar="-1" Cut="0.0000000000000000e+00" cType="1" res="-5.3964193910360336e-02" rms="2.9007890820503235e-01" purity="1.0857366025447845e-01" nType="-99"/>
          </Node>
          <Node pos="r" depth="2" NCoef="0" IVar="0" Cut="9.8321259021759033e-01" cType="1" res="-5.7518761605024338e-03" rms="3.4328597784042358e-01" purity="2.1581912040710449e-01" nType="0">
            <Node pos="l" depth="3" NCoef="0" IVar="-1" Cut="0.0000000000000000e+00" cType="1" res="3.1717982143163681e-02" rms="4.3422451615333557e-01" purity="3.9391854405403137e-01" nType="-99"/>
            <Node pos="r" depth="3" NCoef="0" IVar="-1" Cut="0.0000000000000000e+00" cType="1" res="-4.6993460506200790e-02" rms="2.5321507453918457e-01" purity="9.3849696218967438e-02" nType="-99"/>
          </Node>
        </Node>
        <Node pos="r" depth="1" NCoef="0" IVar="2" Cut="8.5355657339096069e-01" cType="1" res="3.5386539995670319e-02" rms="1.6375257074832916e-01" purity="9.6895653009414673e-01" nType="0">
          <Node pos="l" depth="2" NCoef="0" IVar="-1" Cut="0.0000000000000000e+00" cType="1" res="-1.1381360702216625e-02" rms="3.5026156902313232e-01" purity="8.4690696001052856e-01" nType="-99"/>
          <Node pos="r" depth="2" NCoef="0" IVar="2" Cut="9.0988343954086304e-01" cType="1" res="4.3155610561370850e-02" rms="1.0562236607074738e-01" purity="9.8833078145980835e-01" nType="0">
            <Node pos="l" depth="3" NCoef="0" IVar="-1" Cut="0.0000000000000000e+00" cType="1" res="4.2563479393720627e-02" rms="2.0373171567916870e-01" purity="9.5507550239562988e-01" nType="-99"/>
            <Node pos="r" depth="3" NCoef="0" IVar="-1" Cut="0.0000000000000000e+00" cType="1" res="9.3039572238922119e-02" rms="7.8206658363342285e-02" purity="9.9381071329116821e-01" nType="-99"/>
          </Node>
        </Node>
      </Node>
    </BinaryTree>
    <BinaryTree type="DecisionTree" boostWeight="1.0000000000000000e+00" itree="14">
      <Node pos="s" depth="0" NCoef="0" IVar="2" Cut="1.5384615957736969e-01" cType="1" res="2.7202803175896406e-04" rms="2.5874400138854980e-01" purity="5.0000000000000000e-01" nType="0">
        <Node pos="l" depth="1" NCoef="0" IVar="0" Cut="-1.1428165435791016e+00" cType="1" res="-3.0403800308704376e-02" rms="2.6925608515739441e-01" purity="9.6072070300579071e-02" nType="0">
          <Node pos="l" depth="2" NCoef="0" IVar="2" Cut="-6.2722146511077881e-01" cType="1" res="-4.7904994338750839e-02" rms="1.9768644869327545e-01" purity="4.3543715029954910e-02" nType="0">
            <Node pos="l" depth="3" NCoef="0" IVar="-1" Cut="0.0000000000000000e+00" cType="1" res="-7.1423992514610291e-02" rms="1.4099888503551483e-01" purity="2.0996984094381332e-02" nType="-99"/>
            <Node pos="r" depth="3" NCoef="0" IVar="-1" Cut="0.0000000000000000e+00" cType="1" res="-4.9903746694326401e-02" rms="2.6964658498764038e-01" purity="8.3285078406333923e-02" nType="-99"/>
          </Node>
          <Node pos="r" depth="2" NCoef="0" IVar="0" Cut="7.4697017669677734e-01" cType="1" res="-1.9241593778133392e-02" rms="3.0576685070991516e-01" purity="1.2957449257373810e-01" nType="0">
            <Node pos="l" depth="3" NCoef="0" IVar="-1" Cut="0.0000000000000000e+00" cType="1" res="2.2781705483794212e-02" rms="4.4594120979309082e-01" purity="3.0361315608024597e-01" nType="-99"/>
            <Node pos="r" depth="3" NCoef="0" IVar="-1" Cut="0.0000000000000000e+00" cType="1" res="-5.0977274775505066e-02" rms="2.1893543004989624e-01" purity="5.8035638183355331e-02" nType="-99"/>
          </Node>
        </Node>
        <Node pos="r" depth="1" NCoef="0" IVar="1" Cut="3.0000000000000000e+00" cType="1" res="-5.6008552201092243e-03" rms="8.4516413509845734e-02" purity="7.9382663965225220e-01" nType="0">
          <Node pos="l" depth="2" NCoef="0" IVar="1" Cut="1.0000000000000000e+00" cType="1" res="-2.4822745472192764e-03" rms="5.7092711329460144e-02" purity="8.3041244745254517e-01" nType="0">
            <Node pos="l" depth="3" NCoef="0" IVar="-1" Cut="0.0000000000000000e+00" cType="1" res="-2.4469582363963127e-02" rms="2.9444962739944458e-01" purity="6.0256904363632202e-01" nType="-99"/>
            <Node pos="r" depth="3" NCoef="0" IVar="-1" Cut="0.0000000000000000e+00" cType="1" res="6.4899556338787079e-02" rms="2.1747548878192902e-01" purity="8.9612382650375366e-01" nType="-99"/>
          </Node>
          <Node pos="r" depth="2" NCoef="0" IVar="2" Cut="8.3728396892547607e-01" cType="1" res="-3.3280577510595322e-02" rms="2.7755588293075562e-01" purity="6.3680511713027954e-01" nType="0">
            <Node pos="l" depth="3" NCoef="0" IVar="-1" Cut="0.0000000000000000e+00" cType="1" res="-6.0286857187747955e-02" rms="3.5814207792282104e-01" purity="2.6075139641761780e-01" nType="-99"/>
            <Node pos="r" depth="3" NCoef="0" IVar="-1" Cut="0.0000000000000000e+00" cType="1" res="5.2988603711128235e-02" rms="1.5413758158683777e-01" purity="9.7425472736358643e-01" nType="-99"/>
          </Node>
        </Node>
      </Node>
    </BinaryTree>
    <BinaryTree type="DecisionTree" boostWeight="1.0000000000000000e+00" itree="15">
      <Node pos="s" depth="0" NCoef="0" IVar="0" Cut="1.9280521869659424e+00" cType="1" res="1.6893672000151128e-04" rms="2.5664502382278442e-01" purity="5.0000000000000000e-01" nType="0">
        <Node pos="l" depth="1" NCoef="0" IVar="0" Cut="-1.2609292268753052e+00" cType="1" res="1.0464520193636417e-02" rms="2.6686292886734009e-01" purity="5.8227741718292236e-01" nType="0">
          <Node pos="l" depth="2" NCoef="0" IVar="0" Cut="-1.9764276742935181e+00" cType="1" res="-3.5073876380920410e-02" rms="2.4265299737453461e-01" purity="2.4598163366317749e-01" nType="0">
            <Node pos="l" depth="3" NCoef="0" IVar="-1" Cut="0.0000000000000000e+00" cType="1" res="-6.5632931888103485e-02" rms="1.9578480720520020e-01" purity="9.1495864093303680e-02" nType="-99"/>
            <Node pos="r" depth="3" NCoef="0" IVar="-1" Cut="0.0000000000000000e+00" cType="1" res="-9.5763523131608963e-03" rms="3.0313655734062195e-01" purity="5.0129443407058716e-01" nType="-99"/>
          </Node>
          <Node pos="r" depth="2" NCoef="0" IVar="1" Cut="1.0000000000000000e+00" cType="1" res="1.7957491800189018e-03" rms="1.1016532033681870e-01" purity="7.4064105749130249e-01" nType="0">
            <Node pos="l" depth="3" NCoef="0" IVar="-1" Cut="0.0000000000000000e+00" cType="1" res="-1.5972955152392387e-02" rms="2.9607328772544861e-01" purity="4.9611860513687134e-01" nType="-99"/>
            <Node pos="r" depth="3" NCoef="0" IVar="-1" Cut="0.0000000000000000e+00" cType="1" res="4.7392543405294418e-02" rms="2.6766690611839294e-01" purity="8.0385774374008179e-01" nType="-99"/>
          </Node>
        </Node>
        <Node pos="r" depth="1" NCoef="0" IVar="2" Cut="-6.9230771064758301e-01" cType="1" res="-5.0153452903032303e-02" rms="1.9149626791477203e-01" purity="9.7847282886505127e-02" nType="0">
          <Node pos="l" depth="2" NCoef="0" IVar="0" Cut="3.1096863746643066e+00" cType="1" res="-4.2169105261564255e-02" rms="1.2524898350238800e-01" purity="1.6167683526873589e-02" nType="0">
            <Node pos="l" depth="3" NCoef="0" IVar="-1" Cut="0.0000000000000000e+00" cType="1" res="-6.1056837439537048e-02" rms="1.6102847456932068e-01" purity="2.7140989899635315e-02" nType="-99"/>
            <Node pos="r" depth="3" NCoef="0" IVar="-1" Cut="0.0000000000000000e+00" cType="1" res="-9.6968375146389008e-02" rms="6.9994099438190460e-02" purity="4.7120093367993832e-03" nType="-99"/>
          </Node>
          <Node pos="r" depth="2" NCoef="0" IVar="-1" Cut="0.0000000000000000e+00" cType="1" res="-5.6824635714292526e-02" rms="2.6224437355995178e-01" purity="2.2377589344978333e-01" nType="-99"/>
        </Node>
      </Node>
    </BinaryTree>
    <BinaryTree type="DecisionTree" boostWeight="1.0000000000000000e+00" itree="16">
      <Node pos="s" depth="0" NCoef="0" IVar="1" Cut="3.0000000000000000e+00" cType="1" res="-1.0910064447671175e-03" rms="1.1949468404054642e-02" purity="5.0000000000000000e-01" nType="0">
        <Node pos="l" depth="1" NCoef="0" IVar="1" Cut="1.0000000000000000e+00" cType="1" res="-2.4131328973453492e-04" rms="3.5747059155255556e-03" purity="5.6373357772827148e-01" nType="0">
          <Node pos="l" depth="2" NCoef="0" IVar="0" Cut="4.7775855660438538e-01" cType="1" res="-2.6321860030293465e-02" rms="2.4627223610877991e-01" purity="2.8593021631240845e-01" nType="0">
            <Node pos="l" depth="3" NCoef="0" IVar="-1" Cut="0.0000000000000000e+00" cType="1" res="1.2396899051964283e-02" rms="2.7846327424049377e-01" purity="4.5983588695526123e-01" nType="-99"/>
            <Node pos="r" depth="3" NCoef="0" IVar="-1" Cut="0.0000000000000000e+00" cType="1" res="-5.8689933270215988e-02" rms="2.2200448811054230e-01" purity="1.8311524391174316e-01" nType="-99"/>
          </Node>
          <Node pos="r" depth="2" NCoef="0" IVar="0" Cut="-1.8991696834564209e+00" cType="1" res="2.9779579490423203e-02" rms="2.6348471641540527e-01" purity="6.9719868898391724e-01" nType="0">
            <Node pos="l" depth="3" NCoef="0" IVar="-1" Cut="0.0000000000000000e+00" cType="1" res="-3.9856363087892532e-02" rms="2.4353371560573578e-01" purity="1.9617868959903717e-01" nType="-99"/>
            <Node pos="r" depth="3" NCoef="0" IVar="-1" Cut="0.0000000000000000e+00" cType="1" res="4.1495222598314285e-02" rms="2.6465064287185669e-01" purity="7.6188194751739502e-01" nType="-99"/>
          </Node>
        </Node>
        <Node pos="r" depth="1" NCoef="0" IVar="2" Cut="5.7692307233810425e-01" cType="1" res="-3.5012267529964447e-02" rms="2.3776689171791077e-01" purity="3.0698928236961365e-01" nType="0">
          <Node pos="l" depth="2" NCoef="0" IVar="2" Cut="-6.4392393827438354e-01" cType="1" res="-4.6818014234304428e-02" rms="2.4227750301361084e-01" purity="7.7978894114494324e-02" nType="0">
            <Node pos="l" depth="3" NCoef="0" IVar="-1" Cut="0.0000000000000000e+00" cType="1" res="-6.5699443221092224e-02" rms="1.2186213582754135e-01" purity="1.5630550682544708e-02" nType="-99"/>
            <Node pos="r" depth="3" NCoef="0" IVar="-1" Cut="0.0000000000000000e+00" cType="1" res="-4.5547991991043091e-02" rms="3.0303710699081421e-01" purity="1.2591806054115295e-01" nType="-99"/>
          </Node>
          <Node pos="r" depth="2" NCoef="0" IVar="-1" Cut="0.0000000000000000e+00" cType="1" res="-4.6290699392557144e-03" rms="2.2163894772529602e-01" purity="9.3806439638137817e-01" nType="-99"/>
        </Node>
      </Node>
    </BinaryTree>
    <BinaryTree type="DecisionTree" boostWeight="1.0000000000000000e+00" itree="17">
      <Node pos="s" depth="0" NCoef="0" IVar="2" Cut="1.5384615957736969e-01" cType="1" res="-8.5214858700055629e-05" rms="2.5350812077522278e-01" purity="5.0000000000000000e-01" nType="0">
        <Node pos="l" depth="1" NCoef="0" IVar="3" Cut="1.0000000000000000e+00" cType="1" res="-2.3537136148661375e-03" rms="1.7863100394606590e-02" purity="9.6072070300579071e-02" nType="0">
          <Node pos="l" depth="2" NCoef="0" IVar="-1" Cut="0.0000000000000000e+00" cType="1" res="8.7602892890572548e-03" rms="2.8965565562248230e-01" purity="1.2589976191520691e-01" nType="-99"/>
          <Node pos="r" depth="2" NCoef="0" IVar="0" Cut="-7.5895792245864868e-01" cType="1" res="-2.8621599078178406e-02" rms="2.6072067022323608e-01" purity="9.0135782957077026e-02" nType="0">
            <Node pos="l" depth="3" NCoef="0" IVar="-1" Cut="0.0000000000000000e+00" cType="1" res="-4.8668146133422852e-02" rms="2.2039183974266052e-01" purity="5.6417431682348251e-02" nType="-99"/>
            <Node pos="r" depth="3" NCoef="0" IVar="-1" Cut="0.0000000000000000e+00" cType="1" res="-2.0339161157608032e-02" rms="2.8746795654296875e-01" purity="1.1582841724157333e-01" nType="-99"/>
          </Node>
        </Node>
        <Node pos="r" depth="1" NCoef="0" IVar="2" Cut="2.1894751489162445e-01" cType="1" res="1.6230229288339615e-02" rms="2.4264614284038544e-01" purity="7.9382663965225220e-01" nType="0">
          <Node pos="l" depth="2" NCoef="0" IVar="-1" Cut="0.0000000000000000e+00" cType="1" res="-3.3196821808815002e-02" rms="3.5552453994750977e-01" purity="2.0407937467098236e-01" nType="-99"/>
          <Node pos="r" depth="2" NCoef="0" IVar="0" Cut="1.5235151052474976e+00" cType="1" res="2.4027712643146515e-02" rms="2.2571429610252380e-01" purity="8.5765391588211060e-01" nType="0">
            <Node pos="l" depth="3" NCoef="0" IVar="-1" Cut="0.0000000000000000e+00" cType="1" res="4.3167661875486374e-02" rms="2.1202082931995392e-01" purity="8.9729309082031250e-01" nType="-99"/>
            <Node pos="r" depth="3" NCoef="0" IVar="-1" Cut="0.0000000000000000e+00" cType="1" res="-2.0365016534924507e-02" rms="3.0535343289375305e-01" purity="5.6190526485443115e-01" nType="-99"/>
          </Node>
        </Node>
      </Node>
    </BinaryTree>
    <BinaryTree type="DecisionTree" boostWeight="1.0000000000000000e+00" itree="18">
      <Node pos="s" depth="0" NCoef="0" IVar="0" Cut="1.5441936254501343e+00" cType="1" res="-7.2478600486647338e-05" rms="2.5275382399559021e-01" purity="5.0000000000000000e-01" nType="0">
        <Node pos="l" depth="1" NCoef="0" IVar="0" Cut="-9.6566581726074219e-01" cType="1" res="8.6271055042743683e-03" rms="2.6110750436782837e-01" purity="5.9177291393280029e-01" nType="0">
          <Node pos="l" depth="2" NCoef="0" IVar="1" Cut="3.0000000000000000e+00" cType="1" res="-1.4673957775812596e-04" rms="3.7971946876496077e-03" purity="3.1662797927856445e-01" nType="0">
            <Node pos="l" depth="3" NCoef="0" IVar="-1" Cut="0.0000000000000000e+00" cType="1" res="-8.7606729939579964e-03" rms="2.6979041099548340e-01" purity="4.3427011370658875e-01" nType="-99"/>
            <Node pos="r" depth="3" NCoef="0" IVar="-1" Cut="0.0000000000000000e+00" cType="1" res="-6.2665127217769623e-02" rms="2.1212570369243622e-01" purity="1.4504261314868927e-01" nType="-99"/>
          </Node>
          <Node pos="r" depth="2" NCoef="0" IVar="1" Cut="1.0000000000000000e+00" cType="1" res="2.8103741351515055e-03" rms="1.0657913237810135e-01" purity="7.7971178293228149e-01" nType="0">
            <Node pos="l" depth="3" NCoef="0" IVar="-1" Cut="0.0000000000000000e+00" cType="1" res="-1.1021441314369440e-03" rms="2.9850789904594421e-01" purity="5.5228734016418457e-01" nType="-99"/>
            <Node pos="r" depth="3" NCoef="0" IVar="-1" Cut="0.0000000000000000e+00" cType="1" res="4.2990922927856445e-02" rms="2.5873911380767822e-01" purity="8.3406615257263184e-01" nType="-99"/>
          </Node>
        </Node>
        <Node pos="r" depth="1" NCoef="0" IVar="0" Cut="2.0756983757019043e+00" cType="1" res="-3.0843013897538185e-02" rms="2.1791477501392365e-01" purity="1.7539805173873901e-01" nType="0">
          <Node pos="l" depth="2" NCoef="0" IVar="-1" Cut="0.0000000000000000e+00" cType="1" res="-1.0739525780081749e-02" rms="2.8726845979690552e-01" purity="4.0805152058601379e-01" nType="-99"/>
          <Node pos="r" depth="2" NCoef="0" IVar="0" Cut="2.6378602981567383e+00" cType="1" res="-3.9835888892412186e-02" rms="1.7781545221805573e-01" purity="7.1768179535865784e-02" nType="0">
            <Node pos="l" depth="3" NCoef="0" IVar="-1" Cut="0.0000000000000000e+00" cType="1" res="-5.1721185445785522e-02" rms="2.4526822566986084e-01" purity="1.6158251464366913e-01" nType="-99"/>
            <Node pos="r" depth="3" NCoef="0" IVar="-1" Cut="0.0000000000000000e+00" cType="1" res="-7.7085517346858978e-02" rms="1.1406598985195160e-01" purity="1.3452308252453804e-02" nType="-99"/>
          </Node>
        </Node>
      </Node>
    </BinaryTree>
    <BinaryTree type="DecisionTree" boostWeight="1.0000000000000000e+00" itree="19">
      <Node pos="s" depth="0" NCoef="0" IVar="3" Cut="1.0000000000000000e+00" cType="1" res="-8.4780814358964562e-04" rms="1.1295284144580364e-02" purity="5.0000000000000000e-01" nType="0">
        <Node pos="l" depth="1" NCoef="0" IVar="1" Cut="3.0000000000000000e+00" cType="1" res="-7.7669741585850716e-04" rms="9.0618301182985306e-03" purity="6.7886668443679810e-01" nType="0">
          <Node pos="l" depth="2" NCoef="0" IVar="0" Cut="7.6555097103118896e-01" cType="1" res="3.5398073494434357e-02" rms="2.2152428328990936e-01" purity="7.3992401361465454e-01" nType="0">
            <Node pos="l" depth="3" NCoef="0" IVar="-1" Cut="0.0000000000000000e+00" cType="1" res="6.8450674414634705e-02" rms="2.1244713664054871e-01" purity="8.2236504554748535e-01" nType="-99"/>
            <Node pos="r" depth="3" NCoef="0" IVar="-1" Cut="0.0000000000000000e+00" cType="1" res="1.5524640679359436e-02" rms="2.3819895088672638e-01" purity="5.6296074390411377e-01" nType="-99"/>
          </Node>
          <Node pos="r" depth="2" NCoef="0" IVar="-1" Cut="0.0000000000000000e+00" cType="1" res="-1.0690953582525253e-02" rms="2.2184142470359802e-01" purity="4.7805488109588623e-01" nType="-99"/>
        </Node>
        <Node pos="r" depth="1" NCoef="0" IVar="2" Cut="5.7692307233810425e-01" cType="1" res="-9.0015539899468422e-03" rms="2.6048696041107178e-01" purity="4.3799212574958801e-01" nType="0">
          <Node pos="l" depth="2" NCoef="0" IVar="0" Cut="-7.5895792245864868e-01" cType="1" res="-1.9981086254119873e-02" rms="2.9465094208717346e-01" purity="1.5358220040798187e-01" nType="0">
            <Node pos="l" depth="3" NCoef="0" IVar="-1" Cut="0.0000000000000000e+00" cType="1" res="-3.4600622951984406e-02" rms="2.6329416036605835e-01" purity="1.0347404330968857e-01" nType="-99"/>
            <Node pos="r" depth="3" NCoef="0" IVar="-1" Cut="0.0000000000000000e+00" cType="1" res="-8.5113300010561943e-03" rms="3.1558686494827271e-01" purity="1.9079275429248810e-01" nType="-99"/>
          </Node>
          <Node pos="r" depth="2" NCoef="0" IVar="2" Cut="8.6982804536819458e-01" cType="1" res="1.1170654557645321e-02" rms="1.7994493246078491e-01" purity="9.6052587032318115e-01" nType="0">
            <Node pos="l" depth="3" NCoef="0" IVar="-1" Cut="0.0000000000000000e+00" cType="1" res="-4.3735481798648834e-02" rms="3.4272921085357666e-01" purity="8.4422791004180908e-01" nType="-99"/>
            <Node pos="r" depth="3" NCoef="0" IVar="-1" Cut="0.0000000000000000e+00" cType="1" res="7.0678398013114929e-02" rms="1.0532857477664948e-01" purity="9.8845040798187256e-01" nType="-99"/>
          </Node>
        </Node>
      </Node>
    </BinaryTree>
    <BinaryTree type="DecisionTree" boostWeight="1.0000000000000000e+00" itree="20">
      <Node pos="s" depth="0" NCoef="0" IVar="2" Cut="1.5384615957736969e-01" cType="1" res="-4.1938830690924078e-05" rms="2.5083369016647339e-01" purity="5.0000000000000000e-01" nType="0">
        <Node pos="l" depth="1" NCoef="0" IVar="0" Cut="1.5441936254501343e+00" cType="1" res="-1.6221793368458748e-02" rms="2.6456633210182190e-01" purity="9.6072070300579071e-02" nType="0">
          <Node pos="l" depth="2" NCoef="0" IVar="0" Cut="-4.6369874477386475e-01" cType="1" res="-1.0658601298928261e-02" rms="3.0484798550605774e-01" purity="1.3158966600894928e-01" nType="0">
            <Node pos="l" depth="3" NCoef="0" IVar="-1" Cut="0.0000000000000000e+00" cType="1" res="-2.7761658653616905e-02" rms="2.4304665625095367e-01" purity="7.4266143143177032e-02" nType="-99"/>
            <Node pos="r" depth="3" NCoef="0" IVar="-1" Cut="0.0000000000000000e+00" cType="1" res="8.2564465701580048e-03" rms="4.1380825638771057e-01" purity="2.6569408178329468e-01" nType="-99"/>
          </Node>
          <Node pos="r" depth="2" NCoef="0" IVar="1" Cut="1.0000000000000000e+00" cType="1" res="-5.1255696453154087e-03" rms="1.1171744763851166e-01" purity="2.8429787606000900e-02" nType="0">
            <Node pos="l" depth="3" NCoef="0" IVar="-1" Cut="0.0000000000000000e+00" cType="1" res="-6.6420681774616241e-02" rms="1.1678528040647507e-01" purity="1.3821870088577271e-02" nType="-99"/>
            <Node pos="r" depth="3" NCoef="0" IVar="-1" Cut="0.0000000000000000e+00" cType="1" res="-4.4610723853111267e-02" rms="2.0014333724975586e-01" purity="4.4710814952850342e-02" nType="-99"/>
          </Node>
        </Node>
        <Node pos="r" depth="1" NCoef="0" IVar="2" Cut="2.5149136781692505e-01" cType="1" res="1.1727666482329369e-02" rms="2.3966650664806366e-01" purity="7.9382663965225220e-01" nType="0">
          <Node pos="l" depth="2" NCoef="0" IVar="-1" Cut="0.0000000000000000e+00" cType="1" res="-2.1603956818580627e-02" rms="3.5503906011581421e-01" purity="2.1472418308258057e-01" nType="-99"/>
          <Node pos="r" depth="2" NCoef="0" IVar="1" Cut="3.0000000000000000e+00" cType="1" res="-2.5596278719604015e-03" rms="8.0163799226284027e-02" purity="8.8047438859939575e-01" nType="0">
            <Node pos="l" depth="3" NCoef="0" IVar="-1" Cut="0.0000000000000000e+00" cType="1" res="3.8995608687400818e-02" rms="2.0434056222438812e-01" purity="9.0314733982086182e-01" nType="-99"/>
            <Node pos="r" depth="3" NCoef="0" IVar="-1" Cut="0.0000000000000000e+00" cType="1" res="-1.1790229007601738e-02" rms="2.6457753777503967e-01" purity="7.7226483821868896e-01" nType="-99"/>
          </Node>
        </Node>
      </Node>
    </BinaryTree>
    <BinaryTree type="DecisionTree" boostWeight="1.0000000000000000e+00" itree="21">
      <Node pos="s" depth="0" NCoef="0" IVar="0" Cut="-1.9105336666107178e+00" cType="1" res="-5.4128606279846281e-05" rms="2.5037729740142822e-01" purity="5.0000000000000000e-01" nType="0">
        <Node pos="l" depth="1" NCoef="0" IVar="2" Cut="-6.9230777025222778e-01" cType="1" res="-2.6124361902475357e-02" rms="1.9925013184547424e-01" purity="1.0365963727235794e-01" nType="0">
          <Node pos="l" depth="2" NCoef="0" IVar="0" Cut="-3.0917227268218994e+00" cType="1" res="-1.8105581402778625e-02" rms="1.2865254282951355e-01" purity="1.6864687204360962e-02" nType="0">
            <Node pos="l" depth="3" NCoef="0" IVar="-1" Cut="0.0000000000000000e+00" cType="1" res="-8.5841864347457886e-02" rms="7.3507666587829590e-02" purity="5.2797668613493443e-03" nType="-99"/>
            <Node pos="r" depth="3" NCoef="0" IVar="-1" Cut="0.0000000000000000e+00" cType="1" res="-2.8871994465589523e-02" rms="1.6620764136314392e-01" purity="2.8482746332883835e-02" nType="-99"/>
          </Node>
          <Node pos="r" depth="2" NCoef="0" IVar="-1" Cut="0.0000000000000000e+00" cType="1" res="-3.8752030581235886e-02" rms="2.7062320709228516e-01" purity="2.3026461899280548e-01" nType="-99"/>
        </Node>
        <Node pos="r" depth="1" NCoef="0" IVar="0" Cut="1.2784554958343506e+00" cType="1" res="5.4126079194247723e-03" rms="2.5949341058731079e-01" purity="5.8310967683792114e-01" nType="0">
          <Node pos="l" depth="2" NCoef="0" IVar="1" Cut="3.0000000000000000e+00" cType="1" res="-8.9293782366439700e-04" rms="1.0386707633733749e-01" purity="7.4250429868698120e-01" nType="0">
            <Node pos="l" depth="3" NCoef="0" IVar="-1" Cut="0.0000000000000000e+00" cType="1" res="2.8931163251399994e-02" rms="2.6673257350921631e-01" purity="7.8929924964904785e-01" nType="-99"/>
            <Node pos="r" depth="3" NCoef="0" IVar="-1" Cut="0.0000000000000000e+00" cType="1" res="-1.5445793978869915e-02" rms="2.8621631860733032e-01" purity="5.5689114332199097e-01" nType="-99"/>
          </Node>
          <Node pos="r" depth="2" NCoef="0" IVar="1" Cut="1.0000000000000000e+00" cType="1" res="-2.0596834365278482e-03" rms="1.6284210979938507e-01" purity="2.3790091276168823e-01" nType="0">
            <Node pos="l" depth="3" NCoef="0" IVar="-1" Cut="0.0000000000000000e+00" cType="1" res="-5.9120919555425644e-02" rms="1.9312338531017303e-01" purity="9.9611937999725342e-02" nType="-99"/>
            <Node pos="r" depth="3" NCoef="0" IVar="-1" Cut="0.0000000000000000e+00" cType="1" res="-8.6022792384028435e-03" rms="2.5621768832206726e-01" purity="3.5401347279548645e-01" nType="-99"/>
          </Node>
        </Node>
      </Node>
    </BinaryTree>
    <BinaryTree type="DecisionTree" boostWeight="1.0000000000000000e+00" itree="22">
      <Node pos="s" depth="0" NCoef="0" IVar="3" Cut="1.0000000000000000e+00" cType="1" res="-6.3811510335654020e-04" rms="1.0798358358442783e-02" purity="5.0000000000000000e-01" nType="0">
        <Node pos="l" depth="1" NCoef="0" IVar="1" Cut="3.0000000000000000e+00" cType="1" res="-6.7972671240568161e-04" rms="8.6816651746630669e-03" purity="6.7886668443679810e-01" nType="0">
          <Node pos="l" depth="2" NCoef="0" IVar="0" Cut="7.6555097103118896e-01" cType="1" res="2.5977993384003639e-02" rms="2.1835373342037201e-01" purity="7.3992401361465454e-01" nType="0">
            <Node pos="l" depth="3" NCoef="0" IVar="-1" Cut="0.0000000000000000e+00" cType="1" res="5.3450837731361389e-02" rms="2.0888061821460724e-01" purity="8.2236504554748535e-01" nType="-99"/>
            <Node pos="r" depth="3" NCoef="0" IVar="-1" Cut="0.0000000000000000e+00" cType="1" res="1.3724695891141891e-02" rms="2.3665185272693634e-01" purity="5.6296074390411377e-01" nType="-99"/>
          </Node>
          <Node pos="r" depth="2" NCoef="0" IVar="-1" Cut="0.0000000000000000e+00" cType="1" res="-1.5219905180856586e-03" rms="2.2141024470329285e-01" purity="4.7805488109588623e-01" nType="-99"/>
        </Node>
        <Node pos="r" depth="1" NCoef="0" IVar="1" Cut="1.0000000000000000e+00" cType="1" res="-6.3178484560921788e-04" rms="1.1454493738710880e-02" purity="4.3799212574958801e-01" nType="0">
          <Node pos="l" depth="2" NCoef="0" IVar="0" Cut="4.7775855660438538e-01" cType="1" res="-2.3378038778901100e-02" rms="2.3619216680526733e-01" purity="2.3987133800983429e-01" nType="0">
            <Node pos="l" depth="3" NCoef="0" IVar="-1" Cut="0.0000000000000000e+00" cType="1" res="-7.7889044769108295e-03" rms="2.7644526958465576e-01" purity="4.0000954270362854e-01" nType="-99"/>
            <Node pos="r" depth="3" NCoef="0" IVar="-1" Cut="0.0000000000000000e+00" cType="1" res="-4.8100195825099945e-02" rms="2.1232862770557404e-01" purity="1.5842089056968689e-01" nType="-99"/>
          </Node>
          <Node pos="r" depth="2" NCoef="0" IVar="1" Cut="3.0000000000000000e+00" cType="1" res="-2.8717465465888381e-04" rms="6.7807482555508614e-03" purity="5.0820183753967285e-01" nType="0">
            <Node pos="l" depth="3" NCoef="0" IVar="-1" Cut="0.0000000000000000e+00" cType="1" res="1.1163789778947830e-02" rms="2.7902811765670776e-01" purity="6.4189934730529785e-01" nType="-99"/>
            <Node pos="r" depth="3" NCoef="0" IVar="-1" Cut="0.0000000000000000e+00" cType="1" res="-3.2051626592874527e-02" rms="2.3908185958862305e-01" purity="2.5243654847145081e-01" nType="-99"/>
          </Node>
        </Node>
      </Node>
    </BinaryTree>
    <BinaryTree type="DecisionTree" boostWeight="1.0000000000000000e+00" itree="23">
      <Node pos="s" depth="0" NCoef="0" IVar="2" Cut="1.5384615957736969e-01" cType="1" res="-1.0050955461338162e-04" rms="2.4913698434829712e-01" purity="5.0000000000000000e-01" nType="0">
        <Node pos="l" depth="1" NCoef="0" IVar="2" Cut="-9.6094675064086914e+00" cType="1" res="-1.2876275926828384e-02" rms="2.6345935463905334e-01" purity="9.6072070300579071e-02" nType="0">
          <Node pos="l" depth="2" NCoef="0" IVar="1" Cut="3.0000000000000000e+00" cType="1" res="-4.1315145790576935e-03" rms="2.7390332892537117e-02" purity="9.0737473219633102e-03" nType="0">
            <Node pos="l" depth="3" NCoef="0" IVar="-1" Cut="0.0000000000000000e+00" cType="1" res="-7.3759630322456360e-02" rms="1.0078450292348862e-01" purity="1.0106330737471581e-02" nType="-99"/>
            <Node pos="r" depth="3" NCoef="0" IVar="-1" Cut="0.0000000000000000e+00" cType="1" res="-6.5492831170558929e-02" rms="8.5860483348369598e-02" purity="7.4128983542323112e-03" nType="-99"/>
          </Node>
          <Node pos="r" depth="2" NCoef="0" IVar="2" Cut="1.0946641862392426e-01" cType="1" res="-8.7438775226473808e-03" rms="3.2265636324882507e-01" purity="1.4620423316955566e-01" nType="0">
            <Node pos="l" depth="3" NCoef="0" IVar="-1" Cut="0.0000000000000000e+00" cType="1" res="-1.3449022546410561e-02" rms="3.1483253836631775e-01" purity="1.3642989099025726e-01" nType="-99"/>
            <Node pos="r" depth="3" NCoef="0" IVar="-1" Cut="0.0000000000000000e+00" cType="1" res="1.2890824116766453e-02" rms="3.5017463564872742e-01" purity="1.8400228023529053e-01" nType="-99"/>
          </Node>
        </Node>
        <Node pos="r" depth="1" NCoef="0" IVar="2" Cut="2.1894751489162445e-01" cType="1" res="9.1928821057081223e-03" rms="2.3774711787700653e-01" purity="7.9382663965225220e-01" nType="0">
          <Node pos="l" depth="2" NCoef="0" IVar="-1" Cut="0.0000000000000000e+00" cType="1" res="-2.1843994036316872e-02" rms="3.5142177343368530e-01" purity="2.0407937467098236e-01" nType="-99"/>
          <Node pos="r" depth="2" NCoef="0" IVar="0" Cut="-1.5287665128707886e+00" cType="1" res="1.3791977427899837e-02" rms="2.2149191796779633e-01" purity="8.5765391588211060e-01" nType="0">
            <Node pos="l" depth="3" NCoef="0" IVar="-1" Cut="0.0000000000000000e+00" cType="1" res="-1.8375018611550331e-02" rms="3.1219846010208130e-01" purity="5.6327468156814575e-01" nType="-99"/>
            <Node pos="r" depth="3" NCoef="0" IVar="-1" Cut="0.0000000000000000e+00" cType="1" res="3.1273718923330307e-02" rms="2.0567274093627930e-01" purity="8.9768123626708984e-01" nType="-99"/>
          </Node>
        </Node>
      </Node>
    </BinaryTree>
    <BinaryTree type="DecisionTree" boostWeight="1.0000000000000000e+00" itree="24">
      <Node pos="s" depth="0" NCoef="0" IVar="0" Cut="1.9280521869659424e+00" cType="1" res="-1.0617775842547417e-04" rms="2.4882024526596069e-01" purity="5.0000000000000000e-01" nType="0">
        <Node pos="l" depth="1" NCoef="0" IVar="0" Cut="-9.9518114328384399e-01" cType="1" res="4.1980091482400894e-03" rms="2.5912117958068848e-01" purity="5.8227741718292236e-01" nType="0">
          <Node pos="l" depth="2" NCoef="0" IVar="0" Cut="-2.0684144496917725e+00" cType="1" res="-1.3013425283133984e-02" rms="2.4477536976337433e-01" purity="3.0986043810844421e-01" nType="0">
            <Node pos="l" depth="3" NCoef="0" IVar="-1" Cut="0.0000000000000000e+00" cType="1" res="-4.2858999222517014e-02" rms="1.8490730226039886e-01" purity="7.6441101729869843e-02" nType="-99"/>
            <Node pos="r" depth="3" NCoef="0" IVar="-1" Cut="0.0000000000000000e+00" cType="1" res="-4.6276827342808247e-03" rms="2.9182446002960205e-01" purity="5.4030811786651611e-01" nType="-99"/>
          </Node>
          <Node pos="r" depth="2" NCoef="0" IVar="1" Cut="1.0000000000000000e+00" cType="1" res="1.1926268925890326e-03" rms="1.0693231225013733e-01" purity="7.4565219879150391e-01" nType="0">
            <Node pos="l" depth="3" NCoef="0" IVar="-1" Cut="0.0000000000000000e+00" cType="1" res="-1.2586425058543682e-02" rms="2.8925973176956177e-01" purity="4.9004042148590088e-01" nType="-99"/>
            <Node pos="r" depth="3" NCoef="0" IVar="-1" Cut="0.0000000000000000e+00" cType="1" res="2.6971338316798210e-02" rms="2.5999039411544800e-01" purity="8.1426542997360229e-01" nType="-99"/>
          </Node>
        </Node>
        <Node pos="r" depth="1" NCoef="0" IVar="2" Cut="-6.9230771064758301e-01" cType="1" res="-2.1144028753042221e-02" rms="1.8922007083892822e-01" purity="9.7847282886505127e-02" nType="0">
          <Node pos="l" depth="2" NCoef="0" IVar="0" Cut="3.1096863746643066e+00" cType="1" res="-1.5067283064126968e-02" rms="1.2507838010787964e-01" purity="1.6167683526873589e-02" nType="0">
            <Node pos="l" depth="3" NCoef="0" IVar="-1" Cut="0.0000000000000000e+00" cType="1" res="-2.5174818933010101e-02" rms="1.6095562279224396e-01" purity="2.7140989899635315e-02" nType="-99"/>
            <Node pos="r" depth="3" NCoef="0" IVar="-1" Cut="0.0000000000000000e+00" cType="1" res="-8.5212595760822296e-02" rms="6.9570697844028473e-02" purity="4.7120093367993832e-03" nType="-99"/>
          </Node>
          <Node pos="r" depth="2" NCoef="0" IVar="-1" Cut="0.0000000000000000e+00" cType="1" res="-3.4237500280141830e-02" rms="2.5834169983863831e-01" purity="2.2377589344978333e-01" nType="-99"/>
        </Node>
      </Node>
    </BinaryTree>
    <BinaryTree type="DecisionTree" boostWeight="1.0000000000000000e+00" itree="25">
      <Node pos="s" depth="0" NCoef="0" IVar="3" Cut="1.0000000000000000e+00" cType="1" res="-4.9099366879090667e-04" rms="1.0519608855247498e-02" purity="5.0000000000000000e-01" nType="0">
        <Node pos="l" depth="1" NCoef="0" IVar="1" Cut="3.0000000000000000e+00" cType="1" res="-5.8322766562923789e-04" rms="8.2986848428845406e-03" purity="6.7886668443679810e-01" nType="0">
          <Node pos="l" depth="2" NCoef="0" IVar="0" Cut="7.6555097103118896e-01" cType="1" res="2.0442210137844086e-02" rms="2.1644671261310577e-01" purity="7.3992401361465454e-01" nType="0">
            <Node pos="l" depth="3" NCoef="0" IVar="-1" Cut="0.0000000000000000e+00" cType="1" res="4.4668406248092651e-02" rms="2.0676974952220917e-01" purity="8.2236504554748535e-01" nType="-99"/>
            <Node pos="r" depth="3" NCoef="0" IVar="-1" Cut="0.0000000000000000e+00" cType="1" res="1.1002281680703163e-02" rms="2.3539286851882935e-01" purity="5.6296074390411377e-01" nType="-99"/>
          </Node>
          <Node pos="r" depth="2" NCoef="0" IVar="-1" Cut="0.0000000000000000e+00" cType="1" res="-1.6186900902539492e-03" rms="2.2047030925750732e-01" purity="4.7805488109588623e-01" nType="-99"/>
        </Node>
        <Node pos="r" depth="1" NCoef="0" IVar="2" Cut="5.7692307233810425e-01" cType="1" res="-5.5179246701300144e-03" rms="2.5799474120140076e-01" purity="4.3799212574958801e-01" nType="0">
          <Node pos="l" depth="2" NCoef="0" IVar="3" Cut="2.0000000000000000e+00" cType="1" res="-2.9543921118602157e-04" rms="7.1033760905265808e-03" purity="1.5358220040798187e-01" nType="0">
            <Node pos="l" depth="3" NCoef="0" IVar="-1" Cut="0.0000000000000000e+00" cType="1" res="-1.9051611889153719e-04" rms="3.1549942493438721e-01" purity="2.0083235204219818e-01" nType="-99"/>
            <Node pos="r" depth="3" NCoef="0" IVar="-1" Cut="0.0000000000000000e+00" cType="1" res="-1.6736544668674469e-02" rms="2.8158169984817505e-01" purity="1.3289476931095123e-01" nType="-99"/>
          </Node>
          <Node pos="r" depth="2" NCoef="0" IVar="2" Cut="8.8609951734542847e-01" cType="1" res="4.5995335094630718e-03" rms="1.7775447666645050e-01" purity="9.6052587032318115e-01" nType="0">
            <Node pos="l" depth="3" NCoef="0" IVar="-1" Cut="0.0000000000000000e+00" cType="1" res="-4.4844284653663635e-02" rms="3.2229912281036377e-01" purity="8.6043030023574829e-01" nType="-99"/>
            <Node pos="r" depth="3" NCoef="0" IVar="-1" Cut="0.0000000000000000e+00" cType="1" res="6.7821197211742401e-02" rms="9.5455951988697052e-02" purity="9.9066334962844849e-01" nType="-99"/>
          </Node>
        </Node>
      </Node>
    </BinaryTree>
    <BinaryTree type="DecisionTree" boostWeight="1.0000000000000000e+00" itree="26">
      <Node pos="s" depth="0" NCoef="0" IVar="2" Cut="1.5384615957736969e-01" cType="1" res="-4.4612792407860979e-05" rms="2.4797649681568146e-01" purity="5.0000000000000000e-01" nType="0">
        <Node pos="l" depth="1" NCoef="0" IVar="2" Cut="-6.2721991539001465e-01" cType="1" res="-9.6363052725791931e-03" rms="2.6287311315536499e-01" purity="9.6072070300579071e-02" nType="0">
          <Node pos="l" depth="2" NCoef="0" IVar="2" Cut="-9.6538457870483398e+00" cType="1" res="-4.8133204691112041e-03" rms="1.5022090077400208e-01" purity="2.6470934972167015e-02" nType="0">
            <Node pos="l" depth="3" NCoef="0" IVar="-1" Cut="0.0000000000000000e+00" cType="1" res="-6.1721365898847580e-02" rms="9.5155097544193268e-02" purity="9.0737473219633102e-03" nType="-99"/>
            <Node pos="r" depth="3" NCoef="0" IVar="-1" Cut="0.0000000000000000e+00" cType="1" res="3.8387708365917206e-02" rms="2.4008366465568542e-01" purity="7.2585418820381165e-02" nType="-99"/>
          </Node>
          <Node pos="r" depth="2" NCoef="0" IVar="2" Cut="7.7046401798725128e-02" cType="1" res="-1.4527267776429653e-02" rms="3.4094959497451782e-01" purity="1.6665421426296234e-01" nType="0">
            <Node pos="l" depth="3" NCoef="0" IVar="-1" Cut="0.0000000000000000e+00" cType="1" res="-2.4792701005935669e-02" rms="3.3306294679641724e-01" purity="1.5548127889633179e-01" nType="-99"/>
            <Node pos="r" depth="3" NCoef="0" IVar="-1" Cut="0.0000000000000000e+00" cType="1" res="4.2888331227004528e-03" rms="3.4784352779388428e-01" purity="1.7827306687831879e-01" nType="-99"/>
          </Node>
        </Node>
        <Node pos="r" depth="1" NCoef="0" IVar="2" Cut="2.5149136781692505e-01" cType="1" res="6.9326087832450867e-03" rms="2.3630720376968384e-01" purity="7.9382663965225220e-01" nType="0">
          <Node pos="l" depth="2" NCoef="0" IVar="-1" Cut="0.0000000000000000e+00" cType="1" res="-1.4708405360579491e-02" rms="3.5184606909751892e-01" purity="2.1472418308258057e-01" nType="-99"/>
          <Node pos="r" depth="2" NCoef="0" IVar="0" Cut="1.5277849435806274e+00" cType="1" res="1.1221277527511120e-02" rms="2.1338258683681488e-01" purity="8.8047438859939575e-01" nType="0">
            <Node pos="l" depth="3" NCoef="0" IVar="-1" Cut="0.0000000000000000e+00" cType="1" res="2.6428066194057465e-02" rms="1.9915704429149628e-01" purity="9.1413861513137817e-01" nType="-99"/>
            <Node pos="r" depth="3" NCoef="0" IVar="-1" Cut="0.0000000000000000e+00" cType="1" res="-9.7093814983963966e-03" rms="3.0372416973114014e-01" purity="6.0961097478866577e-01" nType="-99"/>
          </Node>
        </Node>
      </Node>
    </BinaryTree>
    <BinaryTree type="DecisionTree" boostWeight="1.0000000000000000e+00" itree="27">
      <Node pos="s" depth="0" NCoef="0" IVar="1" Cut="3.0000000000000000e+00" cType="1" res="-4.2358096106909215e-04" rms="1.0416276752948761e-02" purity="5.0000000000000000e-01" nType="0">
        <Node pos="l" depth="1" NCoef="0" IVar="1" Cut="1.0000000000000000e+00" cType="1" res="-1.3263479922898114e-04" rms="2.0410688593983650e-03" purity="5.6373357772827148e-01" nType="0">
          <Node pos="l" depth="2" NCoef="0" IVar="0" Cut="4.7775855660438538e-01" cType="1" res="-1.3225203379988670e-02" rms="2.4055822193622589e-01" purity="2.8593021631240845e-01" nType="0">
            <Node pos="l" depth="3" NCoef="0" IVar="-1" Cut="0.0000000000000000e+00" cType="1" res="3.4419589210301638e-03" rms="2.7354520559310913e-01" purity="4.5983588695526123e-01" nType="-99"/>
            <Node pos="r" depth="3" NCoef="0" IVar="-1" Cut="0.0000000000000000e+00" cType="1" res="-3.6683216691017151e-02" rms="2.1817161142826080e-01" purity="1.8311524391174316e-01" nType="-99"/>
          </Node>
          <Node pos="r" depth="2" NCoef="0" IVar="0" Cut="-7.4948793649673462e-01" cType="1" res="1.2734002433717251e-02" rms="2.5684636831283569e-01" purity="6.9719868898391724e-01" nType="0">
            <Node pos="l" depth="3" NCoef="0" IVar="-1" Cut="0.0000000000000000e+00" cType="1" res="-2.3389966227114201e-03" rms="2.6892971992492676e-01" purity="5.5299079418182373e-01" nType="-99"/>
            <Node pos="r" depth="3" NCoef="0" IVar="-1" Cut="0.0000000000000000e+00" cType="1" res="2.6608197018504143e-02" rms="2.5049746036529541e-01" purity="7.6679742336273193e-01" nType="-99"/>
          </Node>
        </Node>
        <Node pos="r" depth="1" NCoef="0" IVar="0" Cut="-3.7929821014404297e-01" cType="1" res="-1.3297249563038349e-02" rms="2.3388735949993134e-01" purity="3.0698928236961365e-01" nType="0">
          <Node pos="l" depth="2" NCoef="0" IVar="2" Cut="-6.9230771064758301e-01" cType="1" res="-1.9772548228502274e-02" rms="2.2203208506107330e-01" purity="2.1505399048328400e-01" nType="0">
            <Node pos="l" depth="3" NCoef="0" IVar="-1" Cut="0.0000000000000000e+00" cType="1" res="-9.2393467202782631e-03" rms="1.2334363907575607e-01" purity="1.5789190307259560e-02" nType="-99"/>
            <Node pos="r" depth="3" NCoef="0" IVar="-1" Cut="0.0000000000000000e+00" cType="1" res="-3.6361683160066605e-02" rms="2.6482310891151428e-01" purity="3.3879926800727844e-01" nType="-99"/>
          </Node>
          <Node pos="r" depth="2" NCoef="0" IVar="-1" Cut="0.0000000000000000e+00" cType="1" res="-4.2863804847002029e-03" rms="2.5096186995506287e-01" purity="4.5065650343894958e-01" nType="-99"/>
        </Node>
      </Node>
    </BinaryTree>
    <BinaryTree type="DecisionTree" boostWeight="1.0000000000000000e+00" itree="28">
      <Node pos="s" depth="0" NCoef="0" IVar="3" Cut="1.0000000000000000e+00" cType="1" res="-4.1911966400220990e-04" rms="1.0411155410110950e-02" purity="5.0000000000000000e-01" nType="0">
        <Node pos="l" depth="1" NCoef="0" IVar="2" Cut="1.5384615957736969e-01" cType="1" res="1.2126309797167778e-02" rms="2.1626994013786316e-01" purity="6.7886668443679810e-01" nType="0">
          <Node pos="l" depth="2" NCoef="0" IVar="-1" Cut="0.0000000000000000e+00" cType="1" res="-4.2322970693930984e-04" rms="2.7991390228271484e-01" purity="1.2589976191520691e-01" nType="-99"/>
          <Node pos="r" depth="2" NCoef="0" IVar="0" Cut="-6.6053110361099243e-01" cType="1" res="1.6787260770797729e-02" rms="1.8687555193901062e-01" purity="8.8496917486190796e-01" nType="0">
            <Node pos="l" depth="3" NCoef="0" IVar="-1" Cut="0.0000000000000000e+00" cType="1" res="2.0063864067196846e-02" rms="2.1488882601261139e-01" purity="8.2809972763061523e-01" nType="-99"/>
            <Node pos="r" depth="3" NCoef="0" IVar="-1" Cut="0.0000000000000000e+00" cType="1" res="4.1236214339733124e-02" rms="1.7285825312137604e-01" purity="9.1038191318511963e-01" nType="-99"/>
          </Node>
        </Node>
        <Node pos="r" depth="1" NCoef="0" IVar="0" Cut="1.1603350639343262e+00" cType="1" res="-4.2910841293632984e-03" rms="2.5704467296600342e-01" purity="4.3799212574958801e-01" nType="0">
          <Node pos="l" depth="2" NCoef="0" IVar="0" Cut="-7.2943049669265747e-01" cType="1" res="-3.6469488986767828e-04" rms="2.6668307185173035e-01" purity="5.2777129411697388e-01" nType="0">
            <Node pos="l" depth="3" NCoef="0" IVar="-1" Cut="0.0000000000000000e+00" cType="1" res="-1.6280759125947952e-02" rms="2.5185781717300415e-01" purity="3.1583774089813232e-01" nType="-99"/>
            <Node pos="r" depth="3" NCoef="0" IVar="-1" Cut="0.0000000000000000e+00" cType="1" res="1.3776209205389023e-02" rms="2.8176081180572510e-01" purity="7.6422959566116333e-01" nType="-99"/>
          </Node>
          <Node pos="r" depth="2" NCoef="0" IVar="2" Cut="-6.9230771064758301e-01" cType="1" res="-1.3668565079569817e-02" rms="2.3214481770992279e-01" purity="2.2357051074504852e-01" nType="0">
            <Node pos="l" depth="3" NCoef="0" IVar="-1" Cut="0.0000000000000000e+00" cType="1" res="-2.6633378118276596e-02" rms="1.3543736934661865e-01" purity="1.9951567053794861e-02" nType="-99"/>
            <Node pos="r" depth="3" NCoef="0" IVar="-1" Cut="0.0000000000000000e+00" cType="1" res="-2.0105272531509399e-02" rms="2.7749076485633850e-01" purity="3.5623955726623535e-01" nType="-99"/>
          </Node>
        </Node>
      </Node>
    </BinaryTree>
    <BinaryTree type="DecisionTree" boostWeight="1.0000000000000000e+00" itree="29">
      <Node pos="s" depth="0" NCoef="0" IVar="2" Cut="1.5384615957736969e-01" cType="1" res="-5.2301638788776472e-05" rms="2.4708653986454010e-01" purity="5.0000000000000000e-01" nType="0">
        <Node pos="l" depth="1" NCoef="0" IVar="0" Cut="3.9261785149574280e-01" cType="1" res="-7.5648436322808266e-03" rms="2.6217073202133179e-01" purity="9.6072070300579071e-02" nType="0">
          <Node pos="l" depth="2" NCoef="0" IVar="0" Cut="-1.6743860244750977e+00" cType="1" res="-3.3902730792760849e-03" rms="2.8293699026107788e-01" purity="1.1546254158020020e-01" nType="0">
            <Node pos="l" depth="3" NCoef="0" IVar="-1" Cut="0.0000000000000000e+00" cType="1" res="-2.8640244156122208e-02" rms="1.5833412110805511e-01" purity="2.6400849223136902e-02" nType="-99"/>
            <Node pos="r" depth="3" NCoef="0" IVar="-1" Cut="0.0000000000000000e+00" cType="1" res="3.8787242956459522e-03" rms="4.0907022356987000e-01" purity="2.5710895657539368e-01" nType="-99"/>
          </Node>
          <Node pos="r" depth="2" NCoef="0" IVar="2" Cut="-6.2721991539001465e-01" cType="1" res="-1.2362852692604065e-02" rms="2.3596623539924622e-01" purity="7.3785789310932159e-02" nType="0">
            <Node pos="l" depth="3" NCoef="0" IVar="-1" Cut="0.0000000000000000e+00" cType="1" res="-1.9909724593162537e-02" rms="1.4390249550342560e-01" purity="2.3848976939916611e-02" nType="-99"/>
            <Node pos="r" depth="3" NCoef="0" IVar="-1" Cut="0.0000000000000000e+00" cType="1" res="-1.8051052466034889e-02" rms="3.1057310104370117e-01" purity="1.3218450546264648e-01" nType="-99"/>
          </Node>
        </Node>
        <Node pos="r" depth="1" NCoef="0" IVar="2" Cut="9.3491226434707642e-01" cType="1" res="5.4124970920383930e-03" rms="2.3535710573196411e-01" purity="7.9382663965225220e-01" nType="0">
          <Node pos="l" depth="2" NCoef="0" IVar="3" Cut="2.0000000000000000e+00" cType="1" res="-5.0168004818260670e-03" rms="1.0957274585962296e-01" purity="6.0999101400375366e-01" nType="0">
            <Node pos="l" depth="3" NCoef="0" IVar="-1" Cut="0.0000000000000000e+00" cType="1" res="9.2424722388386726e-03" rms="3.1553703546524048e-01" purity="6.6729432344436646e-01" nType="-99"/>
            <Node pos="r" depth="3" NCoef="0" IVar="-1" Cut="0.0000000000000000e+00" cType="1" res="-2.0567307248711586e-02" rms="3.2230046391487122e-01" purity="5.3415596485137939e-01" nType="-99"/>
          </Node>
          <Node pos="r" depth="2" NCoef="0" IVar="2" Cut="9.6745789051055908e-01" cType="1" res="1.6312574967741966e-02" rms="6.5644323825836182e-02" purity="9.9575215578079224e-01" nType="0">
            <Node pos="l" depth="3" NCoef="0" IVar="-1" Cut="0.0000000000000000e+00" cType="1" res="5.9803716838359833e-02" rms="9.4985157251358032e-02" purity="9.9087494611740112e-01" nType="-99"/>
            <Node pos="r" depth="3" NCoef="0" IVar="-1" Cut="0.0000000000000000e+00" cType="1" res="9.2019923031330109e-02" rms="4.7587398439645767e-02" purity="9.9785888195037842e-01" nType="-99"/>
          </Node>
        </Node>
      </Node>
    </BinaryTree>
    <BinaryTree type="DecisionTree" boostWeight="1.0000000000000000e+00" itree="30">
      <Node pos="s" depth="0" NCoef="0" IVar="1" Cut="3.0000000000000000e+00" cType="1" res="-3.7968563265167177e-04" rms="1.0347508825361729e-02" purity="5.0000000000000000e-01" nType="0">
        <Node pos="l" depth="1" NCoef="0" IVar="1" Cut="1.0000000000000000e+00" cType="1" res="-1.2314159539528191e-04" rms="1.9021196058019996e-03" purity="5.6373357772827148e-01" nType="0">
          <Node pos="l" depth="2" NCoef="0" IVar="0" Cut="4.7775855660438538e-01" cType="1" res="-1.0611824691295624e-02" rms="2.3983402550220490e-01" purity="2.8593021631240845e-01" nType="0">
            <Node pos="l" depth="3" NCoef="0" IVar="-1" Cut="0.0000000000000000e+00" cType="1" res="1.5249821590259671e-03" rms="2.7301928400993347e-01" purity="4.5983588695526123e-01" nType="-99"/>
            <Node pos="r" depth="3" NCoef="0" IVar="-1" Cut="0.0000000000000000e+00" cType="1" res="-3.0268875882029533e-02" rms="2.1754625439643860e-01" purity="1.8311524391174316e-01" nType="-99"/>
          </Node>
          <Node pos="r" depth="2" NCoef="0" IVar="0" Cut="-1.8991696834564209e+00" cType="1" res="1.0305716656148434e-02" rms="2.5618481636047363e-01" purity="6.9719868898391724e-01" nType="0">
            <Node pos="l" depth="3" NCoef="0" IVar="-1" Cut="0.0000000000000000e+00" cType="1" res="-1.5148011036217213e-02" rms="2.3997196555137634e-01" purity="1.9617868959903717e-01" nType="-99"/>
            <Node pos="r" depth="3" NCoef="0" IVar="-1" Cut="0.0000000000000000e+00" cType="1" res="1.7196049913764000e-02" rms="2.5807523727416992e-01" purity="7.6188194751739502e-01" nType="-99"/>
          </Node>
        </Node>
        <Node pos="r" depth="1" NCoef="0" IVar="0" Cut="-3.7929821014404297e-01" cType="1" res="-1.0596197098493576e-02" rms="2.3307985067367554e-01" purity="3.0698928236961365e-01" nType="0">
          <Node pos="l" depth="2" NCoef="0" IVar="2" Cut="-6.9230771064758301e-01" cType="1" res="-1.5240369364619255e-02" rms="2.2130081057548523e-01" purity="2.1505399048328400e-01" nType="0">
            <Node pos="l" depth="3" NCoef="0" IVar="-1" Cut="0.0000000000000000e+00" cType="1" res="1.3488580589182675e-04" rms="1.2337201833724976e-01" purity="1.5789190307259560e-02" nType="-99"/>
            <Node pos="r" depth="3" NCoef="0" IVar="-1" Cut="0.0000000000000000e+00" cType="1" res="-3.0325859785079956e-02" rms="2.6400902867317200e-01" purity="3.3879926800727844e-01" nType="-99"/>
          </Node>
          <Node pos="r" depth="2" NCoef="0" IVar="-1" Cut="0.0000000000000000e+00" cType="1" res="-4.6594608575105667e-03" rms="2.5020724534988403e-01" purity="4.5065650343894958e-01" nType="-99"/>
        </Node>
      </Node>
    </BinaryTree>
    <BinaryTree type="DecisionTree" boostWeight="1.0000000000000000e+00" itree="31">
      <Node pos="s" depth="0" NCoef="0" IVar="0" Cut="2.3119108676910400e+00" cType="1" res="-6.6587665514816763e-07" rms="2.4663762748241425e-01" purity="5.0000000000000000e-01" nType="0">
        <Node pos="l" depth="1" NCoef="0" IVar="0" Cut="-2.1762838363647461e+00" cType="1" res="2.2778504062443972e-03" rms="2.5725677609443665e-01" purity="5.6645220518112183e-01" nType="0">
          <Node pos="l" depth="2" NCoef="0" IVar="2" Cut="-9.5769233703613281e+00" cType="1" res="-1.4466306194663048e-02" rms="1.7209239304065704e-01" purity="5.8124668896198273e-02" nType="0">
            <Node pos="l" depth="3" NCoef="0" IVar="-1" Cut="0.0000000000000000e+00" cType="1" res="-4.8300098627805710e-02" rms="9.6169710159301758e-02" purity="9.2790275812149048e-03" nType="-99"/>
            <Node pos="r" depth="3" NCoef="0" IVar="-1" Cut="0.0000000000000000e+00" cType="1" res="-3.2067563384771347e-02" rms="2.3049803078174591e-01" purity="1.1474395543336868e-01" nType="-99"/>
          </Node>
          <Node pos="r" depth="2" NCoef="0" IVar="1" Cut="3.0000000000000000e+00" cType="1" res="9.1012057964690030e-05" rms="1.0200716555118561e-01" purity="6.6478627920150757e-01" nType="0">
            <Node pos="l" depth="3" NCoef="0" IVar="-1" Cut="0.0000000000000000e+00" cType="1" res="1.0978163219988346e-02" rms="2.6871037483215332e-01" purity="7.0911127328872681e-01" nType="-99"/>
            <Node pos="r" depth="3" NCoef="0" IVar="-1" Cut="0.0000000000000000e+00" cType="1" res="-8.7629808112978935e-03" rms="2.7719280123710632e-01" purity="4.9118468165397644e-01" nType="-99"/>
          </Node>
        </Node>
        <Node pos="r" depth="1" NCoef="0" IVar="1" Cut="1.0000000000000000e+00" cType="1" res="-8.5043990984559059e-03" rms="1.2631018459796906e-01" purity="3.6253023892641068e-02" nType="0">
          <Node pos="l" depth="2" NCoef="0" IVar="-1" Cut="0.0000000000000000e+00" cType="1" res="-4.5279365032911301e-02" rms="1.2228444218635559e-01" purity="1.9735271111130714e-02" nType="-99"/>
          <Node pos="r" depth="2" NCoef="0" IVar="-1" Cut="0.0000000000000000e+00" cType="1" res="-4.4946618378162384e-02" rms="1.7921037971973419e-01" purity="5.4275285452604294e-02" nType="-99"/>
        </Node>
      </Node>
    </BinaryTree>
    <BinaryTree type="DecisionTree" boostWeight="1.0000000000000000e+00" itree="32">
      <Node pos="s" depth="0" NCoef="0" IVar="2" Cut="1.5384615957736969e-01" cType="1" res="-2.5187309802277014e-05" rms="2.4648046493530273e-01" purity="5.0000000000000000e-01" nType="0">
        <Node pos="l" depth="1" NCoef="0" IVar="2" Cut="-6.2721991539001465e-01" cType="1" res="-6.2568280845880508e-03" rms="2.6187986135482788e-01" purity="9.6072070300579071e-02" nType="0">
          <Node pos="l" depth="2" NCoef="0" IVar="2" Cut="-9.6538457870483398e+00" cType="1" res="-2.0072703773621470e-04" rms="1.4915801584720612e-01" purity="2.6470934972167015e-02" nType="0">
            <Node pos="l" depth="3" NCoef="0" IVar="-1" Cut="0.0000000000000000e+00" cType="1" res="-4.7154482454061508e-02" rms="9.5000937581062317e-02" purity="9.0737473219633102e-03" nType="-99"/>
            <Node pos="r" depth="3" NCoef="0" IVar="-1" Cut="0.0000000000000000e+00" cType="1" res="4.3314948678016663e-02" rms="2.3821456730365753e-01" purity="7.2585418820381165e-02" nType="-99"/>
          </Node>
          <Node pos="r" depth="2" NCoef="0" IVar="2" Cut="5.3416039794683456e-02" cType="1" res="-1.2398287653923035e-02" rms="3.3984136581420898e-01" purity="1.6665421426296234e-01" nType="0">
            <Node pos="l" depth="3" NCoef="0" IVar="-1" Cut="0.0000000000000000e+00" cType="1" res="-2.7316091582179070e-02" rms="3.3164680004119873e-01" purity="1.5302771329879761e-01" nType="-99"/>
            <Node pos="r" depth="3" NCoef="0" IVar="-1" Cut="0.0000000000000000e+00" cType="1" res="3.7837187846889719e-05" rms="3.4335166215896606e-01" purity="1.7371669411659241e-01" nType="-99"/>
          </Node>
        </Node>
        <Node pos="r" depth="1" NCoef="0" IVar="2" Cut="9.0236842632293701e-01" cType="1" res="4.5078536495566368e-03" rms="2.3454044759273529e-01" purity="7.9382663965225220e-01" nType="0">
          <Node pos="l" depth="2" NCoef="0" IVar="3" Cut="2.0000000000000000e+00" cType="1" res="-4.5633311383426189e-03" rms="1.1591850221157074e-01" purity="5.5153119564056396e-01" nType="0">
            <Node pos="l" depth="3" NCoef="0" IVar="-1" Cut="0.0000000000000000e+00" cType="1" res="7.2418157942593098e-03" rms="3.3633694052696228e-01" purity="6.1120015382766724e-01" nType="-99"/>
            <Node pos="r" depth="3" NCoef="0" IVar="-1" Cut="0.0000000000000000e+00" cType="1" res="-1.7410237342119217e-02" rms="3.3722046017646790e-01" purity="4.7576266527175903e-01" nType="-99"/>
          </Node>
          <Node pos="r" depth="2" NCoef="0" IVar="2" Cut="9.4743096828460693e-01" cType="1" res="1.2063163332641125e-02" rms="8.1592358648777008e-02" purity="9.9322956800460815e-01" nType="0">
            <Node pos="l" depth="3" NCoef="0" IVar="-1" Cut="0.0000000000000000e+00" cType="1" res="2.1757813170552254e-02" rms="1.3867947459220886e-01" purity="9.7990262508392334e-01" nType="-99"/>
            <Node pos="r" depth="3" NCoef="0" IVar="-1" Cut="0.0000000000000000e+00" cType="1" res="8.2657136023044586e-02" rms="5.8448001742362976e-02" purity="9.9664890766143799e-01" nType="-99"/>
          </Node>
        </Node>
      </Node>
    </BinaryTree>
    <BinaryTree type="DecisionTree" boostWeight="1.0000000000000000e+00" itree="33">
      <Node pos="s" depth="0" NCoef="0" IVar="1" Cut="1.0000000000000000e+00" cType="1" res="-2.9349236865527928e-04" rms="1.0210344567894936e-02" purity="5.0000000000000000e-01" nType="0">
        <Node pos="l" depth="1" NCoef="0" IVar="0" Cut="1.0124039649963379e-01" cType="1" res="-8.9822541922330856e-03" rms="2.3925493657588959e-01" purity="2.8593021631240845e-01" nType="0">
          <Node pos="l" depth="2" NCoef="0" IVar="-1" Cut="0.0000000000000000e+00" cType="1" res="2.4049887433648109e-03" rms="2.6800927519798279e-01" purity="4.2687398195266724e-01" nType="-99"/>
          <Node pos="r" depth="2" NCoef="0" IVar="2" Cut="-6.9230771064758301e-01" cType="1" res="-1.4023596420884132e-02" rms="2.2441330552101135e-01" purity="2.2020623087882996e-01" nType="0">
            <Node pos="l" depth="3" NCoef="0" IVar="-1" Cut="0.0000000000000000e+00" cType="1" res="8.1025576218962669e-03" rms="1.1579909175634384e-01" purity="1.4110952615737915e-02" nType="-99"/>
            <Node pos="r" depth="3" NCoef="0" IVar="-1" Cut="0.0000000000000000e+00" cType="1" res="-2.6171099394559860e-02" rms="2.6154020428657532e-01" purity="3.2176300883293152e-01" nType="-99"/>
          </Node>
        </Node>
        <Node pos="r" depth="1" NCoef="0" IVar="1" Cut="3.0000000000000000e+00" cType="1" res="-1.3490043056663126e-04" rms="5.5792299099266529e-03" purity="5.6907725334167480e-01" nType="0">
          <Node pos="l" depth="2" NCoef="0" IVar="0" Cut="1.9331028461456299e+00" cType="1" res="7.6823760755360126e-03" rms="2.5562489032745361e-01" purity="6.9719868898391724e-01" nType="0">
            <Node pos="l" depth="3" NCoef="0" IVar="-1" Cut="0.0000000000000000e+00" cType="1" res="1.3066336512565613e-02" rms="2.5645422935485840e-01" purity="7.5225609540939331e-01" nType="-99"/>
            <Node pos="r" depth="3" NCoef="0" IVar="-1" Cut="0.0000000000000000e+00" cType="1" res="-1.3689959421753883e-02" rms="2.4737657606601715e-01" purity="2.0462752878665924e-01" nType="-99"/>
          </Node>
          <Node pos="r" depth="2" NCoef="0" IVar="0" Cut="-3.7929821014404297e-01" cType="1" res="-6.8550440482795238e-03" rms="2.3252035677433014e-01" purity="3.0698928236961365e-01" nType="0">
            <Node pos="l" depth="3" NCoef="0" IVar="-1" Cut="0.0000000000000000e+00" cType="1" res="-1.9968431442975998e-02" rms="2.2060726583003998e-01" purity="2.1505399048328400e-01" nType="-99"/>
            <Node pos="r" depth="3" NCoef="0" IVar="-1" Cut="0.0000000000000000e+00" cType="1" res="-1.3200633693486452e-03" rms="2.4988710880279541e-01" purity="4.5065650343894958e-01" nType="-99"/>
          </Node>
        </Node>
      </Node>
    </BinaryTree>
    <BinaryTree type="DecisionTree" boostWeight="1.0000000000000000e+00" itree="34">
      <Node pos="s" depth="0" NCoef="0" IVar="0" Cut="-1.1428165435791016e+00" cType="1" res="-7.3779733611445408e-07" rms="2.4607585370540619e-01" purity="5.0000000000000000e-01" nType="0">
        <Node pos="l" depth="1" NCoef="0" IVar="2" Cut="-6.9230771064758301e-01" cType="1" res="-7.2344816289842129e-03" rms="2.3938150703907013e-01" purity="2.7408713102340698e-01" nType="0">
          <Node pos="l" depth="2" NCoef="0" IVar="-1" Cut="0.0000000000000000e+00" cType="1" res="-7.2081196121871471e-03" rms="1.3970904052257538e-01" purity="2.0996984094381332e-02" nType="-99"/>
          <Node pos="r" depth="2" NCoef="0" IVar="2" Cut="8.4619194269180298e-01" cType="1" res="-1.0527746751904488e-02" rms="2.8137528896331787e-01" purity="4.2076474428176880e-01" nType="0">
