<?xml version="1.0"?>
<MethodSetup Method="BDT::BDT_GRAD2">
  <GeneralInfo>
    <Info name="TMVA Release" value="4.1.2 [262402]"/>
    <Info name="ROOT Release" value="5.32/00 [335872]"/>
    <Info name="Creator" value="salderwe"/>
    <Info name="Date" value="Mon Dec  7 13:20:35 2015"/>
    <Info name="Host" value="Linux heisenberg 4.2.5-1-ARCH #1 SMP PREEMPT Tue Oct 27 08:13:28 CET 2015 x86_64 GNU/Linux"/>
    <Info name="Dir" value="/data/AA_UA/Workdir/git/vbfHbb/mvd/kostas"/>
    <Info name="Training events" value="196368"/>
    <Info name="TrainingTime" value="3.69308413e+02"/>
    <Info name="AnalysisType" value="Classification"/>
  </GeneralInfo>
  <Options>
    <Option name="V" modified="No">False</Option>
    <Option name="VerbosityLevel" modified="No">Default</Option>
    <Option name="VarTransform" modified="No">None</Option>
    <Option name="H" modified="No">False</Option>
    <Option name="CreateMVAPdfs" modified="No">False</Option>
    <Option name="IgnoreNegWeightsInTraining" modified="No">False</Option>
    <Option name="NTrees" modified="Yes">600</Option>
    <Option name="RenormByClass" modified="No">False</Option>
    <Option name="BoostType" modified="Yes">Grad</Option>
    <Option name="AdaBoostR2Loss" modified="No">quadratic</Option>
    <Option name="UseBaggedGrad" modified="No">False</Option>
    <Option name="GradBaggingFraction" modified="No">6.000000e-01</Option>
    <Option name="Shrinkage" modified="Yes">2.000000e-01</Option>
    <Option name="AdaBoostBeta" modified="No">1.000000e+00</Option>
    <Option name="UseRandomisedTrees" modified="No">False</Option>
    <Option name="UseNvars" modified="No">2</Option>
    <Option name="UsePoissonNvars" modified="No">True</Option>
    <Option name="UseNTrainEvents" modified="No">196368</Option>
    <Option name="UseWeightedTrees" modified="No">True</Option>
    <Option name="UseYesNoLeaf" modified="No">True</Option>
    <Option name="NodePurityLimit" modified="No">5.000000e-01</Option>
    <Option name="SeparationType" modified="No">giniindex</Option>
    <Option name="nEventsMin" modified="No">1227</Option>
    <Option name="nCuts" modified="Yes">25</Option>
    <Option name="UseFisherCuts" modified="No">False</Option>
    <Option name="MinLinCorrForFisher" modified="No">8.000000e-01</Option>
    <Option name="UseExclusiveVars" modified="No">False</Option>
    <Option name="PruneStrength" modified="No">0.000000e+00</Option>
    <Option name="PruneMethod" modified="No">nopruning</Option>
    <Option name="PruneBeforeBoost" modified="No">False</Option>
    <Option name="PruningValFraction" modified="No">5.000000e-01</Option>
    <Option name="NNodesMax" modified="No">100000</Option>
    <Option name="MaxDepth" modified="No">3</Option>
    <Option name="DoBoostMonitor" modified="No">False</Option>
    <Option name="NegWeightTreatment" modified="No">ignorenegweights</Option>
  </Options>
  <Variables NVar="4">
    <Variable VarIndex="0" Expression="btagIdx" Label="btagIdx" Title="btagIdx" Unit="" Internal="btagIdx" Type="I" Min="0.00000000e+00" Max="3.00000000e+00"/>
    <Variable VarIndex="1" Expression="etaIdx" Label="etaIdx" Title="etaIdx" Unit="" Internal="etaIdx" Type="I" Min="0.00000000e+00" Max="3.00000000e+00"/>
    <Variable VarIndex="2" Expression="btag" Label="btag" Title="btag" Unit="" Internal="btag" Type="F" Min="-1.00000000e+01" Max="1.00000000e+00"/>
    <Variable VarIndex="3" Expression="eta" Label="eta" Title="eta" Unit="" Internal="eta" Type="F" Min="-4.49979687e+00" Max="4.49992990e+00"/>
  </Variables>
  <Spectators NSpec="0"/>
  <Classes NClass="2">
    <Class Name="Signal" Index="0"/>
    <Class Name="Background" Index="1"/>
  </Classes>
  <Transformations NTransformations="0"/>
  <MVAPdfs/>
  <Weights NTrees="600" AnalysisType="1">
    <BinaryTree type="DecisionTree" boostWeight="1.0000000000000000e+00" itree="0">
      <Node pos="s" depth="0" NCoef="0" IVar="2" Cut="5.7692307233810425e-01" cType="0" res="5.7952417992055416e-03" rms="4.9996641278266907e-01" purity="5.0579524040222168e-01" nType="0">
        <Node pos="l" depth="1" NCoef="0" IVar="2" Cut="8.5355210304260254e-01" cType="0" res="4.6995997428894043e-01" rms="1.7069748044013977e-01" purity="9.6995997428894043e-01" nType="0">
          <Node pos="l" depth="2" NCoef="0" IVar="2" Cut="9.0425467491149902e-01" cType="0" res="4.9057593941688538e-01" rms="9.6619136631488800e-02" purity="9.9057590961456299e-01" nType="0">
            <Node pos="l" depth="3" NCoef="0" IVar="-1" Cut="0.0000000000000000e+00" cType="1" res="1.9811813533306122e-01" rms="6.8428933620452881e-02" purity="9.9529534578323364e-01" nType="-99"/>
            <Node pos="r" depth="3" NCoef="0" IVar="-1" Cut="0.0000000000000000e+00" cType="1" res="1.8395181000232697e-01" rms="1.9624170660972595e-01" purity="9.5987951755523682e-01" nType="-99"/>
          </Node>
          <Node pos="r" depth="2" NCoef="0" IVar="1" Cut="1.1538461595773697e-01" cType="0" res="3.5137751698493958e-01" rms="3.5571596026420593e-01" purity="8.5137748718261719e-01" nType="0">
            <Node pos="l" depth="3" NCoef="0" IVar="-1" Cut="0.0000000000000000e+00" cType="1" res="1.5639017522335052e-01" rms="3.1167003512382507e-01" purity="8.9097541570663452e-01" nType="-99"/>
            <Node pos="r" depth="3" NCoef="0" IVar="-1" Cut="0.0000000000000000e+00" cType="1" res="5.9434823691844940e-02" rms="4.7741165757179260e-01" purity="6.4858704805374146e-01" nType="-99"/>
          </Node>
        </Node>
        <Node pos="r" depth="1" NCoef="0" IVar="2" Cut="1.7008905112743378e-01" cType="0" res="-3.9244860410690308e-01" rms="3.0981299281120300e-01" purity="1.0755140334367752e-01" nType="0">
          <Node pos="l" depth="2" NCoef="0" IVar="2" Cut="3.4219956398010254e-01" cType="0" res="-1.8503534793853760e-01" rms="4.6450179815292358e-01" purity="3.1496465206146240e-01" nType="0">
            <Node pos="l" depth="3" NCoef="0" IVar="-1" Cut="0.0000000000000000e+00" cType="1" res="3.2006155699491501e-02" rms="4.9355602264404297e-01" purity="5.8001536130905151e-01" nType="-99"/>
            <Node pos="r" depth="3" NCoef="0" IVar="-1" Cut="0.0000000000000000e+00" cType="1" res="-1.3198022544384003e-01" rms="3.7567621469497681e-01" purity="1.7004942893981934e-01" nType="-99"/>
          </Node>
          <Node pos="r" depth="2" NCoef="0" IVar="2" Cut="-6.1223733425140381e-01" cType="0" res="-4.7244110703468323e-01" rms="1.6370524466037750e-01" purity="2.7558900415897369e-02" nType="0">
            <Node pos="l" depth="3" NCoef="0" IVar="-1" Cut="0.0000000000000000e+00" cType="1" res="-1.8103113770484924e-01" rms="2.1254010498523712e-01" purity="4.7422155737876892e-02" nType="-99"/>
            <Node pos="r" depth="3" NCoef="0" IVar="-1" Cut="0.0000000000000000e+00" cType="1" res="-1.9736877083778381e-01" rms="8.0838046967983246e-02" purity="6.5780603326857090e-03" nType="-99"/>
          </Node>
        </Node>
      </Node>
    </BinaryTree>
    <BinaryTree type="DecisionTree" boostWeight="1.0000000000000000e+00" itree="1">
      <Node pos="s" depth="0" NCoef="0" IVar="2" Cut="5.7692307233810425e-01" cType="0" res="4.6918038278818130e-03" rms="4.2214614152908325e-01" purity="5.0579524040222168e-01" nType="0">
        <Node pos="l" depth="1" NCoef="0" IVar="2" Cut="8.2100808620452881e-01" cType="0" res="3.7710541486740112e-01" rms="1.6676642000675201e-01" purity="9.6995997428894043e-01" nType="0">
          <Node pos="l" depth="2" NCoef="0" IVar="2" Cut="8.9674139022827148e-01" cType="0" res="3.9135441184043884e-01" rms="1.1167711019515991e-01" purity="9.8708271980285645e-01" nType="0">
            <Node pos="l" depth="3" NCoef="0" IVar="-1" Cut="0.0000000000000000e+00" cType="1" res="1.6516017913818359e-01" rms="7.2113335132598877e-02" purity="9.9476647377014160e-01" nType="-99"/>
            <Node pos="r" depth="3" NCoef="0" IVar="-1" Cut="0.0000000000000000e+00" cType="1" res="1.4762218296527863e-01" rms="2.2964367270469666e-01" purity="9.4316577911376953e-01" nType="-99"/>
          </Node>
          <Node pos="r" depth="2" NCoef="0" IVar="3" Cut="-1.4938091039657593e+00" cType="0" res="2.6027145981788635e-01" rms="3.7184625864028931e-01" purity="8.2956272363662720e-01" nType="0">
            <Node pos="l" depth="3" NCoef="0" IVar="-1" Cut="0.0000000000000000e+00" cType="1" res="1.2085934728384018e-01" rms="3.3634796738624573e-01" purity="8.6497199535369873e-01" nType="-99"/>
            <Node pos="r" depth="3" NCoef="0" IVar="-1" Cut="0.0000000000000000e+00" cType="1" res="8.6437407881021500e-03" rms="4.9076709151268005e-01" purity="5.9250587224960327e-01" nType="-99"/>
          </Node>
        </Node>
        <Node pos="r" depth="1" NCoef="0" IVar="2" Cut="1.7008905112743378e-01" cType="0" res="-3.1483146548271179e-01" rms="2.9352068901062012e-01" purity="1.0755140334367752e-01" nType="0">
          <Node pos="l" depth="2" NCoef="0" IVar="2" Cut="3.1090715527534485e-01" cType="0" res="-1.4827235043048859e-01" rms="4.4943547248840332e-01" purity="3.1496465206146240e-01" nType="0">
            <Node pos="l" depth="3" NCoef="0" IVar="-1" Cut="0.0000000000000000e+00" cType="1" res="1.3152900151908398e-02" rms="4.9369880557060242e-01" purity="5.3320872783660889e-01" nType="-99"/>
            <Node pos="r" depth="3" NCoef="0" IVar="-1" Cut="0.0000000000000000e+00" cType="1" res="-1.1744248867034912e-01" rms="3.5294535756111145e-01" purity="1.4583961665630341e-01" nType="-99"/>
          </Node>
          <Node pos="r" depth="2" NCoef="0" IVar="2" Cut="-6.1223733425140381e-01" cType="0" res="-3.7906786799430847e-01" rms="1.6326072812080383e-01" purity="2.7558900415897369e-02" nType="0">
            <Node pos="l" depth="3" NCoef="0" IVar="-1" Cut="0.0000000000000000e+00" cType="1" res="-1.5002655982971191e-01" rms="2.1254010498523712e-01" purity="4.7422155737876892e-02" nType="-99"/>
            <Node pos="r" depth="3" NCoef="0" IVar="-1" Cut="0.0000000000000000e+00" cType="1" res="-1.6465063393115997e-01" rms="8.0838046967983246e-02" purity="6.5780603326857090e-03" nType="-99"/>
          </Node>
        </Node>
      </Node>
    </BinaryTree>
    <BinaryTree type="DecisionTree" boostWeight="1.0000000000000000e+00" itree="2">
      <Node pos="s" depth="0" NCoef="0" IVar="2" Cut="5.7692307233810425e-01" cType="0" res="3.8819485343992710e-03" rms="3.6461895704269409e-01" purity="5.0579524040222168e-01" nType="0">
        <Node pos="l" depth="1" NCoef="0" IVar="2" Cut="8.3728009462356567e-01" cType="0" res="3.0449047684669495e-01" rms="1.6397058963775635e-01" purity="9.6995997428894043e-01" nType="0">
          <Node pos="l" depth="2" NCoef="0" IVar="2" Cut="9.1864204406738281e-01" cType="0" res="3.1713038682937622e-01" rms="1.0469543188810349e-01" purity="9.8868525028228760e-01" nType="0">
            <Node pos="l" depth="3" NCoef="0" IVar="-1" Cut="0.0000000000000000e+00" cType="1" res="1.4662721753120422e-01" rms="6.1532676219940186e-02" purity="9.9619930982589722e-01" nType="-99"/>
            <Node pos="r" depth="3" NCoef="0" IVar="-1" Cut="0.0000000000000000e+00" cType="1" res="1.3298429548740387e-01" rms="1.9637443125247955e-01" purity="9.5927095413208008e-01" nType="-99"/>
          </Node>
          <Node pos="r" depth="2" NCoef="0" IVar="3" Cut="1.4529551267623901e+00" cType="1" res="2.1660640835762024e-01" rms="3.5885709524154663e-01" purity="8.3976495265960693e-01" nType="0">
            <Node pos="l" depth="3" NCoef="0" IVar="-1" Cut="0.0000000000000000e+00" cType="1" res="1.0648979991674423e-01" rms="3.2555019855499268e-01" purity="8.7292981147766113e-01" nType="-99"/>
            <Node pos="r" depth="3" NCoef="0" IVar="-1" Cut="0.0000000000000000e+00" cType="1" res="-4.1076014749705791e-03" rms="4.7750812768936157e-01" purity="6.1014592647552490e-01" nType="-99"/>
          </Node>
        </Node>
        <Node pos="r" depth="1" NCoef="0" IVar="2" Cut="1.7008905112743378e-01" cType="0" res="-2.5403404235839844e-01" rms="2.8265249729156494e-01" purity="1.0755140334367752e-01" nType="0">
          <Node pos="l" depth="2" NCoef="0" IVar="2" Cut="3.8913816213607788e-01" cType="0" res="-1.1925532668828964e-01" rms="4.3930873274803162e-01" purity="3.1496465206146240e-01" nType="0">
            <Node pos="l" depth="3" NCoef="0" IVar="-1" Cut="0.0000000000000000e+00" cType="1" res="4.5097887516021729e-02" rms="4.8140791058540344e-01" purity="6.3507932424545288e-01" nType="-99"/>
            <Node pos="r" depth="3" NCoef="0" IVar="-1" Cut="0.0000000000000000e+00" cType="1" res="-8.3363115787506104e-02" rms="3.9373815059661865e-01" purity="2.0535755157470703e-01" nType="-99"/>
          </Node>
          <Node pos="r" depth="2" NCoef="0" IVar="3" Cut="-1.3845068216323853e+00" cType="0" res="-3.0601376295089722e-01" rms="1.6299051046371460e-01" purity="2.7558900415897369e-02" nType="0">
            <Node pos="l" depth="3" NCoef="0" IVar="-1" Cut="0.0000000000000000e+00" cType="1" res="-1.3216993212699890e-01" rms="1.9637276232242584e-01" purity="4.0513038635253906e-02" nType="-99"/>
            <Node pos="r" depth="3" NCoef="0" IVar="-1" Cut="0.0000000000000000e+00" cType="1" res="-1.4667040109634399e-01" rms="8.0866850912570953e-02" purity="6.5628974698483944e-03" nType="-99"/>
          </Node>
        </Node>
      </Node>
    </BinaryTree>
    <BinaryTree type="DecisionTree" boostWeight="1.0000000000000000e+00" itree="3">
      <Node pos="s" depth="0" NCoef="0" IVar="2" Cut="5.7692307233810425e-01" cType="0" res="3.2880557700991631e-03" rms="3.2199016213417053e-01" purity="5.0579524040222168e-01" nType="0">
        <Node pos="l" depth="1" NCoef="0" IVar="2" Cut="7.7219212055206299e-01" cType="0" res="2.4671240150928497e-01" rms="1.6187302768230438e-01" purity="9.6995997428894043e-01" nType="0">
          <Node pos="l" depth="2" NCoef="0" IVar="2" Cut="8.7734276056289673e-01" cType="0" res="2.5448781251907349e-01" rms="1.2650455534458160e-01" purity="9.8263663053512573e-01" nType="0">
            <Node pos="l" depth="3" NCoef="0" IVar="-1" Cut="0.0000000000000000e+00" cType="1" res="1.3280390202999115e-01" rms="8.2997053861618042e-02" purity="9.9300706386566162e-01" nType="-99"/>
            <Node pos="r" depth="3" NCoef="0" IVar="-1" Cut="0.0000000000000000e+00" cType="1" res="1.0395304113626480e-01" rms="2.7409088611602783e-01" purity="9.1381347179412842e-01" nType="-99"/>
          </Node>
          <Node pos="r" depth="2" NCoef="0" IVar="3" Cut="-1.2577925920486450e+00" cType="0" res="1.4756228029727936e-01" rms="3.8165730237960815e-01" purity="8.0831056833267212e-01" nType="0">
            <Node pos="l" depth="3" NCoef="0" IVar="-1" Cut="0.0000000000000000e+00" cType="1" res="8.3367630839347839e-02" rms="3.4464010596275330e-01" purity="8.5060918331146240e-01" nType="-99"/>
            <Node pos="r" depth="3" NCoef="0" IVar="-1" Cut="0.0000000000000000e+00" cType="1" res="-4.4912956655025482e-03" rms="4.7830814123153687e-01" purity="6.2907069921493530e-01" nType="-99"/>
          </Node>
        </Node>
        <Node pos="r" depth="1" NCoef="0" IVar="2" Cut="1.7008905112743378e-01" cType="0" res="-2.0556505024433136e-01" rms="2.7511793375015259e-01" purity="1.0755140334367752e-01" nType="0">
          <Node pos="l" depth="2" NCoef="0" IVar="3" Cut="-1.7627152204513550e+00" cType="0" res="-9.5913745462894440e-02" rms="4.3191862106323242e-01" purity="3.1496465206146240e-01" nType="0">
            <Node pos="l" depth="3" NCoef="0" IVar="-1" Cut="0.0000000000000000e+00" cType="1" res="-9.5750475302338600e-03" rms="4.5427480340003967e-01" purity="3.9533603191375732e-01" nType="-99"/>
            <Node pos="r" depth="3" NCoef="0" IVar="-1" Cut="0.0000000000000000e+00" cType="1" res="-1.3182666897773743e-01" rms="2.6590430736541748e-01" purity="8.5560798645019531e-02" nType="-99"/>
          </Node>
          <Node pos="r" depth="2" NCoef="0" IVar="3" Cut="1.3846398591995239e+00" cType="1" res="-2.4785397946834564e-01" rms="1.6281262040138245e-01" purity="2.7558900415897369e-02" nType="0">
            <Node pos="l" depth="3" NCoef="0" IVar="-1" Cut="0.0000000000000000e+00" cType="1" res="-1.1798503249883652e-01" rms="1.9456157088279724e-01" purity="3.9929747581481934e-02" nType="-99"/>
            <Node pos="r" depth="3" NCoef="0" IVar="-1" Cut="0.0000000000000000e+00" cType="1" res="-1.3439507782459259e-01" rms="8.5720352828502655e-02" purity="7.4099604971706867e-03" nType="-99"/>
          </Node>
        </Node>
      </Node>
    </BinaryTree>
    <BinaryTree type="DecisionTree" boostWeight="1.0000000000000000e+00" itree="4">
      <Node pos="s" depth="0" NCoef="0" IVar="2" Cut="5.7692307233810425e-01" cType="0" res="2.8033163398504257e-03" rms="2.9063671827316284e-01" purity="5.0579524040222168e-01" nType="0">
        <Node pos="l" depth="1" NCoef="0" IVar="2" Cut="8.2100808620452881e-01" cType="0" res="2.0031455159187317e-01" rms="1.6063258051872253e-01" purity="9.6995997428894043e-01" nType="0">
          <Node pos="l" depth="2" NCoef="0" IVar="3" Cut="1.6983388662338257e+00" cType="1" res="2.0847192406654358e-01" rms="1.1092838644981384e-01" purity="9.8708271980285645e-01" nType="0">
            <Node pos="l" depth="3" NCoef="0" IVar="-1" Cut="0.0000000000000000e+00" cType="1" res="1.2228509038686752e-01" rms="1.0150194168090820e-01" purity="9.8928582668304443e-01" nType="-99"/>
            <Node pos="r" depth="3" NCoef="0" IVar="-1" Cut="0.0000000000000000e+00" cType="1" res="9.6238940954208374e-02" rms="2.2553578019142151e-01" purity="9.4268518686294556e-01" nType="-99"/>
          </Node>
          <Node pos="r" depth="2" NCoef="0" IVar="1" Cut="2.0769231319427490e+00" cType="1" res="1.3342854380607605e-01" rms="3.6257049441337585e-01" purity="8.2956272363662720e-01" nType="0">
            <Node pos="l" depth="3" NCoef="0" IVar="-1" Cut="0.0000000000000000e+00" cType="1" res="8.1564031541347504e-02" rms="3.2497033476829529e-01" purity="8.6777967214584351e-01" nType="-99"/>
            <Node pos="r" depth="3" NCoef="0" IVar="-1" Cut="0.0000000000000000e+00" cType="1" res="-2.6465298607945442e-02" rms="4.6579879522323608e-01" purity="6.3961237668991089e-01" nType="-99"/>
          </Node>
        </Node>
        <Node pos="r" depth="1" NCoef="0" IVar="2" Cut="1.7008905112743378e-01" cType="0" res="-1.6665728390216827e-01" rms="2.6947617530822754e-01" purity="1.0755140334367752e-01" nType="0">
          <Node pos="l" depth="2" NCoef="0" IVar="3" Cut="1.7448016405105591e+00" cType="1" res="-7.7244319021701813e-02" rms="4.2572444677352905e-01" purity="3.1496465206146240e-01" nType="0">
            <Node pos="l" depth="3" NCoef="0" IVar="-1" Cut="0.0000000000000000e+00" cType="1" res="-1.4317933528218418e-04" rms="4.4299820065498352e-01" purity="3.9374488592147827e-01" nType="-99"/>
            <Node pos="r" depth="3" NCoef="0" IVar="-1" Cut="0.0000000000000000e+00" cType="1" res="-1.3168425858020782e-01" rms="2.6100119948387146e-01" purity="8.2684561610221863e-02" nType="-99"/>
          </Node>
          <Node pos="r" depth="2" NCoef="0" IVar="3" Cut="-1.3845068216323853e+00" cType="0" res="-2.0114094018936157e-01" rms="1.6264173388481140e-01" purity="2.7558900415897369e-02" nType="0">
            <Node pos="l" depth="3" NCoef="0" IVar="-1" Cut="0.0000000000000000e+00" cType="1" res="-1.0709701478481293e-01" rms="1.9597661495208740e-01" purity="4.0513038635253906e-02" nType="-99"/>
            <Node pos="r" depth="3" NCoef="0" IVar="-1" Cut="0.0000000000000000e+00" cType="1" res="-1.2548847496509552e-01" rms="8.0796442925930023e-02" purity="6.5628974698483944e-03" nType="-99"/>
          </Node>
        </Node>
      </Node>
    </BinaryTree>
    <BinaryTree type="DecisionTree" boostWeight="1.0000000000000000e+00" itree="5">
      <Node pos="s" depth="0" NCoef="0" IVar="2" Cut="5.7692307233810425e-01" cType="0" res="2.3959036916494370e-03" rms="2.6725709438323975e-01" purity="5.0579524040222168e-01" nType="0">
        <Node pos="l" depth="1" NCoef="0" IVar="2" Cut="8.5355210304260254e-01" cType="0" res="1.6286394000053406e-01" rms="1.5936787426471710e-01" purity="9.6995997428894043e-01" nType="0">
          <Node pos="l" depth="2" NCoef="0" IVar="2" Cut="9.2115092277526855e-01" cType="0" res="1.7132057249546051e-01" rms="9.5894746482372284e-02" purity="9.9057590961456299e-01" nType="0">
            <Node pos="l" depth="3" NCoef="0" IVar="-1" Cut="0.0000000000000000e+00" cType="1" res="1.1920150369405746e-01" rms="6.0410041362047195e-02" purity="9.9633330106735229e-01" nType="-99"/>
            <Node pos="r" depth="3" NCoef="0" IVar="-1" Cut="0.0000000000000000e+00" cType="1" res="1.0181681811809540e-01" rms="1.7989984154701233e-01" purity="9.6627241373062134e-01" nType="-99"/>
          </Node>
          <Node pos="r" depth="2" NCoef="0" IVar="1" Cut="1.1538461595773697e-01" cType="0" res="1.1422160267829895e-01" rms="3.4031745791435242e-01" purity="8.5137748718261719e-01" nType="0">
            <Node pos="l" depth="3" NCoef="0" IVar="-1" Cut="0.0000000000000000e+00" cType="1" res="7.7992781996726990e-02" rms="2.9841062426567078e-01" purity="8.9097541570663452e-01" nType="-99"/>
            <Node pos="r" depth="3" NCoef="0" IVar="-1" Cut="0.0000000000000000e+00" cType="1" res="-2.7128616347908974e-02" rms="4.6713474392890930e-01" purity="6.4858704805374146e-01" nType="-99"/>
          </Node>
        </Node>
        <Node pos="r" depth="1" NCoef="0" IVar="2" Cut="1.7008905112743378e-01" cType="0" res="-1.3528238236904144e-01" rms="2.6432815194129944e-01" purity="1.0755140334367752e-01" nType="0">
          <Node pos="l" depth="2" NCoef="0" IVar="2" Cut="2.4832235276699066e-01" cType="0" res="-6.2304344028234482e-02" rms="4.1852590441703796e-01" purity="3.1496465206146240e-01" nType="0">
            <Node pos="l" depth="3" NCoef="0" IVar="-1" Cut="0.0000000000000000e+00" cType="1" res="5.6269373744726181e-03" rms="4.5383739471435547e-01" purity="4.2278581857681274e-01" nType="-99"/>
            <Node pos="r" depth="3" NCoef="0" IVar="-1" Cut="0.0000000000000000e+00" cType="1" res="-1.0961410403251648e-01" rms="2.5448173284530640e-01" purity="7.3098123073577881e-02" nType="-99"/>
          </Node>
          <Node pos="r" depth="2" NCoef="0" IVar="3" Cut="1.3846398591995239e+00" cType="1" res="-1.6342762112617493e-01" rms="1.6252557933330536e-01" purity="2.7558900415897369e-02" nType="0">
            <Node pos="l" depth="3" NCoef="0" IVar="-1" Cut="0.0000000000000000e+00" cType="1" res="-9.7927197813987732e-02" rms="1.9429405033588409e-01" purity="3.9929747581481934e-02" nType="-99"/>
            <Node pos="r" depth="3" NCoef="0" IVar="-1" Cut="0.0000000000000000e+00" cType="1" res="-1.1870206147432327e-01" rms="8.5693039000034332e-02" purity="7.4099604971706867e-03" nType="-99"/>
          </Node>
        </Node>
      </Node>
    </BinaryTree>
    <BinaryTree type="DecisionTree" boostWeight="1.0000000000000000e+00" itree="6">
      <Node pos="s" depth="0" NCoef="0" IVar="2" Cut="5.7692307233810425e-01" cType="0" res="2.0427594427019358e-03" rms="2.5045913457870483e-01" purity="5.0579524040222168e-01" nType="0">
        <Node pos="l" depth="1" NCoef="0" IVar="3" Cut="-1.9118196964263916e+00" cType="0" res="1.3256303966045380e-01" rms="1.5815585851669312e-01" purity="9.6995997428894043e-01" nType="0">
          <Node pos="l" depth="2" NCoef="0" IVar="3" Cut="1.8414535522460938e+00" cType="1" res="1.3604046404361725e-01" rms="1.4753098785877228e-01" purity="9.7438877820968628e-01" nType="0">
            <Node pos="l" depth="3" NCoef="0" IVar="-1" Cut="0.0000000000000000e+00" cType="1" res="1.0479222238063812e-01" rms="1.3413360714912415e-01" purity="9.7950607538223267e-01" nType="-99"/>
            <Node pos="r" depth="3" NCoef="0" IVar="-1" Cut="0.0000000000000000e+00" cType="1" res="2.4028118699789047e-02" rms="3.2643905282020569e-01" purity="8.4532696008682251e-01" nType="-99"/>
          </Node>
          <Node pos="r" depth="2" NCoef="0" IVar="2" Cut="9.1868287324905396e-01" cType="0" res="2.6016445830464363e-02" rms="3.3586353063583374e-01" purity="8.3426380157470703e-01" nType="0">
            <Node pos="l" depth="3" NCoef="0" IVar="-1" Cut="0.0000000000000000e+00" cType="1" res="1.1110648512840271e-01" rms="8.5866004228591919e-02" purity="9.9256753921508789e-01" nType="-99"/>
            <Node pos="r" depth="3" NCoef="0" IVar="-1" Cut="0.0000000000000000e+00" cType="1" res="-5.3282219916582108e-02" rms="4.4440829753875732e-01" purity="6.6522365808486938e-01" nType="-99"/>
          </Node>
        </Node>
        <Node pos="r" depth="1" NCoef="0" IVar="3" Cut="-1.7306501865386963e+00" cType="0" res="-1.0994097590446472e-01" rms="2.6064011454582214e-01" purity="1.0755140334367752e-01" nType="0">
          <Node pos="l" depth="2" NCoef="0" IVar="3" Cut="1.3846411705017090e+00" cType="1" res="-8.2279257476329803e-02" rms="2.9420948028564453e-01" purity="1.4555650949478149e-01" nType="0">
            <Node pos="l" depth="3" NCoef="0" IVar="-1" Cut="0.0000000000000000e+00" cType="1" res="3.4616522025316954e-03" rms="3.6881372332572937e-01" purity="2.6639765501022339e-01" nType="-99"/>
            <Node pos="r" depth="3" NCoef="0" IVar="-1" Cut="0.0000000000000000e+00" cType="1" res="-1.0574558377265930e-01" rms="1.7293819785118103e-01" purity="3.8834698498249054e-02" nType="-99"/>
          </Node>
          <Node pos="r" depth="2" NCoef="0" IVar="2" Cut="1.6985407471656799e-01" cType="0" res="-1.7009696364402771e-01" rms="1.4881065487861633e-01" purity="2.4901624768972397e-02" nType="0">
            <Node pos="l" depth="3" NCoef="0" IVar="-1" Cut="0.0000000000000000e+00" cType="1" res="-1.1020364612340927e-01" rms="2.6917070150375366e-01" purity="8.8997177779674530e-02" nType="-99"/>
            <Node pos="r" depth="3" NCoef="0" IVar="-1" Cut="0.0000000000000000e+00" cType="1" res="-1.1459783464670181e-01" rms="7.2633035480976105e-02" purity="5.2955714054405689e-03" nType="-99"/>
          </Node>
        </Node>
      </Node>
    </BinaryTree>
    <BinaryTree type="DecisionTree" boostWeight="1.0000000000000000e+00" itree="7">
      <Node pos="s" depth="0" NCoef="0" IVar="2" Cut="5.7692307233810425e-01" cType="0" res="1.7392775043845177e-03" rms="2.3742155730724335e-01" purity="5.0579524040222168e-01" nType="0">
        <Node pos="l" depth="1" NCoef="0" IVar="2" Cut="8.6982405185699463e-01" cType="0" res="1.0788664221763611e-01" rms="1.5722638368606567e-01" purity="9.6995997428894043e-01" nType="0">
          <Node pos="l" depth="2" NCoef="0" IVar="2" Cut="9.4993460178375244e-01" cType="0" res="1.1674895882606506e-01" rms="8.6777172982692719e-02" purity="9.9226957559585571e-01" nType="0">
            <Node pos="l" depth="3" NCoef="0" IVar="-1" Cut="0.0000000000000000e+00" cType="1" res="1.1171202361583710e-01" rms="4.8966392874717712e-02" purity="9.9760359525680542e-01" nType="-99"/>
            <Node pos="r" depth="3" NCoef="0" IVar="-1" Cut="0.0000000000000000e+00" cType="1" res="9.7120419144630432e-02" rms="1.3940472900867462e-01" purity="9.7982102632522583e-01" nType="-99"/>
          </Node>
          <Node pos="r" depth="2" NCoef="0" IVar="3" Cut="1.6634383201599121e+00" cType="1" res="6.7044243216514587e-02" rms="3.1923401355743408e-01" purity="8.6714500188827515e-01" nType="0">
            <Node pos="l" depth="3" NCoef="0" IVar="-1" Cut="0.0000000000000000e+00" cType="1" res="5.5373702198266983e-02" rms="2.9601410031318665e-01" purity="8.9068716764450073e-01" nType="-99"/>
            <Node pos="r" depth="3" NCoef="0" IVar="-1" Cut="0.0000000000000000e+00" cType="1" res="-7.3056951165199280e-02" rms="4.6341162919998169e-01" purity="6.0642272233963013e-01" nType="-99"/>
          </Node>
        </Node>
        <Node pos="r" depth="1" NCoef="0" IVar="2" Cut="1.7008905112743378e-01" cType="0" res="-8.9332990348339081e-02" rms="2.5605043768882751e-01" purity="1.0755140334367752e-01" nType="0">
          <Node pos="l" depth="2" NCoef="0" IVar="1" Cut="2.0769231319427490e+00" cType="1" res="-2.5524059310555458e-02" rms="4.0360146760940552e-01" purity="3.1496465206146240e-01" nType="0">
            <Node pos="l" depth="3" NCoef="0" IVar="-1" Cut="0.0000000000000000e+00" cType="1" res="1.8368547782301903e-02" rms="4.2204985022544861e-01" purity="3.9096164703369141e-01" nType="-99"/>
            <Node pos="r" depth="3" NCoef="0" IVar="-1" Cut="0.0000000000000000e+00" cType="1" res="-9.0930670499801636e-02" rms="2.9916179180145264e-01" purity="1.2743133306503296e-01" nType="-99"/>
          </Node>
          <Node pos="r" depth="2" NCoef="0" IVar="1" Cut="1.1538461595773697e-01" cType="0" res="-1.1394200474023819e-01" rms="1.6077335178852081e-01" purity="2.7558900415897369e-02" nType="0">
            <Node pos="l" depth="3" NCoef="0" IVar="-1" Cut="0.0000000000000000e+00" cType="1" res="-8.6069315671920776e-02" rms="1.8608155846595764e-01" purity="3.7474248558282852e-02" nType="-99"/>
            <Node pos="r" depth="3" NCoef="0" IVar="-1" Cut="0.0000000000000000e+00" cType="1" res="-1.0820972174406052e-01" rms="1.0029829293489456e-01" purity="1.0204449295997620e-02" nType="-99"/>
          </Node>
        </Node>
      </Node>
    </BinaryTree>
    <BinaryTree type="DecisionTree" boostWeight="1.0000000000000000e+00" itree="8">
      <Node pos="s" depth="0" NCoef="0" IVar="2" Cut="5.7692307233810425e-01" cType="0" res="1.4892903855070472e-03" rms="2.2830104827880859e-01" purity="5.0579524040222168e-01" nType="0">
        <Node pos="l" depth="1" NCoef="0" IVar="2" Cut="7.7219212055206299e-01" cType="0" res="8.7912067770957947e-02" rms="1.5623541176319122e-01" purity="9.6995997428894043e-01" nType="0">
          <Node pos="l" depth="2" NCoef="0" IVar="1" Cut="1.1538461595773697e-01" cType="0" res="9.2702023684978485e-02" rms="1.2417265772819519e-01" purity="9.8263663053512573e-01" nType="0">
            <Node pos="l" depth="3" NCoef="0" IVar="-1" Cut="0.0000000000000000e+00" cType="1" res="9.9938862025737762e-02" rms="1.0704123973846436e-01" purity="9.8758876323699951e-01" nType="-99"/>
            <Node pos="r" depth="3" NCoef="0" IVar="-1" Cut="0.0000000000000000e+00" cType="1" res="6.5755300223827362e-02" rms="2.0234359800815582e-01" purity="9.4975465536117554e-01" nType="-99"/>
          </Node>
          <Node pos="r" depth="2" NCoef="0" IVar="3" Cut="-1.2577925920486450e+00" cType="0" res="2.6831828057765961e-02" rms="3.6746791005134583e-01" purity="8.0831056833267212e-01" nType="0">
            <Node pos="l" depth="3" NCoef="0" IVar="-1" Cut="0.0000000000000000e+00" cType="1" res="3.4753687679767609e-02" rms="3.3400043845176697e-01" purity="8.5060918331146240e-01" nType="-99"/>
            <Node pos="r" depth="3" NCoef="0" IVar="-1" Cut="0.0000000000000000e+00" cType="1" res="-4.8667076975107193e-02" rms="4.6473667025566101e-01" purity="6.2907069921493530e-01" nType="-99"/>
          </Node>
        </Node>
        <Node pos="r" depth="1" NCoef="0" IVar="1" Cut="1.1538461595773697e-01" cType="0" res="-7.2659686207771301e-02" rms="2.5296512246131897e-01" purity="1.0755140334367752e-01" nType="0">
          <Node pos="l" depth="2" NCoef="0" IVar="1" Cut="2.0769231319427490e+00" cType="1" res="-4.6869359910488129e-02" rms="2.8110706806182861e-01" purity="1.4119808375835419e-01" nType="0">
            <Node pos="l" depth="3" NCoef="0" IVar="-1" Cut="0.0000000000000000e+00" cType="1" res="2.0624043419957161e-02" rms="3.4697642922401428e-01" purity="2.5252616405487061e-01" nType="-99"/>
            <Node pos="r" depth="3" NCoef="0" IVar="-1" Cut="0.0000000000000000e+00" cType="1" res="-9.4024561345577240e-02" rms="1.7460910975933075e-01" purity="3.9235245436429977e-02" nType="-99"/>
          </Node>
          <Node pos="r" depth="2" NCoef="0" IVar="2" Cut="1.7008905112743378e-01" cType="0" res="-1.2145559489727020e-01" rms="1.7864787578582764e-01" purity="4.3891094624996185e-02" nType="0">
            <Node pos="l" depth="3" NCoef="0" IVar="-1" Cut="0.0000000000000000e+00" cType="1" res="-8.2373932003974915e-02" rms="3.1272071599960327e-01" purity="1.4990921318531036e-01" nType="-99"/>
            <Node pos="r" depth="3" NCoef="0" IVar="-1" Cut="0.0000000000000000e+00" cType="1" res="-1.0350956767797470e-01" rms="1.0012028366327286e-01" purity="1.0204449295997620e-02" nType="-99"/>
          </Node>
        </Node>
      </Node>
    </BinaryTree>
    <BinaryTree type="DecisionTree" boostWeight="1.0000000000000000e+00" itree="9">
      <Node pos="s" depth="0" NCoef="0" IVar="2" Cut="5.7692307233810425e-01" cType="0" res="1.2380729895085096e-03" rms="2.2102414071559906e-01" purity="5.0579524040222168e-01" nType="0">
        <Node pos="l" depth="1" NCoef="0" IVar="3" Cut="-1.7005975246429443e+00" cType="0" res="7.1589663624763489e-02" rms="1.5586829185485840e-01" purity="9.6995997428894043e-01" nType="0">
          <Node pos="l" depth="2" NCoef="0" IVar="3" Cut="1.5408527851104736e+00" cType="1" res="7.5301580131053925e-02" rms="1.4291077852249146e-01" purity="9.7562283277511597e-01" nType="0">
            <Node pos="l" depth="3" NCoef="0" IVar="-1" Cut="0.0000000000000000e+00" cType="1" res="9.2308133840560913e-02" rms="1.2352646887302399e-01" purity="9.8308628797531128e-01" nType="-99"/>
            <Node pos="r" depth="3" NCoef="0" IVar="-1" Cut="0.0000000000000000e+00" cType="1" res="1.8454130738973618e-02" rms="2.8157502412796021e-01" purity="8.8585722446441650e-01" nType="-99"/>
          </Node>
          <Node pos="r" depth="2" NCoef="0" IVar="2" Cut="8.6989259719848633e-01" cType="0" res="4.2605414055287838e-03" rms="2.9955717921257019e-01" purity="8.6724358797073364e-01" nType="0">
            <Node pos="l" depth="3" NCoef="0" IVar="-1" Cut="0.0000000000000000e+00" cType="1" res="7.9325124621391296e-02" rms="1.5391051769256592e-01" purity="9.7479242086410522e-01" nType="-99"/>
            <Node pos="r" depth="3" NCoef="0" IVar="-1" Cut="0.0000000000000000e+00" cType="1" res="-8.0472439527511597e-02" rms="4.7049239277839661e-01" purity="6.0175693035125732e-01" nType="-99"/>
          </Node>
        </Node>
        <Node pos="r" depth="1" NCoef="0" IVar="3" Cut="-1.3845068216323853e+00" cType="0" res="-5.9122152626514435e-02" rms="2.4906034767627716e-01" purity="1.0755140334367752e-01" nType="0">
          <Node pos="l" depth="2" NCoef="0" IVar="3" Cut="1.1051074266433716e+00" cType="1" res="-3.3312920480966568e-02" rms="2.8267046809196472e-01" purity="1.4685221016407013e-01" nType="0">
            <Node pos="l" depth="3" NCoef="0" IVar="-1" Cut="0.0000000000000000e+00" cType="1" res="4.4069826602935791e-02" rms="3.7346014380455017e-01" purity="3.0835604667663574e-01" nType="-99"/>
            <Node pos="r" depth="3" NCoef="0" IVar="-1" Cut="0.0000000000000000e+00" cType="1" res="-8.0662719905376434e-02" rms="1.8879592418670654e-01" purity="5.3123891353607178e-02" nType="-99"/>
          </Node>
          <Node pos="r" depth="2" NCoef="0" IVar="2" Cut="1.6985407471656799e-01" cType="0" res="-1.0364299267530441e-01" rms="1.6754570603370667e-01" purity="3.9757639169692993e-02" nType="0">
            <Node pos="l" depth="3" NCoef="0" IVar="-1" Cut="0.0000000000000000e+00" cType="1" res="-6.9370009005069733e-02" rms="3.0285373330116272e-01" purity="1.3937893509864807e-01" nType="-99"/>
            <Node pos="r" depth="3" NCoef="0" IVar="-1" Cut="0.0000000000000000e+00" cType="1" res="-1.0446151345968246e-01" rms="8.1261433660984039e-02" purity="6.5653789788484573e-03" nType="-99"/>
          </Node>
        </Node>
      </Node>
    </BinaryTree>
    <BinaryTree type="DecisionTree" boostWeight="1.0000000000000000e+00" itree="10">
      <Node pos="s" depth="0" NCoef="0" IVar="2" Cut="1.5384615957736969e-01" cType="0" res="9.7490282496437430e-04" rms="2.1502694487571716e-01" purity="5.0579524040222168e-01" nType="0">
        <Node pos="l" depth="1" NCoef="0" IVar="2" Cut="2.5148043036460876e-01" cType="0" res="4.3849460780620575e-02" rms="2.3355112969875336e-01" purity="7.9266667366027832e-01" nType="0">
          <Node pos="l" depth="2" NCoef="0" IVar="3" Cut="1.9640214443206787e+00" cType="1" res="6.0257498174905777e-02" rms="2.2636908292770386e-01" purity="8.7201040983200073e-01" nType="0">
            <Node pos="l" depth="3" NCoef="0" IVar="-1" Cut="0.0000000000000000e+00" cType="1" res="7.1763262152671814e-02" rms="2.1603806316852570e-01" purity="9.0436470508575439e-01" nType="-99"/>
            <Node pos="r" depth="3" NCoef="0" IVar="-1" Cut="0.0000000000000000e+00" cType="1" res="-6.6390819847583771e-02" rms="3.0597552657127380e-01" purity="3.5970786213874817e-01" nType="-99"/>
          </Node>
          <Node pos="r" depth="2" NCoef="0" IVar="1" Cut="1.1538461595773697e-01" cType="0" res="-1.0492017120122910e-01" rms="2.4478986859321594e-01" purity="7.3266677558422089e-02" nType="0">
            <Node pos="l" depth="3" NCoef="0" IVar="-1" Cut="0.0000000000000000e+00" cType="1" res="-5.8603364974260330e-02" rms="2.7675864100456238e-01" purity="9.8071768879890442e-02" nType="-99"/>
            <Node pos="r" depth="3" NCoef="0" IVar="-1" Cut="0.0000000000000000e+00" cType="1" res="-1.0269846022129059e-01" rms="1.6726349294185638e-01" purity="2.8826355934143066e-02" nType="-99"/>
          </Node>
        </Node>
        <Node pos="r" depth="1" NCoef="0" IVar="3" Cut="-1.0383634567260742e+00" cType="0" res="-7.0647507905960083e-02" rms="1.5541836619377136e-01" purity="2.6573464274406433e-02" nType="0">
          <Node pos="l" depth="2" NCoef="0" IVar="3" Cut="6.6590672731399536e-01" cType="1" res="-6.3522659242153168e-02" rms="1.8651863932609558e-01" purity="3.8994271308183670e-02" nType="0">
            <Node pos="l" depth="3" NCoef="0" IVar="-1" Cut="0.0000000000000000e+00" cType="1" res="-1.4872826635837555e-02" rms="3.3002269268035889e-01" purity="1.2803263962268829e-01" nType="-99"/>
            <Node pos="r" depth="3" NCoef="0" IVar="-1" Cut="0.0000000000000000e+00" cType="1" res="-9.2337004840373993e-02" rms="1.1851882934570312e-01" purity="1.4912908896803856e-02" nType="-99"/>
          </Node>
          <Node pos="r" depth="2" NCoef="0" IVar="3" Cut="-1.7041133642196655e+00" cType="0" res="-8.0457754433155060e-02" rms="9.6675954759120941e-02" purity="9.4711659476161003e-03" nType="0">
            <Node pos="l" depth="3" NCoef="0" IVar="-1" Cut="0.0000000000000000e+00" cType="1" res="-9.0000398457050323e-02" rms="1.6196356713771820e-01" purity="2.7394900098443031e-02" nType="-99"/>
            <Node pos="r" depth="3" NCoef="0" IVar="-1" Cut="0.0000000000000000e+00" cType="1" res="-1.0189244151115417e-01" rms="7.3169000446796417e-02" purity="5.3318478167057037e-03" nType="-99"/>
          </Node>
        </Node>
      </Node>
    </BinaryTree>
    <BinaryTree type="DecisionTree" boostWeight="1.0000000000000000e+00" itree="11">
      <Node pos="s" depth="0" NCoef="0" IVar="2" Cut="1.5384615957736969e-01" cType="0" res="5.7162489974871278e-04" rms="2.0982402563095093e-01" purity="5.0579524040222168e-01" nType="0">
        <Node pos="l" depth="1" NCoef="0" IVar="3" Cut="-1.9819350242614746e+00" cType="0" res="3.5361424088478088e-02" rms="2.2970293462276459e-01" purity="7.9266667366027832e-01" nType="0">
          <Node pos="l" depth="2" NCoef="0" IVar="3" Cut="2.0989296436309814e+00" cType="1" res="4.8687692731618881e-02" rms="2.2166767716407776e-01" purity="8.3711940050125122e-01" nType="0">
            <Node pos="l" depth="3" NCoef="0" IVar="-1" Cut="0.0000000000000000e+00" cType="1" res="6.5509244799613953e-02" rms="2.1480382978916168e-01" purity="8.8186877965927124e-01" nType="-99"/>
            <Node pos="r" depth="3" NCoef="0" IVar="-1" Cut="0.0000000000000000e+00" cType="1" res="-7.8751541674137115e-02" rms="2.5049921870231628e-01" purity="2.0184713602066040e-01" nType="-99"/>
          </Node>
          <Node pos="r" depth="2" NCoef="0" IVar="2" Cut="8.6982452869415283e-01" cType="0" res="-1.2723338603973389e-01" rms="2.6155576109886169e-01" purity="2.5029554963111877e-01" nType="0">
            <Node pos="l" depth="3" NCoef="0" IVar="-1" Cut="0.0000000000000000e+00" cType="1" res="5.5595323443412781e-02" rms="1.7907668650150299e-01" purity="9.6551722288131714e-01" nType="-99"/>
            <Node pos="r" depth="3" NCoef="0" IVar="-1" Cut="0.0000000000000000e+00" cType="1" res="-9.7640626132488251e-02" rms="2.6313829421997070e-01" purity="1.0877960920333862e-01" nType="-99"/>
          </Node>
        </Node>
        <Node pos="r" depth="1" NCoef="0" IVar="3" Cut="-6.9222015142440796e-01" cType="0" res="-5.7545106858015060e-02" rms="1.5501905977725983e-01" purity="2.6573464274406433e-02" nType="0">
          <Node pos="l" depth="2" NCoef="0" IVar="3" Cut="5.0599372386932373e-01" cType="1" res="-5.0764340907335281e-02" rms="1.8080730736255646e-01" purity="3.6890026181936264e-02" nType="0">
            <Node pos="l" depth="3" NCoef="0" IVar="-1" Cut="0.0000000000000000e+00" cType="1" res="7.4106096290051937e-03" rms="3.5491868853569031e-01" purity="1.5219594538211823e-01" nType="-99"/>
            <Node pos="r" depth="3" NCoef="0" IVar="-1" Cut="0.0000000000000000e+00" cType="1" res="-8.5291281342506409e-02" rms="1.2614117562770844e-01" purity="1.7040332779288292e-02" nType="-99"/>
          </Node>
          <Node pos="r" depth="2" NCoef="0" IVar="3" Cut="-1.7174323797225952e+00" cType="0" res="-6.5772116184234619e-02" rms="1.1575807631015778e-01" purity="1.4056527055799961e-02" nType="0">
            <Node pos="l" depth="3" NCoef="0" IVar="-1" Cut="0.0000000000000000e+00" cType="1" res="-7.4537202715873718e-02" rms="1.9440729916095734e-01" purity="4.0601138025522232e-02" nType="-99"/>
            <Node pos="r" depth="3" NCoef="0" IVar="-1" Cut="0.0000000000000000e+00" cType="1" res="-9.8923921585083008e-02" rms="7.2716362774372101e-02" purity="5.2859201095998287e-03" nType="-99"/>
          </Node>
        </Node>
      </Node>
    </BinaryTree>
    <BinaryTree type="DecisionTree" boostWeight="1.0000000000000000e+00" itree="12">
      <Node pos="s" depth="0" NCoef="0" IVar="2" Cut="5.7692307233810425e-01" cType="0" res="2.5171207380481064e-04" rms="2.0518337190151215e-01" purity="5.0579524040222168e-01" nType="0">
        <Node pos="l" depth="1" NCoef="0" IVar="2" Cut="8.5355210304260254e-01" cType="0" res="4.1017092764377594e-02" rms="1.5485471487045288e-01" purity="9.6995997428894043e-01" nType="0">
          <Node pos="l" depth="2" NCoef="0" IVar="2" Cut="9.0425467491149902e-01" cType="0" res="4.9544997513294220e-02" rms="9.5252938568592072e-02" purity="9.9057590961456299e-01" nType="0">
            <Node pos="l" depth="3" NCoef="0" IVar="-1" Cut="0.0000000000000000e+00" cType="1" res="9.7475834190845490e-02" rms="6.8575590848922729e-02" purity="9.9529534578323364e-01" nType="-99"/>
            <Node pos="r" depth="3" NCoef="0" IVar="-1" Cut="0.0000000000000000e+00" cType="1" res="4.7464735805988312e-02" rms="1.9265286624431610e-01" purity="9.5987951755523682e-01" nType="-99"/>
          </Node>
          <Node pos="r" depth="2" NCoef="0" IVar="1" Cut="2.0769231319427490e+00" cType="1" res="-8.0352006480097771e-03" rms="3.2695475220680237e-01" purity="8.5137748718261719e-01" nType="0">
            <Node pos="l" depth="3" NCoef="0" IVar="-1" Cut="0.0000000000000000e+00" cType="1" res="1.8269734457135201e-02" rms="2.9388350248336792e-01" purity="8.8463252782821655e-01" nType="-99"/>
            <Node pos="r" depth="3" NCoef="0" IVar="-1" Cut="0.0000000000000000e+00" cType="1" res="-1.1756472289562225e-01" rms="4.3077054619789124e-01" purity="6.8444645404815674e-01" nType="-99"/>
          </Node>
        </Node>
        <Node pos="r" depth="1" NCoef="0" IVar="1" Cut="1.1538461595773697e-01" cType="0" res="-3.4724149852991104e-02" rms="2.3451629281044006e-01" purity="1.0755140334367752e-01" nType="0">
          <Node pos="l" depth="2" NCoef="0" IVar="1" Cut="2.0769231319427490e+00" cType="1" res="-1.6453109681606293e-02" rms="2.6019454002380371e-01" purity="1.4119808375835419e-01" nType="0">
            <Node pos="l" depth="3" NCoef="0" IVar="-1" Cut="0.0000000000000000e+00" cType="1" res="3.0709076672792435e-02" rms="3.2207024097442627e-01" purity="2.5252616405487061e-01" nType="-99"/>
            <Node pos="r" depth="3" NCoef="0" IVar="-1" Cut="0.0000000000000000e+00" cType="1" res="-7.8768916428089142e-02" rms="1.7053306102752686e-01" purity="3.9235245436429977e-02" nType="-99"/>
          </Node>
          <Node pos="r" depth="2" NCoef="0" IVar="2" Cut="1.7008905112743378e-01" cType="0" res="-6.9293387234210968e-02" rms="1.7069356143474579e-01" purity="4.3891094624996185e-02" nType="0">
            <Node pos="l" depth="3" NCoef="0" IVar="-1" Cut="0.0000000000000000e+00" cType="1" res="-6.5176241099834442e-02" rms="2.9485860466957092e-01" purity="1.4990921318531036e-01" nType="-99"/>
            <Node pos="r" depth="3" NCoef="0" IVar="-1" Cut="0.0000000000000000e+00" cType="1" res="-9.1172814369201660e-02" rms="9.9959850311279297e-02" purity="1.0204449295997620e-02" nType="-99"/>
          </Node>
        </Node>
      </Node>
    </BinaryTree>
    <BinaryTree type="DecisionTree" boostWeight="1.0000000000000000e+00" itree="13">
      <Node pos="s" depth="0" NCoef="0" IVar="2" Cut="1.5384615957736969e-01" cType="0" res="2.4422779097221792e-04" rms="2.0183670520782471e-01" purity="5.0579524040222168e-01" nType="0">
        <Node pos="l" depth="1" NCoef="0" IVar="2" Cut="2.5148043036460876e-01" cType="0" res="2.5065297260880470e-02" rms="2.2203412652015686e-01" purity="7.9266667366027832e-01" nType="0">
          <Node pos="l" depth="2" NCoef="0" IVar="3" Cut="-1.9819350242614746e+00" cType="0" res="3.6663208156824112e-02" rms="2.1685129404067993e-01" purity="8.7201040983200073e-01" nType="0">
            <Node pos="l" depth="3" NCoef="0" IVar="-1" Cut="0.0000000000000000e+00" cType="1" res="5.6747086346149445e-02" rms="2.0817157626152039e-01" purity="9.0459817647933960e-01" nType="-99"/>
            <Node pos="r" depth="3" NCoef="0" IVar="-1" Cut="0.0000000000000000e+00" cType="1" res="-6.7165486514568329e-02" rms="2.9430457949638367e-01" purity="3.5222920775413513e-01" nType="-99"/>
          </Node>
          <Node pos="r" depth="2" NCoef="0" IVar="2" Cut="2.3645800352096558e-01" cType="0" res="-8.0091498792171478e-02" rms="2.4009531736373901e-01" purity="7.3266677558422089e-02" nType="0">
            <Node pos="l" depth="3" NCoef="0" IVar="-1" Cut="0.0000000000000000e+00" cType="1" res="-1.0897616855800152e-02" rms="3.2518860697746277e-01" purity="1.6253264248371124e-01" nType="-99"/>
            <Node pos="r" depth="3" NCoef="0" IVar="-1" Cut="0.0000000000000000e+00" cType="1" res="-7.3536843061447144e-02" rms="2.2370931506156921e-01" purity="6.0449860990047455e-02" nType="-99"/>
          </Node>
        </Node>
        <Node pos="r" depth="1" NCoef="0" IVar="3" Cut="-6.9222015142440796e-01" cType="0" res="-4.1219636797904968e-02" rms="1.5390975773334503e-01" purity="2.6573464274406433e-02" nType="0">
          <Node pos="l" depth="2" NCoef="0" IVar="3" Cut="9.0538734197616577e-01" cType="1" res="-3.4951966255903244e-02" rms="1.7921186983585358e-01" purity="3.6890026181936264e-02" nType="0">
            <Node pos="l" depth="3" NCoef="0" IVar="-1" Cut="0.0000000000000000e+00" cType="1" res="6.3310633413493633e-03" rms="3.3169403672218323e-01" purity="1.3341274857521057e-01" nType="-99"/>
            <Node pos="r" depth="3" NCoef="0" IVar="-1" Cut="0.0000000000000000e+00" cType="1" res="-8.5292197763919830e-02" rms="1.0507824271917343e-01" purity="1.1499655432999134e-02" nType="-99"/>
          </Node>
          <Node pos="r" depth="2" NCoef="0" IVar="2" Cut="-6.2726652622222900e-01" cType="0" res="-4.8824116587638855e-02" rms="1.1556958407163620e-01" purity="1.4056527055799961e-02" nType="0">
            <Node pos="l" depth="3" NCoef="0" IVar="-1" Cut="0.0000000000000000e+00" cType="1" res="-7.5712822377681732e-02" rms="1.5113343298435211e-01" purity="2.4393558502197266e-02" nType="-99"/>
            <Node pos="r" depth="3" NCoef="0" IVar="-1" Cut="0.0000000000000000e+00" cType="1" res="-9.3427665531635284e-02" rms="7.5997270643711090e-02" purity="5.8359452523291111e-03" nType="-99"/>
          </Node>
        </Node>
      </Node>
    </BinaryTree>
    <BinaryTree type="DecisionTree" boostWeight="1.0000000000000000e+00" itree="14">
      <Node pos="s" depth="0" NCoef="0" IVar="2" Cut="1.5384615957736969e-01" cType="0" res="3.7742080166935921e-05" rms="1.9918264448642731e-01" purity="5.0579524040222168e-01" nType="0">
        <Node pos="l" depth="1" NCoef="0" IVar="3" Cut="1.7448016405105591e+00" cType="1" res="2.0156923681497574e-02" rms="2.1960434317588806e-01" purity="7.9266667366027832e-01" nType="0">
          <Node pos="l" depth="2" NCoef="0" IVar="3" Cut="-1.4423614740371704e+00" cType="0" res="3.0648080632090569e-02" rms="2.1126368641853333e-01" purity="8.4263676404953003e-01" nType="0">
            <Node pos="l" depth="3" NCoef="0" IVar="-1" Cut="0.0000000000000000e+00" cType="1" res="6.5393418073654175e-02" rms="1.9403314590454102e-01" purity="9.1822719573974609e-01" nType="-99"/>
            <Node pos="r" depth="3" NCoef="0" IVar="-1" Cut="0.0000000000000000e+00" cType="1" res="-4.3946370482444763e-02" rms="2.6893487572669983e-01" purity="4.5886945724487305e-01" nType="-99"/>
          </Node>
          <Node pos="r" depth="2" NCoef="0" IVar="2" Cut="9.0236777067184448e-01" cType="0" res="-7.3945038020610809e-02" rms="2.6574063301086426e-01" purity="3.4445255994796753e-01" nType="0">
            <Node pos="l" depth="3" NCoef="0" IVar="-1" Cut="0.0000000000000000e+00" cType="1" res="7.9187631607055664e-02" rms="1.3942486047744751e-01" purity="9.8042166233062744e-01" nType="-99"/>
            <Node pos="r" depth="3" NCoef="0" IVar="-1" Cut="0.0000000000000000e+00" cType="1" res="-7.7617503702640533e-02" rms="2.8113913536071777e-01" purity="1.6968442499637604e-01" nType="-99"/>
          </Node>
        </Node>
        <Node pos="r" depth="1" NCoef="0" IVar="3" Cut="-1.0383634567260742e+00" cType="0" res="-3.3571567386388779e-02" rms="1.5356159210205078e-01" purity="2.6573464274406433e-02" nType="0">
          <Node pos="l" depth="2" NCoef="0" IVar="3" Cut="8.7890803813934326e-01" cType="1" res="-2.8506468981504440e-02" rms="1.8414585292339325e-01" purity="3.8994271308183670e-02" nType="0">
            <Node pos="l" depth="3" NCoef="0" IVar="-1" Cut="0.0000000000000000e+00" cType="1" res="-1.6806724015623331e-03" rms="3.1879872083663940e-01" purity="1.2167445570230484e-01" nType="-99"/>
            <Node pos="r" depth="3" NCoef="0" IVar="-1" Cut="0.0000000000000000e+00" cType="1" res="-7.9923175275325775e-02" rms="1.0715398192405701e-01" purity="1.1990407481789589e-02" nType="-99"/>
          </Node>
          <Node pos="r" depth="2" NCoef="0" IVar="2" Cut="-6.2726652622222900e-01" cType="0" res="-4.0545739233493805e-02" rms="9.6310764551162720e-02" purity="9.4711659476161003e-03" nType="0">
            <Node pos="l" depth="3" NCoef="0" IVar="-1" Cut="0.0000000000000000e+00" cType="1" res="-8.0435775220394135e-02" rms="1.2230765074491501e-01" purity="1.5482110902667046e-02" nType="-99"/>
            <Node pos="r" depth="3" NCoef="0" IVar="-1" Cut="0.0000000000000000e+00" cType="1" res="-9.1220855712890625e-02" rms="7.3520757257938385e-02" purity="5.4141851142048836e-03" nType="-99"/>
          </Node>
        </Node>
      </Node>
    </BinaryTree>
    <BinaryTree type="DecisionTree" boostWeight="1.0000000000000000e+00" itree="15">
      <Node pos="s" depth="0" NCoef="0" IVar="1" Cut="1.1538461595773697e-01" cType="0" res="-4.2680076148826629e-05" rms="1.9642950594425201e-01" purity="5.0579524040222168e-01" nType="0">
        <Node pos="l" depth="1" NCoef="0" IVar="1" Cut="2.0769231319427490e+00" cType="1" res="1.3171819038689137e-02" rms="1.9616855680942535e-01" purity="5.8627396821975708e-01" nType="0">
          <Node pos="l" depth="2" NCoef="0" IVar="3" Cut="-2.0648324489593506e+00" cType="0" res="3.6723535507917404e-02" rms="1.9739016890525818e-01" purity="7.4211364984512329e-01" nType="0">
            <Node pos="l" depth="3" NCoef="0" IVar="-1" Cut="0.0000000000000000e+00" cType="1" res="6.4365200698375702e-02" rms="1.9648750126361847e-01" purity="7.9865849018096924e-01" nType="-99"/>
            <Node pos="r" depth="3" NCoef="0" IVar="-1" Cut="0.0000000000000000e+00" cType="1" res="-5.7794079184532166e-02" rms="1.8756894767284393e-01" purity="1.4097434282302856e-01" nType="-99"/>
          </Node>
          <Node pos="r" depth="2" NCoef="0" IVar="3" Cut="-6.9996976852416992e-01" cType="0" res="-3.4555472433567047e-02" rms="1.8467773497104645e-01" purity="2.7046641707420349e-01" nType="0">
            <Node pos="l" depth="3" NCoef="0" IVar="-1" Cut="0.0000000000000000e+00" cType="1" res="-1.3102658092975616e-02" rms="2.0257809758186340e-01" purity="4.6031260490417480e-01" nType="-99"/>
            <Node pos="r" depth="3" NCoef="0" IVar="-1" Cut="0.0000000000000000e+00" cType="1" res="-8.4003888070583344e-02" rms="1.6937537491321564e-01" purity="1.4247958362102509e-01" nType="-99"/>
          </Node>
        </Node>
        <Node pos="r" depth="1" NCoef="0" IVar="3" Cut="6.9887441396713257e-01" cType="1" res="-4.0055904537439346e-02" rms="1.9174185395240784e-01" purity="2.6210743188858032e-01" nType="0">
          <Node pos="l" depth="2" NCoef="0" IVar="2" Cut="1.5384615957736969e-01" cType="0" res="-5.7111885398626328e-03" rms="2.0704029500484467e-01" purity="4.8158466815948486e-01" nType="0">
            <Node pos="l" depth="3" NCoef="0" IVar="-1" Cut="0.0000000000000000e+00" cType="1" res="1.7334384843707085e-02" rms="2.3610842227935791e-01" purity="7.8727948665618896e-01" nType="-99"/>
            <Node pos="r" depth="3" NCoef="0" IVar="-1" Cut="0.0000000000000000e+00" cType="1" res="-6.6146992146968842e-02" rms="1.4846262335777283e-01" purity="2.2850774228572845e-02" nType="-99"/>
          </Node>
          <Node pos="r" depth="2" NCoef="0" IVar="2" Cut="1.5384615957736969e-01" cType="0" res="-6.0065794736146927e-02" rms="1.7922860383987427e-01" purity="1.3423581421375275e-01" nType="0">
            <Node pos="l" depth="3" NCoef="0" IVar="-1" Cut="0.0000000000000000e+00" cType="1" res="-9.5813862979412079e-02" rms="2.7439415454864502e-01" purity="3.5848218202590942e-01" nType="-99"/>
            <Node pos="r" depth="3" NCoef="0" IVar="-1" Cut="0.0000000000000000e+00" cType="1" res="-8.9923016726970673e-02" rms="7.2081103920936584e-02" purity="5.1659760065376759e-03" nType="-99"/>
          </Node>
        </Node>
      </Node>
    </BinaryTree>
    <BinaryTree type="DecisionTree" boostWeight="1.0000000000000000e+00" itree="16">
      <Node pos="s" depth="0" NCoef="0" IVar="2" Cut="5.7692307233810425e-01" cType="0" res="-1.3240950647741556e-04" rms="1.9312350451946259e-01" purity="5.0579524040222168e-01" nType="0">
        <Node pos="l" depth="1" NCoef="0" IVar="2" Cut="8.5355210304260254e-01" cType="0" res="2.1226050332188606e-02" rms="1.5115293860435486e-01" purity="9.6995997428894043e-01" nType="0">
          <Node pos="l" depth="2" NCoef="0" IVar="2" Cut="9.2115092277526855e-01" cType="0" res="2.8735363855957985e-02" rms="9.4426348805427551e-02" purity="9.9057590961456299e-01" nType="0">
            <Node pos="l" depth="3" NCoef="0" IVar="-1" Cut="0.0000000000000000e+00" cType="1" res="9.3165926635265350e-02" rms="6.0532234609127045e-02" purity="9.9633330106735229e-01" nType="-99"/>
            <Node pos="r" depth="3" NCoef="0" IVar="-1" Cut="0.0000000000000000e+00" cType="1" res="3.3668823540210724e-02" rms="1.7570826411247253e-01" purity="9.6627241373062134e-01" nType="-99"/>
          </Node>
          <Node pos="r" depth="2" NCoef="0" IVar="1" Cut="1.1538461595773697e-01" cType="0" res="-2.1967323496937752e-02" rms="3.1747004389762878e-01" purity="8.5137748718261719e-01" nType="0">
            <Node pos="l" depth="3" NCoef="0" IVar="-1" Cut="0.0000000000000000e+00" cType="1" res="5.4954695515334606e-03" rms="2.8014558553695679e-01" purity="8.9097541570663452e-01" nType="-99"/>
            <Node pos="r" depth="3" NCoef="0" IVar="-1" Cut="0.0000000000000000e+00" cType="1" res="-1.1456594616174698e-01" rms="4.3842098116874695e-01" purity="6.4858704805374146e-01" nType="-99"/>
          </Node>
        </Node>
        <Node pos="r" depth="1" NCoef="0" IVar="3" Cut="1.7307832241058350e+00" cType="1" res="-1.8457531929016113e-02" rms="2.2128452360630035e-01" purity="1.0755140334367752e-01" nType="0">
          <Node pos="l" depth="2" NCoef="0" IVar="3" Cut="-9.0527063608169556e-01" cType="0" res="-7.3401201516389847e-03" rms="2.4978466331958771e-01" purity="1.4556474983692169e-01" nType="0">
            <Node pos="l" depth="3" NCoef="0" IVar="-1" Cut="0.0000000000000000e+00" cType="1" res="2.9097534716129303e-02" rms="3.2469007372856140e-01" purity="2.7949357032775879e-01" nType="-99"/>
            <Node pos="r" depth="3" NCoef="0" IVar="-1" Cut="0.0000000000000000e+00" cType="1" res="-5.1429487764835358e-02" rms="1.8262498080730438e-01" purity="6.1585936695337296e-02" nType="-99"/>
          </Node>
          <Node pos="r" depth="2" NCoef="0" IVar="2" Cut="1.6988725960254669e-01" cType="0" res="-4.3020423501729965e-02" rms="1.3574953377246857e-01" purity="2.3564422503113747e-02" nType="0">
            <Node pos="l" depth="3" NCoef="0" IVar="-1" Cut="0.0000000000000000e+00" cType="1" res="-6.2313176691532135e-02" rms="2.4424737691879272e-01" purity="8.4097251296043396e-02" nType="-99"/>
            <Node pos="r" depth="3" NCoef="0" IVar="-1" Cut="0.0000000000000000e+00" cType="1" res="-8.9081361889839172e-02" rms="7.5619444251060486e-02" purity="5.6290347129106522e-03" nType="-99"/>
          </Node>
        </Node>
      </Node>
    </BinaryTree>
    <BinaryTree type="DecisionTree" boostWeight="1.0000000000000000e+00" itree="17">
      <Node pos="s" depth="0" NCoef="0" IVar="2" Cut="1.5384615957736969e-01" cType="0" res="-5.5865901231300086e-05" rms="1.9155639410018921e-01" purity="5.0579524040222168e-01" nType="0">
        <Node pos="l" depth="1" NCoef="0" IVar="2" Cut="2.5148043036460876e-01" cType="0" res="1.3486110605299473e-02" rms="2.1053211390972137e-01" purity="7.9266667366027832e-01" nType="0">
          <Node pos="l" depth="2" NCoef="0" IVar="1" Cut="1.1538461595773697e-01" cType="0" res="2.1428687497973442e-02" rms="2.0635095238685608e-01" purity="8.7201040983200073e-01" nType="0">
            <Node pos="l" depth="3" NCoef="0" IVar="-1" Cut="0.0000000000000000e+00" cType="1" res="4.8816606402397156e-02" rms="1.8969382345676422e-01" purity="9.0433633327484131e-01" nType="-99"/>
            <Node pos="r" depth="3" NCoef="0" IVar="-1" Cut="0.0000000000000000e+00" cType="1" res="-2.8175454586744308e-02" rms="2.7318251132965088e-01" purity="7.0173352956771851e-01" nType="-99"/>
          </Node>
          <Node pos="r" depth="2" NCoef="0" IVar="2" Cut="2.3270298540592194e-01" cType="0" res="-5.8528237044811249e-02" rms="2.3317329585552216e-01" purity="7.3266677558422089e-02" nType="0">
            <Node pos="l" depth="3" NCoef="0" IVar="-1" Cut="0.0000000000000000e+00" cType="1" res="-7.6773837208747864e-03" rms="3.0581292510032654e-01" purity="1.5318231284618378e-01" nType="-99"/>
            <Node pos="r" depth="3" NCoef="0" IVar="-1" Cut="0.0000000000000000e+00" cType="1" res="-6.5925821661949158e-02" rms="2.1643987298011780e-01" purity="5.8948587626218796e-02" nType="-99"/>
          </Node>
        </Node>
        <Node pos="r" depth="1" NCoef="0" IVar="0" Cut="1.1538461595773697e-01" cType="1" res="-2.2677883505821228e-02" rms="1.5208511054515839e-01" purity="2.6573464274406433e-02" nType="0">
          <Node pos="l" depth="2" NCoef="0" IVar="2" Cut="-6.2722712755203247e-01" cType="0" res="-1.0645313188433647e-02" rms="1.7824657261371613e-01" purity="3.8129717111587524e-02" nType="0">
            <Node pos="l" depth="3" NCoef="0" IVar="-1" Cut="0.0000000000000000e+00" cType="1" res="1.2730212882161140e-02" rms="2.4396264553070068e-01" purity="7.3459327220916748e-02" nType="-99"/>
            <Node pos="r" depth="3" NCoef="0" IVar="-1" Cut="0.0000000000000000e+00" cType="1" res="-8.2537896931171417e-02" rms="8.2114391028881073e-02" purity="6.9595477543771267e-03" nType="-99"/>
          </Node>
          <Node pos="r" depth="2" NCoef="0" IVar="0" Cut="1.0769231319427490e+00" cType="0" res="-2.5257682427763939e-02" rms="1.4573720097541809e-01" purity="2.4095788598060608e-02" nType="0">
            <Node pos="l" depth="3" NCoef="0" IVar="-1" Cut="0.0000000000000000e+00" cType="1" res="-4.6339936554431915e-02" rms="1.5646758675575256e-01" purity="2.8379922732710838e-02" nType="-99"/>
            <Node pos="r" depth="3" NCoef="0" IVar="-1" Cut="0.0000000000000000e+00" cType="1" res="-8.2435324788093567e-02" rms="1.0939291864633560e-01" purity="1.2107145041227341e-02" nType="-99"/>
          </Node>
        </Node>
      </Node>
    </BinaryTree>
    <BinaryTree type="DecisionTree" boostWeight="1.0000000000000000e+00" itree="18">
      <Node pos="s" depth="0" NCoef="0" IVar="1" Cut="2.0769231319427490e+00" cType="1" res="-1.0569371806923300e-04" rms="1.9031235575675964e-01" purity="5.0579524040222168e-01" nType="0">
        <Node pos="l" depth="1" NCoef="0" IVar="1" Cut="7.6923079788684845e-02" cType="0" res="8.7651135399937630e-03" rms="1.9211779534816742e-01" purity="5.8356428146362305e-01" nType="0">
          <Node pos="l" depth="2" NCoef="0" IVar="3" Cut="-2.0648324489593506e+00" cType="0" res="2.5676861405372620e-02" rms="1.9255658984184265e-01" purity="7.4211364984512329e-01" nType="0">
            <Node pos="l" depth="3" NCoef="0" IVar="-1" Cut="0.0000000000000000e+00" cType="1" res="5.2246082574129105e-02" rms="1.9224931299686432e-01" purity="7.9865849018096924e-01" nType="-99"/>
            <Node pos="r" depth="3" NCoef="0" IVar="-1" Cut="0.0000000000000000e+00" cType="1" res="-4.7569241374731064e-02" rms="1.8613177537918091e-01" purity="1.4097434282302856e-01" nType="-99"/>
          </Node>
          <Node pos="r" depth="2" NCoef="0" IVar="3" Cut="6.9887441396713257e-01" cType="1" res="-2.5523226708173752e-02" rms="1.8657825887203217e-01" purity="2.6210743188858032e-01" nType="0">
            <Node pos="l" depth="3" NCoef="0" IVar="-1" Cut="0.0000000000000000e+00" cType="1" res="8.4246054757386446e-04" rms="2.0521862804889679e-01" purity="4.8158466815948486e-01" nType="-99"/>
            <Node pos="r" depth="3" NCoef="0" IVar="-1" Cut="0.0000000000000000e+00" cType="1" res="-7.5847849249839783e-02" rms="1.7300170660018921e-01" purity="1.3423581421375275e-01" nType="-99"/>
          </Node>
        </Node>
        <Node pos="r" depth="1" NCoef="0" IVar="3" Cut="-3.5453093051910400e-01" cType="0" res="-2.6948731392621994e-02" rms="1.8212856352329254e-01" purity="2.7046641707420349e-01" nType="0">
          <Node pos="l" depth="2" NCoef="0" IVar="3" Cut="1.3196749687194824e+00" cType="1" res="-6.9046081043779850e-03" rms="1.9636869430541992e-01" purity="4.3991807103157043e-01" nType="0">
            <Node pos="l" depth="3" NCoef="0" IVar="-1" Cut="0.0000000000000000e+00" cType="1" res="2.6210065931081772e-02" rms="2.1735870838165283e-01" purity="7.1297127008438110e-01" nType="-99"/>
            <Node pos="r" depth="3" NCoef="0" IVar="-1" Cut="0.0000000000000000e+00" cType="1" res="-6.4856231212615967e-02" rms="1.6663971543312073e-01" purity="1.4217545092105865e-01" nType="-99"/>
          </Node>
          <Node pos="r" depth="2" NCoef="0" IVar="2" Cut="1.5384615957736969e-01" cType="0" res="-3.7755098193883896e-02" rms="1.7300751805305481e-01" purity="1.7911012470722198e-01" nType="0">
            <Node pos="l" depth="3" NCoef="0" IVar="-1" Cut="0.0000000000000000e+00" cType="1" res="-6.6433757543563843e-02" rms="2.5391998887062073e-01" purity="4.4748118519783020e-01" nType="-99"/>
            <Node pos="r" depth="3" NCoef="0" IVar="-1" Cut="0.0000000000000000e+00" cType="1" res="-8.0043524503707886e-02" rms="8.5608281195163727e-02" purity="7.3487553745508194e-03" nType="-99"/>
          </Node>
        </Node>
      </Node>
    </BinaryTree>
    <BinaryTree type="DecisionTree" boostWeight="1.0000000000000000e+00" itree="19">
      <Node pos="s" depth="0" NCoef="0" IVar="3" Cut="1.3846398591995239e+00" cType="1" res="-1.4995744277257472e-04" rms="1.8833597004413605e-01" purity="5.0579524040222168e-01" nType="0">
        <Node pos="l" depth="1" NCoef="0" IVar="3" Cut="-1.1049327850341797e+00" cType="0" res="7.7252341434359550e-03" rms="1.9162543118000031e-01" purity="6.0289424657821655e-01" nType="0">
          <Node pos="l" depth="2" NCoef="0" IVar="2" Cut="1.5384615957736969e-01" cType="0" res="2.4771207943558693e-02" rms="1.9354225695133209e-01" purity="8.0549621582031250e-01" nType="0">
            <Node pos="l" depth="3" NCoef="0" IVar="-1" Cut="0.0000000000000000e+00" cType="1" res="5.8812148869037628e-02" rms="1.6974973678588867e-01" purity="9.4198250770568848e-01" nType="-99"/>
            <Node pos="r" depth="3" NCoef="0" IVar="-1" Cut="0.0000000000000000e+00" cType="1" res="-5.2408450283110142e-03" rms="2.8491419553756714e-01" purity="9.8819762468338013e-02" nType="-99"/>
          </Node>
          <Node pos="r" depth="2" NCoef="0" IVar="0" Cut="1.0384615659713745e+00" cType="1" res="-2.0203201100230217e-02" rms="1.8507996201515198e-01" purity="2.7094754576683044e-01" nType="0">
            <Node pos="l" depth="3" NCoef="0" IVar="-1" Cut="0.0000000000000000e+00" cType="1" res="-1.0546375997364521e-02" rms="1.9694375991821289e-01" purity="3.5436984896659851e-01" nType="-99"/>
            <Node pos="r" depth="3" NCoef="0" IVar="-1" Cut="0.0000000000000000e+00" cType="1" res="-6.0638692229986191e-02" rms="1.7334541678428650e-01" purity="1.9920396804809570e-01" nType="-99"/>
          </Node>
        </Node>
        <Node pos="r" depth="1" NCoef="0" IVar="1" Cut="1.1538461595773697e-01" cType="0" res="-2.5054899975657463e-02" rms="1.7521815001964569e-01" purity="1.9872392714023590e-01" nType="0">
          <Node pos="l" depth="2" NCoef="0" IVar="3" Cut="2.2233996391296387e+00" cType="1" res="-1.5169664286077023e-02" rms="1.9670227169990540e-01" purity="3.3305686712265015e-01" nType="0">
            <Node pos="l" depth="3" NCoef="0" IVar="-1" Cut="0.0000000000000000e+00" cType="1" res="1.3364696875214577e-02" rms="2.3413048684597015e-01" purity="5.8527553081512451e-01" nType="-99"/>
            <Node pos="r" depth="3" NCoef="0" IVar="-1" Cut="0.0000000000000000e+00" cType="1" res="-7.4517942965030670e-02" rms="1.4108626544475555e-01" purity="6.1139333993196487e-02" nType="-99"/>
          </Node>
          <Node pos="r" depth="2" NCoef="0" IVar="2" Cut="1.5384609997272491e-01" cType="0" res="-3.4386951476335526e-02" rms="1.5158769488334656e-01" purity="7.1908354759216309e-02" nType="0">
            <Node pos="l" depth="3" NCoef="0" IVar="-1" Cut="0.0000000000000000e+00" cType="1" res="-7.7184647321701050e-02" rms="2.4570807814598083e-01" purity="2.1585051715373993e-01" nType="-99"/>
            <Node pos="r" depth="3" NCoef="0" IVar="-1" Cut="0.0000000000000000e+00" cType="1" res="-7.9512961208820343e-02" rms="6.4997546374797821e-02" purity="4.2406250722706318e-03" nType="-99"/>
          </Node>
        </Node>
      </Node>
    </BinaryTree>
    <BinaryTree type="DecisionTree" boostWeight="1.0000000000000000e+00" itree="20">
      <Node pos="s" depth="0" NCoef="0" IVar="1" Cut="2.0769231319427490e+00" cType="1" res="-1.2712716124951839e-04" rms="1.8688763678073883e-01" purity="5.0579524040222168e-01" nType="0">
        <Node pos="l" depth="1" NCoef="0" IVar="1" Cut="7.6923079788684845e-02" cType="0" res="6.8950033746659756e-03" rms="1.8863122165203094e-01" purity="5.8356428146362305e-01" nType="0">
          <Node pos="l" depth="2" NCoef="0" IVar="3" Cut="2.0813333988189697e+00" cType="1" res="1.9523629918694496e-02" rms="1.8976402282714844e-01" purity="7.4211364984512329e-01" nType="0">
            <Node pos="l" depth="3" NCoef="0" IVar="-1" Cut="0.0000000000000000e+00" cType="1" res="4.3179675936698914e-02" rms="1.8954925239086151e-01" purity="7.9003947973251343e-01" nType="-99"/>
            <Node pos="r" depth="3" NCoef="0" IVar="-1" Cut="0.0000000000000000e+00" cType="1" res="-4.7318071126937866e-02" rms="1.8413989245891571e-01" purity="1.4997972548007965e-01" nType="-99"/>
          </Node>
          <Node pos="r" depth="2" NCoef="0" IVar="3" Cut="3.5350605845451355e-01" cType="1" res="-1.8709367141127586e-02" rms="1.8366742134094238e-01" purity="2.6210743188858032e-01" nType="0">
            <Node pos="l" depth="3" NCoef="0" IVar="-1" Cut="0.0000000000000000e+00" cType="1" res="3.0764769762754440e-03" rms="2.0057304203510284e-01" purity="4.6687963604927063e-01" nType="-99"/>
            <Node pos="r" depth="3" NCoef="0" IVar="-1" Cut="0.0000000000000000e+00" cType="1" res="-5.6714996695518494e-02" rms="1.7455057799816132e-01" purity="1.6810822486877441e-01" nType="-99"/>
          </Node>
        </Node>
        <Node pos="r" depth="1" NCoef="0" IVar="3" Cut="-3.5453093051910400e-01" cType="0" res="-2.1376071497797966e-02" rms="1.7984715104103088e-01" purity="2.7046641707420349e-01" nType="0">
          <Node pos="l" depth="2" NCoef="0" IVar="0" Cut="1.0384615659713745e+00" cType="1" res="-7.2832796722650528e-03" rms="1.9439427554607391e-01" purity="4.3991807103157043e-01" nType="0">
            <Node pos="l" depth="3" NCoef="0" IVar="-1" Cut="0.0000000000000000e+00" cType="1" res="1.8823817372322083e-02" rms="1.7850837111473083e-01" purity="5.2648389339447021e-01" nType="-99"/>
            <Node pos="r" depth="3" NCoef="0" IVar="-1" Cut="0.0000000000000000e+00" cType="1" res="-4.4400077313184738e-02" rms="2.0933002233505249e-01" purity="3.4170415997505188e-01" nType="-99"/>
          </Node>
          <Node pos="r" depth="2" NCoef="0" IVar="2" Cut="1.5384615957736969e-01" cType="0" res="-2.8973905369639397e-02" rms="1.7101201415061951e-01" purity="1.7911012470722198e-01" nType="0">
            <Node pos="l" depth="3" NCoef="0" IVar="-1" Cut="0.0000000000000000e+00" cType="1" res="-5.4134160280227661e-02" rms="2.5113615393638611e-01" purity="4.4748118519783020e-01" nType="-99"/>
            <Node pos="r" depth="3" NCoef="0" IVar="-1" Cut="0.0000000000000000e+00" cType="1" res="-7.3627650737762451e-02" rms="8.5318632423877716e-02" purity="7.3487553745508194e-03" nType="-99"/>
          </Node>
        </Node>
      </Node>
    </BinaryTree>
    <BinaryTree type="DecisionTree" boostWeight="1.0000000000000000e+00" itree="21">
      <Node pos="s" depth="0" NCoef="0" IVar="2" Cut="1.5384615957736969e-01" cType="0" res="-1.3942112855147570e-04" rms="1.8566159904003143e-01" purity="5.0579524040222168e-01" nType="0">
        <Node pos="l" depth="1" NCoef="0" IVar="2" Cut="2.8402477502822876e-01" cType="0" res="8.6327856406569481e-03" rms="2.0315593481063843e-01" purity="7.9266667366027832e-01" nType="0">
          <Node pos="l" depth="2" NCoef="0" IVar="3" Cut="-2.2011547088623047e+00" cType="0" res="1.5753805637359619e-02" rms="1.9351692497730255e-01" purity="8.9766460657119751e-01" nType="0">
            <Node pos="l" depth="3" NCoef="0" IVar="-1" Cut="0.0000000000000000e+00" cType="1" res="3.3105108886957169e-02" rms="1.8934814631938934e-01" purity="9.1549336910247803e-01" nType="-99"/>
            <Node pos="r" depth="3" NCoef="0" IVar="-1" Cut="0.0000000000000000e+00" cType="1" res="-3.8449183106422424e-02" rms="2.9273179173469543e-01" purity="3.1036683917045593e-01" nType="-99"/>
          </Node>
          <Node pos="r" depth="2" NCoef="0" IVar="2" Cut="2.4396485090255737e-01" cType="0" res="-3.7482004612684250e-02" rms="2.5214689970016479e-01" purity="1.1271376907825470e-01" nType="0">
            <Node pos="l" depth="3" NCoef="0" IVar="-1" Cut="0.0000000000000000e+00" cType="1" res="-4.8749241977930069e-03" rms="3.1422472000122070e-01" purity="2.2421784698963165e-01" nType="-99"/>
            <Node pos="r" depth="3" NCoef="0" IVar="-1" Cut="0.0000000000000000e+00" cType="1" res="-5.7899516075849533e-02" rms="2.1624611318111420e-01" purity="6.1405848711729050e-02" nType="-99"/>
          </Node>
        </Node>
        <Node pos="r" depth="1" NCoef="0" IVar="0" Cut="1.1538461595773697e-01" cType="1" res="-1.4793488197028637e-02" rms="1.5087729692459106e-01" purity="2.6573464274406433e-02" nType="0">
          <Node pos="l" depth="2" NCoef="0" IVar="2" Cut="-6.2722712755203247e-01" cType="0" res="-6.3412133604288101e-03" rms="1.7566435039043427e-01" purity="3.8129717111587524e-02" nType="0">
            <Node pos="l" depth="3" NCoef="0" IVar="-1" Cut="0.0000000000000000e+00" cType="1" res="1.0795996524393559e-02" rms="2.4073711037635803e-01" purity="7.3459327220916748e-02" nType="-99"/>
            <Node pos="r" depth="3" NCoef="0" IVar="-1" Cut="0.0000000000000000e+00" cType="1" res="-7.3941595852375031e-02" rms="8.1748507916927338e-02" purity="6.9595477543771267e-03" nType="-99"/>
          </Node>
          <Node pos="r" depth="2" NCoef="0" IVar="0" Cut="1.0769231319427490e+00" cType="0" res="-1.6605667769908905e-02" rms="1.4494824409484863e-01" purity="2.4095788598060608e-02" nType="0">
            <Node pos="l" depth="3" NCoef="0" IVar="-1" Cut="0.0000000000000000e+00" cType="1" res="-3.4182947129011154e-02" rms="1.5550757944583893e-01" purity="2.8379922732710838e-02" nType="-99"/>
            <Node pos="r" depth="3" NCoef="0" IVar="-1" Cut="0.0000000000000000e+00" cType="1" res="-7.5829096138477325e-02" rms="1.0943440347909927e-01" purity="1.2107145041227341e-02" nType="-99"/>
          </Node>
        </Node>
      </Node>
    </BinaryTree>
    <BinaryTree type="DecisionTree" boostWeight="1.0000000000000000e+00" itree="22">
      <Node pos="s" depth="0" NCoef="0" IVar="3" Cut="-1.3845068216323853e+00" cType="0" res="-1.5806526062078774e-04" rms="1.8517386913299561e-01" purity="5.0579524040222168e-01" nType="0">
        <Node pos="l" depth="1" NCoef="0" IVar="3" Cut="1.3313970565795898e+00" cType="1" res="5.6006005033850670e-03" rms="1.8774767220020294e-01" purity="6.0341256856918335e-01" nType="0">
          <Node pos="l" depth="2" NCoef="0" IVar="1" Cut="2.0769231319427490e+00" cType="1" res="1.6912797465920448e-02" rms="1.9290143251419067e-01" purity="7.9521739482879639e-01" nType="0">
            <Node pos="l" depth="3" NCoef="0" IVar="-1" Cut="0.0000000000000000e+00" cType="1" res="4.2484860867261887e-02" rms="1.8594768643379211e-01" purity="8.3629673719406128e-01" nType="-99"/>
            <Node pos="r" depth="3" NCoef="0" IVar="-1" Cut="0.0000000000000000e+00" cType="1" res="-6.8958685733377934e-03" rms="2.2200998663902283e-01" purity="5.9838777780532837e-01" nType="-99"/>
          </Node>
          <Node pos="r" depth="2" NCoef="0" IVar="0" Cut="1.0384615659713745e+00" cType="1" res="-1.7536759376525879e-02" rms="1.7446948587894440e-01" purity="2.1110519766807556e-01" nType="0">
            <Node pos="l" depth="3" NCoef="0" IVar="-1" Cut="0.0000000000000000e+00" cType="1" res="-1.8545556813478470e-02" rms="1.9059062004089355e-01" purity="2.8281164169311523e-01" nType="-99"/>
            <Node pos="r" depth="3" NCoef="0" IVar="-1" Cut="0.0000000000000000e+00" cType="1" res="-5.3500637412071228e-02" rms="1.5996086597442627e-01" purity="1.5301053225994110e-01" nType="-99"/>
          </Node>
        </Node>
        <Node pos="r" depth="1" NCoef="0" IVar="0" Cut="1.0384615659713745e+00" cType="1" res="-1.8115218728780746e-02" rms="1.7570002377033234e-01" purity="2.0139674842357635e-01" nType="0">
          <Node pos="l" depth="2" NCoef="0" IVar="1" Cut="2.0769231319427490e+00" cType="1" res="-7.4972459115087986e-03" rms="1.9084435701370239e-01" purity="2.7383679151535034e-01" nType="0">
            <Node pos="l" depth="3" NCoef="0" IVar="-1" Cut="0.0000000000000000e+00" cType="1" res="1.3708666898310184e-02" rms="2.0424275100231171e-01" purity="4.1189894080162048e-01" nType="-99"/>
            <Node pos="r" depth="3" NCoef="0" IVar="-1" Cut="0.0000000000000000e+00" cType="1" res="-5.9121727943420410e-02" rms="1.7073130607604980e-01" purity="1.0280569642782211e-01" nType="-99"/>
          </Node>
          <Node pos="r" depth="2" NCoef="0" IVar="2" Cut="1.5384615957736969e-01" cType="0" res="-2.6749867945909500e-02" rms="1.6183345019817352e-01" purity="1.4248773455619812e-01" nType="0">
            <Node pos="l" depth="3" NCoef="0" IVar="-1" Cut="0.0000000000000000e+00" cType="1" res="-5.3090807050466537e-02" rms="2.5001993775367737e-01" purity="3.9966997504234314e-01" nType="-99"/>
            <Node pos="r" depth="3" NCoef="0" IVar="-1" Cut="0.0000000000000000e+00" cType="1" res="-7.1688331663608551e-02" rms="8.1314451992511749e-02" purity="6.6252108663320541e-03" nType="-99"/>
          </Node>
        </Node>
      </Node>
    </BinaryTree>
    <BinaryTree type="DecisionTree" boostWeight="1.0000000000000000e+00" itree="23">
      <Node pos="s" depth="0" NCoef="0" IVar="2" Cut="1.5384615957736969e-01" cType="0" res="-1.5399845142383128e-04" rms="1.8431274592876434e-01" purity="5.0579524040222168e-01" nType="0">
        <Node pos="l" depth="1" NCoef="0" IVar="2" Cut="2.8402477502822876e-01" cType="0" res="6.8120937794446945e-03" rms="2.0158192515373230e-01" purity="7.9266667366027832e-01" nType="0">
          <Node pos="l" depth="2" NCoef="0" IVar="0" Cut="1.0384615659713745e+00" cType="1" res="1.2372735887765884e-02" rms="1.9236040115356445e-01" purity="8.9766460657119751e-01" nType="0">
            <Node pos="l" depth="3" NCoef="0" IVar="-1" Cut="0.0000000000000000e+00" cType="1" res="3.9774555712938309e-02" rms="1.8495576083660126e-01" purity="9.1264468431472778e-01" nType="-99"/>
            <Node pos="r" depth="3" NCoef="0" IVar="-1" Cut="0.0000000000000000e+00" cType="1" res="1.0856735752895474e-03" rms="2.0183695852756500e-01" purity="8.7636560201644897e-01" nType="-99"/>
          </Node>
          <Node pos="r" depth="2" NCoef="0" IVar="2" Cut="2.4396485090255737e-01" cType="0" res="-2.9197892174124718e-02" rms="2.5032684206962585e-01" purity="1.1271376907825470e-01" nType="0">
            <Node pos="l" depth="3" NCoef="0" IVar="-1" Cut="0.0000000000000000e+00" cType="1" res="-2.7746725827455521e-03" rms="3.1173437833786011e-01" purity="2.2421784698963165e-01" nType="-99"/>
            <Node pos="r" depth="3" NCoef="0" IVar="-1" Cut="0.0000000000000000e+00" cType="1" res="-5.0386264920234680e-02" rms="2.1527688205242157e-01" purity="6.1405848711729050e-02" nType="-99"/>
          </Node>
        </Node>
        <Node pos="r" depth="1" NCoef="0" IVar="0" Cut="1.0384615659713745e+00" cType="0" res="-1.1790930293500423e-02" rms="1.5040703117847443e-01" purity="2.6573464274406433e-02" nType="0">
          <Node pos="l" depth="2" NCoef="0" IVar="2" Cut="-9.6094684600830078e+00" cType="0" res="-9.5187937840819359e-03" rms="1.5528111159801483e-01" purity="2.8379922732710838e-02" nType="0">
            <Node pos="l" depth="3" NCoef="0" IVar="-1" Cut="0.0000000000000000e+00" cType="1" res="-1.4535777270793915e-02" rms="1.9361485540866852e-01" purity="4.4510278850793839e-02" nType="-99"/>
            <Node pos="r" depth="3" NCoef="0" IVar="-1" Cut="0.0000000000000000e+00" cType="1" res="-8.5102148354053497e-02" rms="5.3844708949327469e-02" purity="2.8377829585224390e-03" nType="-99"/>
          </Node>
          <Node pos="r" depth="2" NCoef="0" IVar="0" Cut="3.8461539894342422e-02" cType="1" res="-1.5295330435037613e-02" rms="1.4249220490455627e-01" purity="2.3787297308444977e-02" nType="0">
            <Node pos="l" depth="3" NCoef="0" IVar="-1" Cut="0.0000000000000000e+00" cType="1" res="-1.5043946914374828e-02" rms="1.7463521659374237e-01" purity="3.8129717111587524e-02" nType="-99"/>
            <Node pos="r" depth="3" NCoef="0" IVar="-1" Cut="0.0000000000000000e+00" cType="1" res="-7.1303695440292358e-02" rms="1.0896551609039307e-01" purity="1.2107145041227341e-02" nType="-99"/>
          </Node>
        </Node>
      </Node>
    </BinaryTree>
    <BinaryTree type="DecisionTree" boostWeight="1.0000000000000000e+00" itree="24">
      <Node pos="s" depth="0" NCoef="0" IVar="1" Cut="1.1538461595773697e-01" cType="0" res="-1.5970457752700895e-04" rms="1.8391853570938110e-01" purity="5.0579524040222168e-01" nType="0">
        <Node pos="l" depth="1" NCoef="0" IVar="1" Cut="2.0769231319427490e+00" cType="1" res="4.9153016880154610e-03" rms="1.8432430922985077e-01" purity="5.8627396821975708e-01" nType="0">
          <Node pos="l" depth="2" NCoef="0" IVar="3" Cut="-2.4103460311889648e+00" cType="0" res="1.4185260049998760e-02" rms="1.8664768338203430e-01" purity="7.4211364984512329e-01" nType="0">
            <Node pos="l" depth="3" NCoef="0" IVar="-1" Cut="0.0000000000000000e+00" cType="1" res="3.3056408166885376e-02" rms="1.8935143947601318e-01" purity="7.8383904695510864e-01" nType="-99"/>
            <Node pos="r" depth="3" NCoef="0" IVar="-1" Cut="0.0000000000000000e+00" cType="1" res="-7.4061349034309387e-02" rms="1.2412092834711075e-01" purity="3.1381133943796158e-02" nType="-99"/>
          </Node>
          <Node pos="r" depth="2" NCoef="0" IVar="3" Cut="-6.9996976852416992e-01" cType="0" res="-1.3870165683329105e-02" rms="1.7804990708827972e-01" purity="2.7046641707420349e-01" nType="0">
            <Node pos="l" depth="3" NCoef="0" IVar="-1" Cut="0.0000000000000000e+00" cType="1" res="-9.4703398644924164e-03" rms="1.9645376503467560e-01" purity="4.6031260490417480e-01" nType="-99"/>
            <Node pos="r" depth="3" NCoef="0" IVar="-1" Cut="0.0000000000000000e+00" cType="1" res="-5.1372509449720383e-02" rms="1.6420869529247284e-01" purity="1.4247958362102509e-01" nType="-99"/>
          </Node>
        </Node>
        <Node pos="r" depth="1" NCoef="0" IVar="3" Cut="3.5350605845451355e-01" cType="1" res="-1.5526717528700829e-02" rms="1.8182258307933807e-01" purity="2.6210743188858032e-01" nType="0">
          <Node pos="l" depth="2" NCoef="0" IVar="0" Cut="1.0384615659713745e+00" cType="1" res="-1.0735836112871766e-03" rms="1.9778193533420563e-01" purity="4.6687963604927063e-01" nType="0">
            <Node pos="l" depth="3" NCoef="0" IVar="-1" Cut="0.0000000000000000e+00" cType="1" res="2.0328506827354431e-02" rms="1.9341282546520233e-01" purity="5.5889254808425903e-01" nType="-99"/>
            <Node pos="r" depth="3" NCoef="0" IVar="-1" Cut="0.0000000000000000e+00" cType="1" res="-2.9890542849898338e-02" rms="2.0203845202922821e-01" purity="3.5177576541900635e-01" nType="-99"/>
          </Node>
          <Node pos="r" depth="2" NCoef="0" IVar="2" Cut="1.5384615957736969e-01" cType="0" res="-2.2161325439810753e-02" rms="1.7360459268093109e-01" purity="1.6810822486877441e-01" nType="0">
            <Node pos="l" depth="3" NCoef="0" IVar="-1" Cut="0.0000000000000000e+00" cType="1" res="-4.4907767325639725e-02" rms="2.6057371497154236e-01" purity="4.2456546425819397e-01" nType="-99"/>
            <Node pos="r" depth="3" NCoef="0" IVar="-1" Cut="0.0000000000000000e+00" cType="1" res="-6.8127691745758057e-02" rms="7.7225327491760254e-02" purity="5.9116668999195099e-03" nType="-99"/>
          </Node>
        </Node>
      </Node>
    </BinaryTree>
    <BinaryTree type="DecisionTree" boostWeight="1.0000000000000000e+00" itree="25">
      <Node pos="s" depth="0" NCoef="0" IVar="3" Cut="1.7307832241058350e+00" cType="1" res="-1.5759794041514397e-04" rms="1.8314893543720245e-01" purity="5.0579524040222168e-01" nType="0">
        <Node pos="l" depth="1" NCoef="0" IVar="3" Cut="-1.1449000835418701e+00" cType="0" res="3.5735794808715582e-03" rms="1.8910337984561920e-01" purity="5.9591680765151978e-01" nType="0">
          <Node pos="l" depth="2" NCoef="0" IVar="1" Cut="1.1538461595773697e-01" cType="0" res="1.2191659770905972e-02" rms="1.9299344718456268e-01" purity="7.7419322729110718e-01" nType="0">
            <Node pos="l" depth="3" NCoef="0" IVar="-1" Cut="0.0000000000000000e+00" cType="1" res="3.7797965109348297e-02" rms="1.8488118052482605e-01" purity="8.4526449441909790e-01" nType="-99"/>
            <Node pos="r" depth="3" NCoef="0" IVar="-1" Cut="0.0000000000000000e+00" cType="1" res="-1.4752214774489403e-02" rms="2.2108086943626404e-01" purity="4.9119099974632263e-01" nType="-99"/>
          </Node>
          <Node pos="r" depth="2" NCoef="0" IVar="0" Cut="1.0384615659713745e+00" cType="1" res="-1.2596071697771549e-02" rms="1.8047285079956055e-01" purity="2.6142609119415283e-01" nType="0">
            <Node pos="l" depth="3" NCoef="0" IVar="-1" Cut="0.0000000000000000e+00" cType="1" res="-9.8339030519127846e-03" rms="1.9208176434040070e-01" purity="3.4291216731071472e-01" nType="-99"/>
            <Node pos="r" depth="3" NCoef="0" IVar="-1" Cut="0.0000000000000000e+00" cType="1" res="-4.3747324496507645e-02" rms="1.6970628499984741e-01" purity="1.9203990697860718e-01" nType="-99"/>
          </Node>
        </Node>
        <Node pos="r" depth="1" NCoef="0" IVar="2" Cut="1.5384615957736969e-01" cType="0" res="-1.6081538051366806e-02" rms="1.5417759120464325e-01" purity="1.2117391079664230e-01" nType="0">
          <Node pos="l" depth="2" NCoef="0" IVar="2" Cut="9.0236777067184448e-01" cType="0" res="-2.5112012401223183e-02" rms="2.4406108260154724e-01" purity="3.4959283471107483e-01" nType="0">
            <Node pos="l" depth="3" NCoef="0" IVar="-1" Cut="0.0000000000000000e+00" cType="1" res="6.8535611033439636e-02" rms="1.3611203432083130e-01" purity="9.8102188110351562e-01" nType="-99"/>
            <Node pos="r" depth="3" NCoef="0" IVar="-1" Cut="0.0000000000000000e+00" cType="1" res="-4.2365197092294693e-02" rms="2.6430684328079224e-01" purity="1.7279787361621857e-01" nType="-99"/>
          </Node>
          <Node pos="r" depth="2" NCoef="0" IVar="1" Cut="1.1538461595773697e-01" cType="0" res="-1.1511391028761864e-02" rms="7.4788875877857208e-02" purity="5.5755320936441422e-03" nType="0">
            <Node pos="l" depth="3" NCoef="0" IVar="-1" Cut="0.0000000000000000e+00" cType="1" res="-7.4295245110988617e-02" rms="8.8096633553504944e-02" purity="7.8192874789237976e-03" nType="-99"/>
            <Node pos="r" depth="3" NCoef="0" IVar="-1" Cut="0.0000000000000000e+00" cType="1" res="-5.8506824076175690e-02" rms="6.2813863158226013e-02" purity="3.9605335332453251e-03" nType="-99"/>
          </Node>
        </Node>
      </Node>
    </BinaryTree>
    <BinaryTree type="DecisionTree" boostWeight="1.0000000000000000e+00" itree="26">
      <Node pos="s" depth="0" NCoef="0" IVar="2" Cut="1.5384615957736969e-01" cType="0" res="-1.4312527491711080e-04" rms="1.8258598446846008e-01" purity="5.0579524040222168e-01" nType="0">
        <Node pos="l" depth="1" NCoef="0" IVar="2" Cut="9.0236699581146240e-01" cType="0" res="5.2592684514820576e-03" rms="1.9948782026767731e-01" purity="7.9266667366027832e-01" nType="0">
          <Node pos="l" depth="2" NCoef="0" IVar="1" Cut="1.1538461595773697e-01" cType="0" res="1.5782020986080170e-02" rms="6.9188840687274933e-02" purity="9.9521046876907349e-01" nType="0">
            <Node pos="l" depth="3" NCoef="0" IVar="-1" Cut="0.0000000000000000e+00" cType="1" res="8.0668926239013672e-02" rms="6.1972808092832565e-02" purity="9.9616837501525879e-01" nType="-99"/>
            <Node pos="r" depth="3" NCoef="0" IVar="-1" Cut="0.0000000000000000e+00" cType="1" res="7.4440225958824158e-02" rms="1.0495769232511520e-01" purity="9.8875761032104492e-01" nType="-99"/>
          </Node>
          <Node pos="r" depth="2" NCoef="0" IVar="0" Cut="1.0384615659713745e+00" cType="1" res="-7.5508812442421913e-03" rms="2.8655675053596497e-01" purity="5.4609453678131104e-01" nType="0">
            <Node pos="l" depth="3" NCoef="0" IVar="-1" Cut="0.0000000000000000e+00" cType="1" res="9.5434132963418961e-03" rms="2.8163328766822815e-01" purity="6.1722010374069214e-01" nType="-99"/>
            <Node pos="r" depth="3" NCoef="0" IVar="-1" Cut="0.0000000000000000e+00" cType="1" res="-2.8104543685913086e-02" rms="2.9106527566909790e-01" purity="4.6100780367851257e-01" nType="-99"/>
          </Node>
        </Node>
        <Node pos="r" depth="1" NCoef="0" IVar="3" Cut="-3.4607681632041931e-01" cType="0" res="-9.1678826138377190e-03" rms="1.4973211288452148e-01" purity="2.6573464274406433e-02" nType="0">
          <Node pos="l" depth="2" NCoef="0" IVar="3" Cut="3.9957690238952637e-01" cType="1" res="-6.4553441479802132e-03" rms="1.6380447149276733e-01" purity="3.2857142388820648e-02" nType="0">
            <Node pos="l" depth="3" NCoef="0" IVar="-1" Cut="0.0000000000000000e+00" cType="1" res="1.6837904229760170e-02" rms="3.5908487439155579e-01" purity="1.7307692766189575e-01" nType="-99"/>
            <Node pos="r" depth="3" NCoef="0" IVar="-1" Cut="0.0000000000000000e+00" cType="1" res="-3.5851016640663147e-02" rms="1.2814919650554657e-01" purity="1.8676353618502617e-02" nType="-99"/>
          </Node>
          <Node pos="r" depth="2" NCoef="0" IVar="2" Cut="-6.2726652622222900e-01" cType="0" res="-1.2148949317634106e-02" rms="1.3249056041240692e-01" purity="1.9667731598019600e-02" nType="0">
            <Node pos="l" depth="3" NCoef="0" IVar="-1" Cut="0.0000000000000000e+00" cType="1" res="-3.8444336503744125e-02" rms="1.7509707808494568e-01" purity="3.4915439784526825e-02" nType="-99"/>
            <Node pos="r" depth="3" NCoef="0" IVar="-1" Cut="0.0000000000000000e+00" cType="1" res="-5.4187137633562088e-02" rms="7.6361596584320068e-02" purity="6.0965740121901035e-03" nType="-99"/>
          </Node>
        </Node>
      </Node>
    </BinaryTree>
    <BinaryTree type="DecisionTree" boostWeight="1.0000000000000000e+00" itree="27">
      <Node pos="s" depth="0" NCoef="0" IVar="1" Cut="2.0769231319427490e+00" cType="1" res="-6.4429135818500072e-05" rms="1.8228413164615631e-01" purity="5.0579524040222168e-01" nType="0">
        <Node pos="l" depth="1" NCoef="0" IVar="1" Cut="7.6923079788684845e-02" cType="0" res="3.6316132172942162e-03" rms="1.8393051624298096e-01" purity="5.8356428146362305e-01" nType="0">
          <Node pos="l" depth="2" NCoef="0" IVar="3" Cut="2.4268469810485840e+00" cType="1" res="1.0583952069282532e-02" rms="1.8531022965908051e-01" purity="7.4211364984512329e-01" nType="0">
            <Node pos="l" depth="3" NCoef="0" IVar="-1" Cut="0.0000000000000000e+00" cType="1" res="2.6549123227596283e-02" rms="1.8800307810306549e-01" purity="7.8084588050842285e-01" nType="-99"/>
            <Node pos="r" depth="3" NCoef="0" IVar="-1" Cut="0.0000000000000000e+00" cType="1" res="-6.6872954368591309e-02" rms="1.2051186710596085e-01" purity="3.2825320959091187e-02" nType="-99"/>
          </Node>
          <Node pos="r" depth="2" NCoef="0" IVar="3" Cut="6.9887441396713257e-01" cType="1" res="-1.0464161634445190e-02" rms="1.8027989566326141e-01" purity="2.6210743188858032e-01" nType="0">
            <Node pos="l" depth="3" NCoef="0" IVar="-1" Cut="0.0000000000000000e+00" cType="1" res="-2.6588473701849580e-04" rms="1.9996133446693420e-01" purity="4.8158466815948486e-01" nType="-99"/>
            <Node pos="r" depth="3" NCoef="0" IVar="-1" Cut="0.0000000000000000e+00" cType="1" res="-4.3478548526763916e-02" rms="1.6745905578136444e-01" purity="1.3423581421375275e-01" nType="-99"/>
          </Node>
        </Node>
        <Node pos="r" depth="1" NCoef="0" IVar="3" Cut="-3.5453093051910400e-01" cType="0" res="-1.1248641647398472e-02" rms="1.7673885822296143e-01" purity="2.7046641707420349e-01" nType="0">
          <Node pos="l" depth="2" NCoef="0" IVar="3" Cut="1.1336786746978760e+00" cType="1" res="-4.5799119397997856e-03" rms="1.9114570319652557e-01" purity="4.3991807103157043e-01" nType="0">
            <Node pos="l" depth="3" NCoef="0" IVar="-1" Cut="0.0000000000000000e+00" cType="1" res="1.5341876074671745e-02" rms="2.1360480785369873e-01" purity="7.2890973091125488e-01" nType="-99"/>
            <Node pos="r" depth="3" NCoef="0" IVar="-1" Cut="0.0000000000000000e+00" cType="1" res="-4.1544809937477112e-02" rms="1.6742858290672302e-01" purity="1.7890164256095886e-01" nType="-99"/>
          </Node>
          <Node pos="r" depth="2" NCoef="0" IVar="2" Cut="1.5384615957736969e-01" cType="0" res="-1.4843948185443878e-02" rms="1.6835175454616547e-01" purity="1.7911012470722198e-01" nType="0">
            <Node pos="l" depth="3" NCoef="0" IVar="-1" Cut="0.0000000000000000e+00" cType="1" res="-3.6344688385725021e-02" rms="2.4719777703285217e-01" purity="4.4748118519783020e-01" nType="-99"/>
            <Node pos="r" depth="3" NCoef="0" IVar="-1" Cut="0.0000000000000000e+00" cType="1" res="-5.0045929849147797e-02" rms="8.4927588701248169e-02" purity="7.3487553745508194e-03" nType="-99"/>
          </Node>
        </Node>
      </Node>
    </BinaryTree>
    <BinaryTree type="DecisionTree" boostWeight="1.0000000000000000e+00" itree="28">
      <Node pos="s" depth="0" NCoef="0" IVar="3" Cut="-1.7306501865386963e+00" cType="0" res="-7.0873029471840709e-05" rms="1.8179787695407867e-01" purity="5.0579524040222168e-01" nType="0">
        <Node pos="l" depth="1" NCoef="0" IVar="3" Cut="1.1450036764144897e+00" cType="1" res="2.8094609733670950e-03" rms="1.8698135018348694e-01" purity="5.9675526618957520e-01" nType="0">
          <Node pos="l" depth="2" NCoef="0" IVar="2" Cut="1.5384615957736969e-01" cType="0" res="8.7064765393733978e-03" rms="1.9240725040435791e-01" purity="7.7595216035842896e-01" nType="0">
            <Node pos="l" depth="3" NCoef="0" IVar="-1" Cut="0.0000000000000000e+00" cType="1" res="2.9091702774167061e-02" rms="1.7414061725139618e-01" purity="9.2641544342041016e-01" nType="-99"/>
            <Node pos="r" depth="3" NCoef="0" IVar="-1" Cut="0.0000000000000000e+00" cType="1" res="-8.8618397712707520e-03" rms="2.5987476110458374e-01" purity="8.3670280873775482e-02" nType="-99"/>
          </Node>
          <Node pos="r" depth="2" NCoef="0" IVar="3" Cut="1.5321153402328491e+00" cType="1" res="-8.3775874227285385e-03" rms="1.7568647861480713e-01" purity="2.5680634379386902e-01" nType="0">
            <Node pos="l" depth="3" NCoef="0" IVar="-1" Cut="0.0000000000000000e+00" cType="1" res="1.7111735651269555e-03" rms="2.1436575055122375e-01" purity="5.8574426174163818e-01" nType="-99"/>
            <Node pos="r" depth="3" NCoef="0" IVar="-1" Cut="0.0000000000000000e+00" cType="1" res="-2.8741503134369850e-02" rms="1.6320300102233887e-01" purity="1.6524276137351990e-01" nType="-99"/>
          </Node>
        </Node>
        <Node pos="r" depth="1" NCoef="0" IVar="2" Cut="-6.9230771064758301e-01" cType="0" res="-1.2189356610178947e-02" rms="1.5756328403949738e-01" purity="1.2309732288122177e-01" nType="0">
          <Node pos="l" depth="2" NCoef="0" IVar="2" Cut="4.2317998409271240e-01" cType="0" res="-1.7849933356046677e-02" rms="2.0893599092960358e-01" purity="2.3466968536376953e-01" nType="0">
            <Node pos="l" depth="3" NCoef="0" IVar="-1" Cut="0.0000000000000000e+00" cType="1" res="1.1732346378266811e-02" rms="3.0394923686981201e-01" purity="7.6683360338211060e-01" nType="-99"/>
            <Node pos="r" depth="3" NCoef="0" IVar="-1" Cut="0.0000000000000000e+00" cType="1" res="-5.9309855103492737e-02" rms="1.5634906291961670e-01" purity="2.9967891052365303e-02" nType="-99"/>
          </Node>
          <Node pos="r" depth="2" NCoef="0" IVar="1" Cut="2.0769231319427490e+00" cType="1" res="-6.1879823915660381e-03" rms="6.9242954254150391e-02" purity="4.8076924867928028e-03" nType="0">
            <Node pos="l" depth="3" NCoef="0" IVar="-1" Cut="0.0000000000000000e+00" cType="1" res="-6.9515630602836609e-02" rms="7.2975181043148041e-02" purity="5.3719007410109043e-03" nType="-99"/>
            <Node pos="r" depth="3" NCoef="0" IVar="-1" Cut="0.0000000000000000e+00" cType="1" res="-3.7763688713312149e-02" rms="6.6440239548683167e-02" purity="4.4367983937263489e-03" nType="-99"/>
          </Node>
        </Node>
      </Node>
    </BinaryTree>
    <BinaryTree type="DecisionTree" boostWeight="1.0000000000000000e+00" itree="29">
      <Node pos="s" depth="0" NCoef="0" IVar="3" Cut="-1.0383634567260742e+00" cType="0" res="-7.2413597081322223e-05" rms="1.8154112994670868e-01" purity="5.0579524040222168e-01" nType="0">
        <Node pos="l" depth="1" NCoef="0" IVar="3" Cut="8.7874370813369751e-01" cType="1" res="3.5066902637481689e-03" rms="1.8198482692241669e-01" purity="5.9877264499664307e-01" nType="0">
          <Node pos="l" depth="2" NCoef="0" IVar="2" Cut="5.7692307233810425e-01" cType="0" res="1.1354350484907627e-02" rms="1.8368826806545258e-01" purity="8.3705049753189087e-01" nType="0">
            <Node pos="l" depth="3" NCoef="0" IVar="-1" Cut="0.0000000000000000e+00" cType="1" res="4.1918661445379257e-02" rms="1.0039322078227997e-01" purity="9.8910897970199585e-01" nType="-99"/>
            <Node pos="r" depth="3" NCoef="0" IVar="-1" Cut="0.0000000000000000e+00" cType="1" res="1.8862614408135414e-02" rms="3.3108916878700256e-01" purity="3.4805998206138611e-01" nType="-99"/>
          </Node>
          <Node pos="r" depth="2" NCoef="0" IVar="1" Cut="1.1538461595773697e-01" cType="0" res="-5.5452873930335045e-03" rms="1.7957451939582825e-01" purity="3.2392823696136475e-01" nType="0">
            <Node pos="l" depth="3" NCoef="0" IVar="-1" Cut="0.0000000000000000e+00" cType="1" res="8.9094584109261632e-04" rms="1.9223593175411224e-01" purity="4.9900332093238831e-01" nType="-99"/>
            <Node pos="r" depth="3" NCoef="0" IVar="-1" Cut="0.0000000000000000e+00" cType="1" res="-3.6296788603067398e-02" rms="1.6304546594619751e-01" purity="1.1674814671278000e-01" nType="-99"/>
          </Node>
        </Node>
        <Node pos="r" depth="1" NCoef="0" IVar="0" Cut="1.1538461595773697e-01" cType="1" res="-8.4389448165893555e-03" rms="1.8022263050079346e-01" purity="2.8845074772834778e-01" nType="0">
          <Node pos="l" depth="2" NCoef="0" IVar="1" Cut="2.0769231319427490e+00" cType="1" res="1.4544881414622068e-03" rms="1.7793774604797363e-01" purity="4.1233271360397339e-01" nType="0">
            <Node pos="l" depth="3" NCoef="0" IVar="-1" Cut="0.0000000000000000e+00" cType="1" res="3.7144236266613007e-02" rms="1.7595915496349335e-01" purity="5.6733423471450806e-01" nType="-99"/>
            <Node pos="r" depth="3" NCoef="0" IVar="-1" Cut="0.0000000000000000e+00" cType="1" res="-6.2456846237182617e-02" rms="1.7824074625968933e-01" purity="1.4377726614475250e-01" nType="-99"/>
          </Node>
          <Node pos="r" depth="2" NCoef="0" IVar="2" Cut="-6.9230771064758301e-01" cType="0" res="-1.1287234723567963e-02" rms="1.8077474832534790e-01" purity="2.5278550386428833e-01" nType="0">
            <Node pos="l" depth="3" NCoef="0" IVar="-1" Cut="0.0000000000000000e+00" cType="1" res="-2.4507919326424599e-02" rms="2.1517065167427063e-01" purity="3.7415632605552673e-01" nType="-99"/>
            <Node pos="r" depth="3" NCoef="0" IVar="-1" Cut="0.0000000000000000e+00" cType="1" res="-4.7650717198848724e-02" rms="6.9196119904518127e-02" purity="4.8621287569403648e-03" nType="-99"/>
          </Node>
        </Node>
      </Node>
    </BinaryTree>
    <BinaryTree type="DecisionTree" boostWeight="1.0000000000000000e+00" itree="30">
      <Node pos="s" depth="0" NCoef="0" IVar="1" Cut="2.0769231319427490e+00" cType="1" res="-5.5177435569930822e-05" rms="1.8121784925460815e-01" purity="5.0579524040222168e-01" nType="0">
        <Node pos="l" depth="1" NCoef="0" IVar="1" Cut="7.6923079788684845e-02" cType="0" res="2.8065110091120005e-03" rms="1.8281018733978271e-01" purity="5.8356428146362305e-01" nType="0">
          <Node pos="l" depth="2" NCoef="0" IVar="2" Cut="1.5384615957736969e-01" cType="0" res="7.8393258154392242e-03" rms="1.8438099324703217e-01" purity="7.4211364984512329e-01" nType="0">
            <Node pos="l" depth="3" NCoef="0" IVar="-1" Cut="0.0000000000000000e+00" cType="1" res="2.8256263583898544e-02" rms="1.6992272436618805e-01" purity="9.1443818807601929e-01" nType="-99"/>
            <Node pos="r" depth="3" NCoef="0" IVar="-1" Cut="0.0000000000000000e+00" cType="1" res="-9.6810162067413330e-03" rms="2.3192393779754639e-01" purity="6.8167135119438171e-02" nType="-99"/>
          </Node>
