<?xml version="1.0"?>
<MethodSetup Method="BDT::BDT">
  <GeneralInfo>
    <Info name="TMVA Release" value="4.2.1 [262657]"/>
    <Info name="ROOT Release" value="6.04/02 [394242]"/>
    <Info name="Creator" value="salderwe"/>
    <Info name="Date" value="Thu Dec  3 23:07:02 2015"/>
    <Info name="Host" value="Linux heisenberg 4.1.6-1-ARCH #1 SMP PREEMPT Mon Aug 17 08:52:28 CEST 2015 x86_64 GNU/Linux"/>
    <Info name="Dir" value="/data/AA_UA/Workdir/git/vbfHbb/mvd/src/tmvaAlt"/>
    <Info name="Training events" value="320000"/>
    <Info name="TrainingTime" value="6.55095621e+02"/>
    <Info name="AnalysisType" value="Classification"/>
  </GeneralInfo>
  <Options>
    <Option name="V" modified="Yes">False</Option>
    <Option name="VerbosityLevel" modified="No">Default</Option>
    <Option name="VarTransform" modified="No">None</Option>
    <Option name="H" modified="Yes">False</Option>
    <Option name="CreateMVAPdfs" modified="No">False</Option>
    <Option name="IgnoreNegWeightsInTraining" modified="No">False</Option>
    <Option name="NTrees" modified="Yes">600</Option>
    <Option name="MaxDepth" modified="No">3</Option>
    <Option name="MinNodeSize" modified="No">5%</Option>
    <Option name="nCuts" modified="Yes">25</Option>
    <Option name="BoostType" modified="Yes">Grad</Option>
    <Option name="AdaBoostR2Loss" modified="No">quadratic</Option>
    <Option name="UseBaggedBoost" modified="No">False</Option>
    <Option name="Shrinkage" modified="Yes">2.000000e-01</Option>
    <Option name="AdaBoostBeta" modified="No">5.000000e-01</Option>
    <Option name="UseRandomisedTrees" modified="No">False</Option>
    <Option name="UseNvars" modified="No">2</Option>
    <Option name="UsePoissonNvars" modified="No">True</Option>
    <Option name="BaggedSampleFraction" modified="No">6.000000e-01</Option>
    <Option name="UseYesNoLeaf" modified="No">True</Option>
    <Option name="NegWeightTreatment" modified="No">ignorenegweightsintraining</Option>
    <Option name="Css" modified="No">1.000000e+00</Option>
    <Option name="Cts_sb" modified="No">1.000000e+00</Option>
    <Option name="Ctb_ss" modified="No">1.000000e+00</Option>
    <Option name="Cbb" modified="No">1.000000e+00</Option>
    <Option name="NodePurityLimit" modified="No">5.000000e-01</Option>
    <Option name="SeparationType" modified="No">giniindex</Option>
    <Option name="DoBoostMonitor" modified="No">False</Option>
    <Option name="UseFisherCuts" modified="No">False</Option>
    <Option name="MinLinCorrForFisher" modified="No">8.000000e-01</Option>
    <Option name="UseExclusiveVars" modified="No">False</Option>
    <Option name="DoPreselection" modified="No">False</Option>
    <Option name="SigToBkgFraction" modified="No">1.000000e+00</Option>
    <Option name="PruneMethod" modified="No">nopruning</Option>
    <Option name="PruneStrength" modified="No">0.000000e+00</Option>
    <Option name="PruningValFraction" modified="No">5.000000e-01</Option>
    <Option name="nEventsMin" modified="No">0</Option>
    <Option name="UseBaggedGrad" modified="No">False</Option>
    <Option name="GradBaggingFraction" modified="No">6.000000e-01</Option>
    <Option name="UseNTrainEvents" modified="No">0</Option>
    <Option name="NNodesMax" modified="No">0</Option>
  </Options>
  <Variables NVar="4">
    <Variable VarIndex="0" Expression="eta" Label="eta" Title="eta" Unit="" Internal="eta" Type="F" Min="-4.99520254e+00" Max="4.99934340e+00"/>
    <Variable VarIndex="1" Expression="etaIdx" Label="etaIdx" Title="etaIdx" Unit="" Internal="etaIdx" Type="I" Min="0.00000000e+00" Max="3.00000000e+00"/>
    <Variable VarIndex="2" Expression="btag" Label="btag" Title="btag" Unit="" Internal="btag" Type="F" Min="-1.00000000e+01" Max="1.00000000e+00"/>
    <Variable VarIndex="3" Expression="btagIdx" Label="btagIdx" Title="btagIdx" Unit="" Internal="btagIdx" Type="I" Min="0.00000000e+00" Max="3.00000000e+00"/>
  </Variables>
  <Spectators NSpec="0"/>
  <Classes NClass="2">
    <Class Name="Signal" Index="0"/>
    <Class Name="Background" Index="1"/>
  </Classes>
  <Transformations NTransformations="0"/>
  <MVAPdfs/>
  <Weights NTrees="600" AnalysisType="1">
    <BinaryTree type="DecisionTree" boostWeight="1.0000000000000000e+00" itree="0">
      <Node pos="s" depth="0" NCoef="0" IVar="3" Cut="2.0000000000000000e+00" cType="1" res="-1.4139062725007534e-02" rms="8.3099670708179474e-02" purity="5.0000000000000000e-01" nType="0">
        <Node pos="l" depth="1" NCoef="0" IVar="2" Cut="5.7692307233810425e-01" cType="1" res="3.8395828008651733e-01" rms="3.2027494907379150e-01" purity="8.8395828008651733e-01" nType="0">
          <Node pos="l" depth="2" NCoef="0" IVar="1" Cut="2.0000000000000000e+00" cType="1" res="-8.7792641716077924e-04" rms="2.1263297647237778e-02" purity="5.2998882532119751e-01" nType="0">
            <Node pos="l" depth="3" NCoef="0" IVar="-1" Cut="0.0000000000000000e+00" cType="1" res="1.1218092404305935e-02" rms="4.9921283125877380e-01" purity="5.2804523706436157e-01" nType="-99"/>
            <Node pos="r" depth="3" NCoef="0" IVar="-1" Cut="0.0000000000000000e+00" cType="1" res="1.2766430154442787e-02" rms="4.9898031353950500e-01" purity="5.3191608190536499e-01" nType="-99"/>
          </Node>
          <Node pos="r" depth="2" NCoef="0" IVar="2" Cut="8.6982762813568115e-01" cType="1" res="4.8069834709167480e-01" rms="1.3758310675621033e-01" purity="9.8069834709167480e-01" nType="0">
            <Node pos="l" depth="3" NCoef="0" IVar="-1" Cut="0.0000000000000000e+00" cType="1" res="1.6670809686183929e-01" rms="2.7622917294502258e-01" purity="9.1677021980285645e-01" nType="-99"/>
            <Node pos="r" depth="3" NCoef="0" IVar="-1" Cut="0.0000000000000000e+00" cType="1" res="1.9690567255020142e-01" rms="8.7612710893154144e-02" purity="9.9226415157318115e-01" nType="-99"/>
          </Node>
        </Node>
        <Node pos="r" depth="1" NCoef="0" IVar="1" Cut="1.0000000000000000e+00" cType="1" res="-2.9544740915298462e-02" rms="1.1821473389863968e-01" purity="8.0046586692333221e-02" nType="0">
          <Node pos="l" depth="2" NCoef="0" IVar="0" Cut="3.0300340652465820e+00" cType="1" res="-4.8343804478645325e-01" rms="1.2762311100959778e-01" purity="1.6561955213546753e-02" nType="0">
            <Node pos="l" depth="3" NCoef="0" IVar="-1" Cut="0.0000000000000000e+00" cType="1" res="-1.9170109927654266e-01" rms="1.4253696799278259e-01" purity="2.0747235044836998e-02" nType="-99"/>
            <Node pos="r" depth="3" NCoef="0" IVar="-1" Cut="0.0000000000000000e+00" cType="1" res="-1.9779554009437561e-01" rms="7.4032336473464966e-02" purity="5.5111600086092949e-03" nType="-99"/>
          </Node>
          <Node pos="r" depth="2" NCoef="0" IVar="1" Cut="3.0000000000000000e+00" cType="1" res="-1.7411645501852036e-02" rms="9.1697432100772858e-02" purity="1.2836910784244537e-01" nType="0">
            <Node pos="l" depth="3" NCoef="0" IVar="-1" Cut="0.0000000000000000e+00" cType="1" res="-3.7286635488271713e-03" rms="4.9991309642791748e-01" purity="4.9067834019660950e-01" nType="-99"/>
            <Node pos="r" depth="3" NCoef="0" IVar="-1" Cut="0.0000000000000000e+00" cType="1" res="-1.9298741221427917e-01" rms="1.3124062120914459e-01" purity="1.7531450837850571e-02" nType="-99"/>
          </Node>
        </Node>
      </Node>
    </BinaryTree>
    <BinaryTree type="DecisionTree" boostWeight="1.0000000000000000e+00" itree="1">
      <Node pos="s" depth="0" NCoef="0" IVar="3" Cut="2.0000000000000000e+00" cType="1" res="-1.1439011432230473e-02" rms="6.7417100071907043e-02" purity="5.0000000000000000e-01" nType="0">
        <Node pos="l" depth="1" NCoef="0" IVar="2" Cut="5.7692307233810425e-01" cType="1" res="3.0809184908866882e-01" rms="3.0031427741050720e-01" purity="8.8395828008651733e-01" nType="0">
          <Node pos="l" depth="2" NCoef="0" IVar="1" Cut="2.0000000000000000e+00" cType="1" res="-8.8948960183188319e-04" rms="2.1526461467146873e-02" purity="5.2998882532119751e-01" nType="0">
            <Node pos="l" depth="3" NCoef="0" IVar="-1" Cut="0.0000000000000000e+00" cType="1" res="8.9757032692432404e-03" rms="4.9921283125877380e-01" purity="5.2804523706436157e-01" nType="-99"/>
            <Node pos="r" depth="3" NCoef="0" IVar="-1" Cut="0.0000000000000000e+00" cType="1" res="1.0214941576123238e-02" rms="4.9898031353950500e-01" purity="5.3191608190536499e-01" nType="-99"/>
          </Node>
          <Node pos="r" depth="2" NCoef="0" IVar="2" Cut="8.6982762813568115e-01" cType="1" res="3.8573667407035828e-01" rms="1.3664051890373230e-01" purity="9.8069834709167480e-01" nType="0">
            <Node pos="l" depth="3" NCoef="0" IVar="-1" Cut="0.0000000000000000e+00" cType="1" res="1.3742144405841827e-01" rms="2.7622917294502258e-01" purity="9.1677021980285645e-01" nType="-99"/>
            <Node pos="r" depth="3" NCoef="0" IVar="-1" Cut="0.0000000000000000e+00" cType="1" res="1.6423226892948151e-01" rms="8.7612710893154144e-02" purity="9.9226415157318115e-01" nType="-99"/>
          </Node>
        </Node>
        <Node pos="r" depth="1" NCoef="0" IVar="1" Cut="1.0000000000000000e+00" cType="1" res="-2.3890763521194458e-02" rms="9.5860421657562256e-02" purity="8.0046586692333221e-02" nType="0">
          <Node pos="l" depth="2" NCoef="0" IVar="0" Cut="3.0300340652465820e+00" cType="1" res="-3.8793852925300598e-01" rms="1.2756001949310303e-01" purity="1.6561955213546753e-02" nType="0">
            <Node pos="l" depth="3" NCoef="0" IVar="-1" Cut="0.0000000000000000e+00" cType="1" res="-1.5954624116420746e-01" rms="1.4253696799278259e-01" purity="2.0747235044836998e-02" nType="-99"/>
            <Node pos="r" depth="3" NCoef="0" IVar="-1" Cut="0.0000000000000000e+00" cType="1" res="-1.6503635048866272e-01" rms="7.4032343924045563e-02" purity="5.5111600086092949e-03" nType="-99"/>
          </Node>
          <Node pos="r" depth="2" NCoef="0" IVar="1" Cut="3.0000000000000000e+00" cType="1" res="-1.4091401360929012e-02" rms="7.4239015579223633e-02" purity="1.2836910784244537e-01" nType="0">
            <Node pos="l" depth="3" NCoef="0" IVar="-1" Cut="0.0000000000000000e+00" cType="1" res="-2.9829794075340033e-03" rms="4.9991309642791748e-01" purity="4.9067834019660950e-01" nType="-99"/>
            <Node pos="r" depth="3" NCoef="0" IVar="-1" Cut="0.0000000000000000e+00" cType="1" res="-1.6070175170898438e-01" rms="1.3124062120914459e-01" purity="1.7531450837850571e-02" nType="-99"/>
          </Node>
        </Node>
      </Node>
    </BinaryTree>
    <BinaryTree type="DecisionTree" boostWeight="1.0000000000000000e+00" itree="2">
      <Node pos="s" depth="0" NCoef="0" IVar="3" Cut="2.0000000000000000e+00" cType="1" res="-9.3283345922827721e-03" rms="5.5210124701261520e-02" purity="5.0000000000000000e-01" nType="0">
        <Node pos="l" depth="1" NCoef="0" IVar="2" Cut="5.7692307233810425e-01" cType="1" res="2.4876493215560913e-01" rms="2.8707072138786316e-01" purity="8.8395828008651733e-01" nType="0">
          <Node pos="l" depth="2" NCoef="0" IVar="1" Cut="2.0000000000000000e+00" cType="1" res="-8.9873926481232047e-04" rms="2.1737119182944298e-02" purity="5.2998882532119751e-01" nType="0">
            <Node pos="l" depth="3" NCoef="0" IVar="-1" Cut="0.0000000000000000e+00" cType="1" res="7.1828057989478111e-03" rms="4.9921283125877380e-01" purity="5.2804523706436157e-01" nType="-99"/>
            <Node pos="r" depth="3" NCoef="0" IVar="-1" Cut="0.0000000000000000e+00" cType="1" res="8.1752752885222435e-03" rms="4.9898031353950500e-01" purity="5.3191608190536499e-01" nType="-99"/>
          </Node>
          <Node pos="r" depth="2" NCoef="0" IVar="2" Cut="8.5355609655380249e-01" cType="1" res="3.1150686740875244e-01" rms="1.3606300950050354e-01" purity="9.8069834709167480e-01" nType="0">
            <Node pos="l" depth="3" NCoef="0" IVar="-1" Cut="0.0000000000000000e+00" cType="1" res="1.1537890136241913e-01" rms="2.8492569923400879e-01" purity="9.1087388992309570e-01" nType="-99"/>
            <Node pos="r" depth="3" NCoef="0" IVar="-1" Cut="0.0000000000000000e+00" cType="1" res="1.4459589123725891e-01" rms="9.4918660819530487e-02" purity="9.9085605144500732e-01" nType="-99"/>
          </Node>
        </Node>
        <Node pos="r" depth="1" NCoef="0" IVar="1" Cut="1.0000000000000000e+00" cType="1" res="-1.9470937550067902e-02" rms="7.8449584543704987e-02" purity="8.0046586692333221e-02" nType="0">
          <Node pos="l" depth="2" NCoef="0" IVar="0" Cut="3.0300340652465820e+00" cType="1" res="-3.1329306960105896e-01" rms="1.2752187252044678e-01" purity="1.6561955213546753e-02" nType="0">
            <Node pos="l" depth="3" NCoef="0" IVar="-1" Cut="0.0000000000000000e+00" cType="1" res="-1.4016923308372498e-01" rms="1.4253696799278259e-01" purity="2.0747235044836998e-02" nType="-99"/>
            <Node pos="r" depth="3" NCoef="0" IVar="-1" Cut="0.0000000000000000e+00" cType="1" res="-1.4589267969131470e-01" rms="7.4032336473464966e-02" purity="5.5111600086092949e-03" nType="-99"/>
          </Node>
          <Node pos="r" depth="2" NCoef="0" IVar="1" Cut="3.0000000000000000e+00" cType="1" res="-1.1495902203023434e-02" rms="6.0598794370889664e-02" purity="1.2836910784244537e-01" nType="0">
            <Node pos="l" depth="3" NCoef="0" IVar="-1" Cut="0.0000000000000000e+00" cType="1" res="-2.3864682298153639e-03" rms="4.9991309642791748e-01" purity="4.9067834019660950e-01" nType="-99"/>
            <Node pos="r" depth="3" NCoef="0" IVar="-1" Cut="0.0000000000000000e+00" cType="1" res="-1.4136645197868347e-01" rms="1.3124062120914459e-01" purity="1.7531450837850571e-02" nType="-99"/>
          </Node>
        </Node>
      </Node>
    </BinaryTree>
    <BinaryTree type="DecisionTree" boostWeight="1.0000000000000000e+00" itree="3">
      <Node pos="s" depth="0" NCoef="0" IVar="3" Cut="2.0000000000000000e+00" cType="1" res="-7.6488126069307327e-03" rms="4.5556616038084030e-02" purity="5.0000000000000000e-01" nType="0">
        <Node pos="l" depth="1" NCoef="0" IVar="2" Cut="5.7692307233810425e-01" cType="1" res="2.0155380666255951e-01" rms="2.7820760011672974e-01" purity="8.8395828008651733e-01" nType="0">
          <Node pos="l" depth="2" NCoef="0" IVar="1" Cut="2.0000000000000000e+00" cType="1" res="-9.0613885549828410e-04" rms="2.1905733272433281e-02" purity="5.2998882532119751e-01" nType="0">
            <Node pos="l" depth="3" NCoef="0" IVar="-1" Cut="0.0000000000000000e+00" cType="1" res="5.7484507560729980e-03" rms="4.9921283125877380e-01" purity="5.2804523706436157e-01" nType="-99"/>
            <Node pos="r" depth="3" NCoef="0" IVar="-1" Cut="0.0000000000000000e+00" cType="1" res="6.5434658899903297e-03" rms="4.9898031353950500e-01" purity="5.3191608190536499e-01" nType="-99"/>
          </Node>
          <Node pos="r" depth="2" NCoef="0" IVar="2" Cut="8.8609915971755981e-01" cType="1" res="2.5244185328483582e-01" rms="1.3568100333213806e-01" purity="9.8069834709167480e-01" nType="0">
            <Node pos="l" depth="3" NCoef="0" IVar="-1" Cut="0.0000000000000000e+00" cType="1" res="1.0593283176422119e-01" rms="2.6117467880249023e-01" purity="9.2588526010513306e-01" nType="-99"/>
            <Node pos="r" depth="3" NCoef="0" IVar="-1" Cut="0.0000000000000000e+00" cType="1" res="1.3296078145503998e-01" rms="8.1363022327423096e-02" purity="9.9333566427230835e-01" nType="-99"/>
          </Node>
        </Node>
        <Node pos="r" depth="1" NCoef="0" IVar="1" Cut="1.0000000000000000e+00" cType="1" res="-1.5953961759805679e-02" rms="6.4668640494346619e-02" purity="8.0046586692333221e-02" nType="0">
          <Node pos="l" depth="2" NCoef="0" IVar="0" Cut="2.7838702201843262e+00" cType="1" res="-2.5389862060546875e-01" rms="1.2749733030796051e-01" purity="1.6561955213546753e-02" nType="0">
            <Node pos="l" depth="3" NCoef="0" IVar="-1" Cut="0.0000000000000000e+00" cType="1" res="-1.2668207287788391e-01" rms="1.4434513449668884e-01" purity="2.1288728341460228e-02" nType="-99"/>
            <Node pos="r" depth="3" NCoef="0" IVar="-1" Cut="0.0000000000000000e+00" cType="1" res="-1.3224506378173828e-01" rms="9.0406231582164764e-02" purity="8.2613592967391014e-03" nType="-99"/>
          </Node>
          <Node pos="r" depth="2" NCoef="0" IVar="1" Cut="3.0000000000000000e+00" cType="1" res="-9.4305928796529770e-03" rms="4.9753412604331970e-02" purity="1.2836910784244537e-01" nType="0">
            <Node pos="l" depth="3" NCoef="0" IVar="-1" Cut="0.0000000000000000e+00" cType="1" res="-1.9092524889856577e-03" rms="4.9991309642791748e-01" purity="4.9067834019660950e-01" nType="-99"/>
            <Node pos="r" depth="3" NCoef="0" IVar="-1" Cut="0.0000000000000000e+00" cType="1" res="-1.2827724218368530e-01" rms="1.3124062120914459e-01" purity="1.7531450837850571e-02" nType="-99"/>
          </Node>
        </Node>
      </Node>
    </BinaryTree>
    <BinaryTree type="DecisionTree" boostWeight="1.0000000000000000e+00" itree="4">
      <Node pos="s" depth="0" NCoef="0" IVar="3" Cut="2.0000000000000000e+00" cType="1" res="-6.3000489026308060e-03" rms="3.7872664630413055e-02" purity="5.0000000000000000e-01" nType="0">
        <Node pos="l" depth="1" NCoef="0" IVar="2" Cut="5.7692307233810425e-01" cType="1" res="1.6364653408527374e-01" rms="2.7226611971855164e-01" purity="8.8395828008651733e-01" nType="0">
          <Node pos="l" depth="2" NCoef="0" IVar="1" Cut="2.0000000000000000e+00" cType="1" res="-9.1205892385914922e-04" rms="2.2040691226720810e-02" purity="5.2998882532119751e-01" nType="0">
            <Node pos="l" depth="3" NCoef="0" IVar="-1" Cut="0.0000000000000000e+00" cType="1" res="4.6005537733435631e-03" rms="4.9921283125877380e-01" purity="5.2804523706436157e-01" nType="-99"/>
            <Node pos="r" depth="3" NCoef="0" IVar="-1" Cut="0.0000000000000000e+00" cType="1" res="5.2374140359461308e-03" rms="4.9898034334182739e-01" purity="5.3191608190536499e-01" nType="-99"/>
          </Node>
          <Node pos="r" depth="2" NCoef="0" IVar="2" Cut="8.5355609655380249e-01" cType="1" res="2.0501369237899780e-01" rms="1.3541474938392639e-01" purity="9.8069834709167480e-01" nType="0">
            <Node pos="l" depth="3" NCoef="0" IVar="-1" Cut="0.0000000000000000e+00" cType="1" res="8.8529944419860840e-02" rms="2.8492572903633118e-01" purity="9.1087388992309570e-01" nType="-99"/>
            <Node pos="r" depth="3" NCoef="0" IVar="-1" Cut="0.0000000000000000e+00" cType="1" res="1.2276300042867661e-01" rms="9.4813540577888489e-02" purity="9.9085605144500732e-01" nType="-99"/>
          </Node>
        </Node>
        <Node pos="r" depth="1" NCoef="0" IVar="1" Cut="1.0000000000000000e+00" cType="1" res="-1.3129605911672115e-02" rms="5.3685702383518219e-02" purity="8.0046586692333221e-02" nType="0">
          <Node pos="l" depth="2" NCoef="0" IVar="0" Cut="1.7992155551910400e+00" cType="1" res="-2.0620198547840118e-01" rms="1.2748274207115173e-01" purity="1.6561955213546753e-02" nType="0">
            <Node pos="l" depth="3" NCoef="0" IVar="-1" Cut="0.0000000000000000e+00" cType="1" res="-1.1511370539665222e-01" rms="1.5399947762489319e-01" purity="2.4306654930114746e-02" nType="-99"/>
            <Node pos="r" depth="3" NCoef="0" IVar="-1" Cut="0.0000000000000000e+00" cType="1" res="-1.2072761356830597e-01" rms="1.1501758545637131e-01" purity="1.3442629948258400e-02" nType="-99"/>
          </Node>
          <Node pos="r" depth="2" NCoef="0" IVar="1" Cut="3.0000000000000000e+00" cType="1" res="-7.7720172703266144e-03" rms="4.1053757071495056e-02" purity="1.2836910784244537e-01" nType="0">
            <Node pos="l" depth="3" NCoef="0" IVar="-1" Cut="0.0000000000000000e+00" cType="1" res="-1.5274643665179610e-03" rms="4.9991312623023987e-01" purity="4.9067834019660950e-01" nType="-99"/>
            <Node pos="r" depth="3" NCoef="0" IVar="-1" Cut="0.0000000000000000e+00" cType="1" res="-1.1863720417022705e-01" rms="1.3124062120914459e-01" purity="1.7531450837850571e-02" nType="-99"/>
          </Node>
        </Node>
      </Node>
    </BinaryTree>
    <BinaryTree type="DecisionTree" boostWeight="1.0000000000000000e+00" itree="5">
      <Node pos="s" depth="0" NCoef="0" IVar="2" Cut="5.7692307233810425e-01" cType="1" res="-4.8559442802798003e-05" rms="2.8508421778678894e-01" purity="5.0000000000000000e-01" nType="0">
        <Node pos="l" depth="1" NCoef="0" IVar="3" Cut="2.0000000000000000e+00" cType="1" res="-8.9517943561077118e-03" rms="4.1203815490007401e-02" purity="1.6342328488826752e-01" nType="0">
          <Node pos="l" depth="2" NCoef="0" IVar="1" Cut="2.0000000000000000e+00" cType="1" res="-9.1679522302001715e-04" rms="2.2148698568344116e-02" purity="5.2998882532119751e-01" nType="0">
            <Node pos="l" depth="3" NCoef="0" IVar="-1" Cut="0.0000000000000000e+00" cType="1" res="3.6817837972193956e-03" rms="4.9921283125877380e-01" purity="5.2804523706436157e-01" nType="-99"/>
            <Node pos="r" depth="3" NCoef="0" IVar="-1" Cut="0.0000000000000000e+00" cType="1" res="4.1919141076505184e-03" rms="4.9898031353950500e-01" purity="5.3191608190536499e-01" nType="-99"/>
          </Node>
          <Node pos="r" depth="2" NCoef="0" IVar="2" Cut="-9.5932025909423828e+00" cType="1" res="-1.4878718554973602e-01" rms="2.2038298845291138e-01" purity="7.5972259044647217e-02" nType="0">
            <Node pos="l" depth="3" NCoef="0" IVar="-1" Cut="0.0000000000000000e+00" cType="1" res="-1.1639331281185150e-01" rms="9.7300373017787933e-02" purity="1.0002875700592995e-02" nType="-99"/>
            <Node pos="r" depth="3" NCoef="0" IVar="-1" Cut="0.0000000000000000e+00" cType="1" res="-8.0350428819656372e-02" rms="2.5849804282188416e-01" purity="1.0754982382059097e-01" nType="-99"/>
          </Node>
        </Node>
        <Node pos="r" depth="1" NCoef="0" IVar="2" Cut="8.6982762813568115e-01" cType="1" res="1.6458617150783539e-01" rms="1.4495813846588135e-01" purity="9.6885353326797485e-01" nType="0">
          <Node pos="l" depth="2" NCoef="0" IVar="-1" Cut="0.0000000000000000e+00" cType="1" res="7.3250405490398407e-02" rms="2.8808999061584473e-01" purity="8.5996007919311523e-01" nType="-99"/>
          <Node pos="r" depth="2" NCoef="0" IVar="2" Cut="9.3992292881011963e-01" cType="1" res="1.7196592688560486e-01" rms="9.1862685978412628e-02" purity="9.9036401510238647e-01" nType="0">
            <Node pos="l" depth="3" NCoef="0" IVar="-1" Cut="0.0000000000000000e+00" cType="1" res="1.0771284997463226e-01" rms="1.5188606083393097e-01" purity="9.7167104482650757e-01" nType="-99"/>
            <Node pos="r" depth="3" NCoef="0" IVar="-1" Cut="0.0000000000000000e+00" cType="1" res="1.1944734305143356e-01" rms="6.2496665865182877e-02" purity="9.9608224630355835e-01" nType="-99"/>
          </Node>
        </Node>
      </Node>
    </BinaryTree>
    <BinaryTree type="DecisionTree" boostWeight="1.0000000000000000e+00" itree="6">
      <Node pos="s" depth="0" NCoef="0" IVar="3" Cut="2.0000000000000000e+00" cType="1" res="-4.2872168123722076e-03" rms="2.6624670252203941e-02" purity="5.0000000000000000e-01" nType="0">
        <Node pos="l" depth="1" NCoef="0" IVar="2" Cut="5.7692307233810425e-01" cType="1" res="1.0853176563978195e-01" rms="2.6560720801353455e-01" purity="8.8395828008651733e-01" nType="0">
          <Node pos="l" depth="2" NCoef="0" IVar="1" Cut="2.0000000000000000e+00" cType="1" res="-9.2058454174548388e-04" rms="2.2235132753849030e-02" purity="5.2998882532119751e-01" nType="0">
            <Node pos="l" depth="3" NCoef="0" IVar="-1" Cut="0.0000000000000000e+00" cType="1" res="2.9463896062225103e-03" rms="4.9921283125877380e-01" purity="5.2804523706436157e-01" nType="-99"/>
            <Node pos="r" depth="3" NCoef="0" IVar="-1" Cut="0.0000000000000000e+00" cType="1" res="3.3549540676176548e-03" rms="4.9898031353950500e-01" purity="5.3191608190536499e-01" nType="-99"/>
          </Node>
          <Node pos="r" depth="2" NCoef="0" IVar="3" Cut="1.0000000000000000e+00" cType="1" res="1.4513194037135690e-04" rms="2.3759661242365837e-02" purity="9.8069834709167480e-01" nType="0">
            <Node pos="l" depth="3" NCoef="0" IVar="-1" Cut="0.0000000000000000e+00" cType="1" res="1.1306966096162796e-01" rms="7.6817497611045837e-02" purity="9.9401479959487915e-01" nType="-99"/>
            <Node pos="r" depth="3" NCoef="0" IVar="-1" Cut="0.0000000000000000e+00" cType="1" res="8.8834121823310852e-02" rms="1.9987644255161285e-01" purity="9.5687824487686157e-01" nType="-99"/>
          </Node>
        </Node>
        <Node pos="r" depth="1" NCoef="0" IVar="1" Cut="1.0000000000000000e+00" cType="1" res="-8.9146895334124565e-03" rms="3.7562366575002670e-02" purity="8.0046586692333221e-02" nType="0">
          <Node pos="l" depth="2" NCoef="0" IVar="2" Cut="-6.9685602188110352e-01" cType="1" res="-1.4191271364688873e-01" rms="1.2706752121448517e-01" purity="1.6561955213546753e-02" nType="0">
            <Node pos="l" depth="3" NCoef="0" IVar="-1" Cut="0.0000000000000000e+00" cType="1" res="-1.0754868388175964e-01" rms="1.1469791829586029e-01" purity="1.3418471440672874e-02" nType="-99"/>
            <Node pos="r" depth="3" NCoef="0" IVar="-1" Cut="0.0000000000000000e+00" cType="1" res="-1.0552284866571426e-01" rms="1.3786719739437103e-01" purity="1.9591521471738815e-02" nType="-99"/>
          </Node>
          <Node pos="r" depth="2" NCoef="0" IVar="1" Cut="3.0000000000000000e+00" cType="1" res="-5.2986070513725281e-03" rms="2.8108002617955208e-02" purity="1.2836910784244537e-01" nType="0">
            <Node pos="l" depth="3" NCoef="0" IVar="-1" Cut="0.0000000000000000e+00" cType="1" res="1.3791396282613277e-02" rms="4.9819025397300720e-01" purity="4.9067834019660950e-01" nType="-99"/>
            <Node pos="r" depth="3" NCoef="0" IVar="-1" Cut="0.0000000000000000e+00" cType="1" res="-1.0583893954753876e-01" rms="1.3062445819377899e-01" purity="1.7531450837850571e-02" nType="-99"/>
          </Node>
        </Node>
      </Node>
    </BinaryTree>
    <BinaryTree type="DecisionTree" boostWeight="1.0000000000000000e+00" itree="7">
      <Node pos="s" depth="0" NCoef="0" IVar="2" Cut="5.7692307233810425e-01" cType="1" res="1.1651360546238720e-04" rms="2.6200523972511292e-01" purity="5.0000000000000000e-01" nType="0">
        <Node pos="l" depth="1" NCoef="0" IVar="1" Cut="3.0000000000000000e+00" cType="1" res="-6.1309025622904301e-03" rms="2.9554514214396477e-02" purity="1.6342328488826752e-01" nType="0">
          <Node pos="l" depth="2" NCoef="0" IVar="1" Cut="1.0000000000000000e+00" cType="1" res="-1.3393475092016160e-04" rms="1.1662990786135197e-02" purity="2.5175920128822327e-01" nType="0">
            <Node pos="l" depth="3" NCoef="0" IVar="-1" Cut="0.0000000000000000e+00" cType="1" res="-1.1377422511577606e-01" rms="1.7639757692813873e-01" purity="2.5027623400092125e-02" nType="-99"/>
            <Node pos="r" depth="3" NCoef="0" IVar="-1" Cut="0.0000000000000000e+00" cType="1" res="6.3138663768768311e-02" rms="4.6678420901298523e-01" purity="6.5072304010391235e-01" nType="-99"/>
          </Node>
          <Node pos="r" depth="2" NCoef="0" IVar="3" Cut="3.0000000000000000e+00" cType="1" res="-4.0197428315877914e-03" rms="2.2623285651206970e-02" purity="2.5518340989947319e-02" nType="0">
            <Node pos="l" depth="3" NCoef="0" IVar="-1" Cut="0.0000000000000000e+00" cType="1" res="-1.2227749824523926e-01" rms="2.1885108947753906e-01" purity="3.6796536296606064e-02" nType="-99"/>
            <Node pos="r" depth="3" NCoef="0" IVar="-1" Cut="0.0000000000000000e+00" cType="1" res="-1.0248611122369766e-01" rms="1.1797811090946198e-01" purity="1.4157973229885101e-02" nType="-99"/>
          </Node>
        </Node>
        <Node pos="r" depth="1" NCoef="0" IVar="2" Cut="8.5355609655380249e-01" cType="1" res="1.0946827381849289e-01" rms="1.4361242949962616e-01" purity="9.6885353326797485e-01" nType="0">
          <Node pos="l" depth="2" NCoef="0" IVar="-1" Cut="0.0000000000000000e+00" cType="1" res="5.1007371395826340e-02" rms="2.9373258352279663e-01" purity="8.4781080484390259e-01" nType="-99"/>
          <Node pos="r" depth="2" NCoef="0" IVar="2" Cut="9.1551524400711060e-01" cType="1" res="1.1505609005689621e-01" rms="9.9360078573226929e-02" purity="9.8825991153717041e-01" nType="0">
            <Node pos="l" depth="3" NCoef="0" IVar="-1" Cut="0.0000000000000000e+00" cType="1" res="8.7690867483615875e-02" rms="1.8197637796401978e-01" purity="9.5698869228363037e-01" nType="-99"/>
            <Node pos="r" depth="3" NCoef="0" IVar="-1" Cut="0.0000000000000000e+00" cType="1" res="1.0952163487672806e-01" rms="7.2816938161849976e-02" purity="9.9435901641845703e-01" nType="-99"/>
          </Node>
        </Node>
      </Node>
    </BinaryTree>
    <BinaryTree type="DecisionTree" boostWeight="1.0000000000000000e+00" itree="8">
      <Node pos="s" depth="0" NCoef="0" IVar="3" Cut="2.0000000000000000e+00" cType="1" res="-2.9630069620907307e-03" rms="1.9546933472156525e-02" purity="5.0000000000000000e-01" nType="0">
        <Node pos="l" depth="1" NCoef="0" IVar="0" Cut="1.3131983280181885e+00" cType="1" res="7.3413573205471039e-02" rms="2.5055626034736633e-01" purity="8.8395828008651733e-01" nType="0">
          <Node pos="l" depth="2" NCoef="0" IVar="0" Cut="-1.4419244527816772e+00" cType="1" res="8.8724456727504730e-02" rms="2.2968772053718567e-01" purity="9.1059100627899170e-01" nType="0">
            <Node pos="l" depth="3" NCoef="0" IVar="-1" Cut="0.0000000000000000e+00" cType="1" res="-2.4015052244067192e-02" rms="3.4816512465476990e-01" purity="6.8988615274429321e-01" nType="-99"/>
            <Node pos="r" depth="3" NCoef="0" IVar="-1" Cut="0.0000000000000000e+00" cType="1" res="9.1159820556640625e-02" rms="1.9685821235179901e-01" purity="9.4601124525070190e-01" nType="-99"/>
          </Node>
          <Node pos="r" depth="2" NCoef="0" IVar="-1" Cut="0.0000000000000000e+00" cType="1" res="-1.2690714560449123e-02" rms="3.3711344003677368e-01" purity="7.2193735837936401e-01" nType="-99"/>
        </Node>
        <Node pos="r" depth="1" NCoef="0" IVar="3" Cut="3.0000000000000000e+00" cType="1" res="-7.3303753742948174e-04" rms="8.7717985734343529e-03" purity="8.0046586692333221e-02" nType="0">
          <Node pos="l" depth="2" NCoef="0" IVar="1" Cut="1.0000000000000000e+00" cType="1" res="-1.3060029596090317e-03" rms="1.4700354076921940e-02" purity="1.2399457395076752e-01" nType="0">
            <Node pos="l" depth="3" NCoef="0" IVar="-1" Cut="0.0000000000000000e+00" cType="1" res="-9.2448778450489044e-02" rms="1.4100138843059540e-01" purity="2.0620273426175117e-02" nType="-99"/>
            <Node pos="r" depth="3" NCoef="0" IVar="-1" Cut="0.0000000000000000e+00" cType="1" res="-3.4164380282163620e-02" rms="3.1813955307006836e-01" purity="1.9153752923011780e-01" nType="-99"/>
          </Node>
          <Node pos="r" depth="2" NCoef="0" IVar="2" Cut="-7.6758193969726562e-01" cType="1" res="-9.3146674335002899e-02" rms="1.6420061886310577e-01" purity="3.6618839949369431e-02" nType="0">
            <Node pos="l" depth="3" NCoef="0" IVar="-1" Cut="0.0000000000000000e+00" cType="1" res="-9.4259925186634064e-02" rms="1.2432352453470230e-01" purity="1.8337210640311241e-02" nType="-99"/>
            <Node pos="r" depth="3" NCoef="0" IVar="-1" Cut="0.0000000000000000e+00" cType="1" res="-7.9035639762878418e-02" rms="2.3803050816059113e-01" purity="8.3971604704856873e-02" nType="-99"/>
          </Node>
        </Node>
      </Node>
    </BinaryTree>
    <BinaryTree type="DecisionTree" boostWeight="1.0000000000000000e+00" itree="9">
      <Node pos="s" depth="0" NCoef="0" IVar="2" Cut="5.7692307233810425e-01" cType="1" res="-5.7174813264282420e-05" rms="2.4259282648563385e-01" purity="5.0000000000000000e-01" nType="0">
        <Node pos="l" depth="1" NCoef="0" IVar="1" Cut="3.0000000000000000e+00" cType="1" res="-4.3209828436374664e-03" rms="2.2454002872109413e-02" purity="1.6342328488826752e-01" nType="0">
          <Node pos="l" depth="2" NCoef="0" IVar="1" Cut="1.0000000000000000e+00" cType="1" res="-1.3811352255288512e-04" rms="1.1787148192524910e-02" purity="2.5175920128822327e-01" nType="0">
            <Node pos="l" depth="3" NCoef="0" IVar="-1" Cut="0.0000000000000000e+00" cType="1" res="-1.0466786473989487e-01" rms="1.7467285692691803e-01" purity="2.5027623400092125e-02" nType="-99"/>
            <Node pos="r" depth="3" NCoef="0" IVar="-1" Cut="0.0000000000000000e+00" cType="1" res="4.9596291035413742e-02" rms="4.5831343531608582e-01" purity="6.5072304010391235e-01" nType="-99"/>
          </Node>
          <Node pos="r" depth="2" NCoef="0" IVar="3" Cut="3.0000000000000000e+00" cType="1" res="-2.8392260428518057e-03" rms="1.6240471974015236e-02" purity="2.5518340989947319e-02" nType="0">
            <Node pos="l" depth="3" NCoef="0" IVar="-1" Cut="0.0000000000000000e+00" cType="1" res="-1.1211089789867401e-01" rms="2.1341560781002045e-01" purity="3.6796536296606064e-02" nType="-99"/>
            <Node pos="r" depth="3" NCoef="0" IVar="-1" Cut="0.0000000000000000e+00" cType="1" res="-9.3311257660388947e-02" rms="1.1803324520587921e-01" purity="1.4157973229885101e-02" nType="-99"/>
          </Node>
        </Node>
        <Node pos="r" depth="1" NCoef="0" IVar="2" Cut="8.6982762813568115e-01" cType="1" res="7.7304571866989136e-02" rms="1.4245453476905823e-01" purity="9.6885353326797485e-01" nType="0">
          <Node pos="l" depth="2" NCoef="0" IVar="-1" Cut="0.0000000000000000e+00" cType="1" res="4.0715921670198441e-02" rms="2.8245389461517334e-01" purity="8.5996007919311523e-01" nType="-99"/>
          <Node pos="r" depth="2" NCoef="0" IVar="2" Cut="9.5494222640991211e-01" cType="1" res="8.2558155059814453e-02" rms="9.1515541076660156e-02" purity="9.9036401510238647e-01" nType="0">
            <Node pos="l" depth="3" NCoef="0" IVar="-1" Cut="0.0000000000000000e+00" cType="1" res="8.9515246450901031e-02" rms="1.3831222057342529e-01" purity="9.7678864002227783e-01" nType="-99"/>
            <Node pos="r" depth="3" NCoef="0" IVar="-1" Cut="0.0000000000000000e+00" cType="1" res="1.0643072426319122e-01" rms="5.4716389626264572e-02" purity="9.9712860584259033e-01" nType="-99"/>
          </Node>
        </Node>
      </Node>
    </BinaryTree>
    <BinaryTree type="DecisionTree" boostWeight="1.0000000000000000e+00" itree="10">
      <Node pos="s" depth="0" NCoef="0" IVar="2" Cut="1.5384615957736969e-01" cType="1" res="-1.6975053586065769e-04" rms="2.3410299420356750e-01" purity="5.0000000000000000e-01" nType="0">
        <Node pos="l" depth="1" NCoef="0" IVar="0" Cut="-1.1511464118957520e+00" cType="1" res="-6.5537884831428528e-02" rms="2.3657417297363281e-01" purity="9.6056148409843445e-02" nType="0">
          <Node pos="l" depth="2" NCoef="0" IVar="2" Cut="-6.2723767757415771e-01" cType="1" res="-7.9272635281085968e-02" rms="1.8182842433452606e-01" purity="4.2232304811477661e-02" nType="0">
            <Node pos="l" depth="3" NCoef="0" IVar="-1" Cut="0.0000000000000000e+00" cType="1" res="-8.5322894155979156e-02" rms="1.3656750321388245e-01" purity="2.1817630156874657e-02" nType="-99"/>
            <Node pos="r" depth="3" NCoef="0" IVar="-1" Cut="0.0000000000000000e+00" cType="1" res="-8.9529633522033691e-02" rms="2.3736470937728882e-01" purity="7.6745495200157166e-02" nType="-99"/>
          </Node>
          <Node pos="r" depth="2" NCoef="0" IVar="0" Cut="7.4142175912857056e-01" cType="1" res="-5.6773528456687927e-02" rms="2.6530486345291138e-01" purity="1.3040198385715485e-01" nType="0">
            <Node pos="l" depth="3" NCoef="0" IVar="-1" Cut="0.0000000000000000e+00" cType="1" res="-1.1240665800869465e-02" rms="3.7536942958831787e-01" purity="3.0209621787071228e-01" nType="-99"/>
            <Node pos="r" depth="3" NCoef="0" IVar="-1" Cut="0.0000000000000000e+00" cType="1" res="-7.8395769000053406e-02" rms="2.0012304186820984e-01" purity="5.8611407876014709e-02" nType="-99"/>
          </Node>
        </Node>
        <Node pos="r" depth="1" NCoef="0" IVar="1" Cut="3.0000000000000000e+00" cType="1" res="-6.5610324963927269e-03" rms="7.7948451042175293e-02" purity="7.9341280460357666e-01" nType="0">
          <Node pos="l" depth="2" NCoef="0" IVar="1" Cut="1.0000000000000000e+00" cType="1" res="9.5026363851502538e-04" rms="3.7944436073303223e-02" purity="8.6897981166839600e-01" nType="0">
            <Node pos="l" depth="3" NCoef="0" IVar="-1" Cut="0.0000000000000000e+00" cType="1" res="-1.0057503730058670e-01" rms="2.8297904133796692e-01" purity="2.1699474751949310e-01" nType="-99"/>
            <Node pos="r" depth="3" NCoef="0" IVar="-1" Cut="0.0000000000000000e+00" cType="1" res="9.8592668771743774e-02" rms="1.6877719759941101e-01" purity="9.6745669841766357e-01" nType="-99"/>
          </Node>
          <Node pos="r" depth="2" NCoef="0" IVar="-1" Cut="0.0000000000000000e+00" cType="1" res="-9.9300019443035126e-02" rms="2.8174135088920593e-01" purity="2.2047317028045654e-01" nType="-99"/>
        </Node>
      </Node>
    </BinaryTree>
    <BinaryTree type="DecisionTree" boostWeight="1.0000000000000000e+00" itree="11">
      <Node pos="s" depth="0" NCoef="0" IVar="2" Cut="1.5384615957736969e-01" cType="1" res="3.3930264180526137e-05" rms="2.2592306137084961e-01" purity="5.0000000000000000e-01" nType="0">
        <Node pos="l" depth="1" NCoef="0" IVar="1" Cut="3.0000000000000000e+00" cType="1" res="-4.2523252777755260e-03" rms="2.0949836820363998e-02" purity="9.6056148409843445e-02" nType="0">
          <Node pos="l" depth="2" NCoef="0" IVar="1" Cut="1.0000000000000000e+00" cType="1" res="-1.8619130423758179e-04" rms="1.3980321586132050e-02" purity="1.5358474850654602e-01" nType="0">
            <Node pos="l" depth="3" NCoef="0" IVar="-1" Cut="0.0000000000000000e+00" cType="1" res="-9.1697104275226593e-02" rms="1.3729807734489441e-01" purity="1.6308693215250969e-02" nType="-99"/>
            <Node pos="r" depth="3" NCoef="0" IVar="-1" Cut="0.0000000000000000e+00" cType="1" res="2.0857900381088257e-03" rms="4.8899078369140625e-01" purity="5.0977230072021484e-01" nType="-99"/>
          </Node>
          <Node pos="r" depth="2" NCoef="0" IVar="3" Cut="3.0000000000000000e+00" cType="1" res="-2.6111891493201256e-03" rms="1.3471346348524094e-02" purity="1.6873465850949287e-02" nType="0">
            <Node pos="l" depth="3" NCoef="0" IVar="-1" Cut="0.0000000000000000e+00" cType="1" res="-1.0043757408857346e-01" rms="1.6787932813167572e-01" purity="2.1157266572117805e-02" nType="-99"/>
            <Node pos="r" depth="3" NCoef="0" IVar="-1" Cut="0.0000000000000000e+00" cType="1" res="-8.4420420229434967e-02" rms="1.1806423217058182e-01" purity="1.4168058522045612e-02" nType="-99"/>
          </Node>
        </Node>
        <Node pos="r" depth="1" NCoef="0" IVar="1" Cut="3.0000000000000000e+00" cType="1" res="-5.7763941586017609e-03" rms="7.4390977621078491e-02" purity="7.9341280460357666e-01" nType="0">
          <Node pos="l" depth="2" NCoef="0" IVar="1" Cut="1.0000000000000000e+00" cType="1" res="5.4434227058663964e-04" rms="3.7625938653945923e-02" purity="8.6897981166839600e-01" nType="0">
            <Node pos="l" depth="3" NCoef="0" IVar="-1" Cut="0.0000000000000000e+00" cType="1" res="-8.5332162678241730e-02" rms="2.7838498353958130e-01" purity="2.1699474751949310e-01" nType="-99"/>
            <Node pos="r" depth="3" NCoef="0" IVar="-1" Cut="0.0000000000000000e+00" cType="1" res="9.0291693806648254e-02" rms="1.6557784378528595e-01" purity="9.6745669841766357e-01" nType="-99"/>
          </Node>
          <Node pos="r" depth="2" NCoef="0" IVar="-1" Cut="0.0000000000000000e+00" cType="1" res="-8.4412313997745514e-02" rms="2.7775064110755920e-01" purity="2.2047317028045654e-01" nType="-99"/>
        </Node>
      </Node>
    </BinaryTree>
    <BinaryTree type="DecisionTree" boostWeight="1.0000000000000000e+00" itree="12">
      <Node pos="s" depth="0" NCoef="0" IVar="2" Cut="1.5384615957736969e-01" cType="1" res="5.3243602451402694e-05" rms="2.1994923055171967e-01" purity="5.0000000000000000e-01" nType="0">
        <Node pos="l" depth="1" NCoef="0" IVar="1" Cut="3.0000000000000000e+00" cType="1" res="-3.6012353375554085e-03" rms="1.9148673862218857e-02" purity="9.6056148409843445e-02" nType="0">
          <Node pos="l" depth="2" NCoef="0" IVar="1" Cut="1.0000000000000000e+00" cType="1" res="-1.8705880211200565e-04" rms="1.3994041830301285e-02" purity="1.5358474850654602e-01" nType="0">
            <Node pos="l" depth="3" NCoef="0" IVar="-1" Cut="0.0000000000000000e+00" cType="1" res="-8.6145333945751190e-02" rms="1.3485585153102875e-01" purity="1.6308693215250969e-02" nType="-99"/>
            <Node pos="r" depth="3" NCoef="0" IVar="-1" Cut="0.0000000000000000e+00" cType="1" res="1.6686985036358237e-03" rms="4.8899230360984802e-01" purity="5.0977230072021484e-01" nType="-99"/>
          </Node>
          <Node pos="r" depth="2" NCoef="0" IVar="3" Cut="3.0000000000000000e+00" cType="1" res="-2.2215859498828650e-03" rms="1.1678027920424938e-02" purity="1.6873465850949287e-02" nType="0">
            <Node pos="l" depth="3" NCoef="0" IVar="-1" Cut="0.0000000000000000e+00" cType="1" res="-9.3581356108188629e-02" rms="1.6265754401683807e-01" purity="2.1157266572117805e-02" nType="-99"/>
            <Node pos="r" depth="3" NCoef="0" IVar="-1" Cut="0.0000000000000000e+00" cType="1" res="-7.9677648842334747e-02" rms="1.1807241290807724e-01" purity="1.4168058522045612e-02" nType="-99"/>
          </Node>
        </Node>
        <Node pos="r" depth="1" NCoef="0" IVar="2" Cut="3.1656861305236816e-01" cType="1" res="3.1428009271621704e-02" rms="2.0386278629302979e-01" purity="7.9341280460357666e-01" nType="0">
          <Node pos="l" depth="2" NCoef="0" IVar="2" Cut="2.1017305552959442e-01" cType="1" res="-5.0922531634569168e-02" rms="2.9652518033981323e-01" purity="2.2878001630306244e-01" nType="0">
            <Node pos="l" depth="3" NCoef="0" IVar="-1" Cut="0.0000000000000000e+00" cType="1" res="-5.0814658403396606e-02" rms="2.9469349980354309e-01" purity="2.0243142545223236e-01" nType="-99"/>
            <Node pos="r" depth="3" NCoef="0" IVar="-1" Cut="0.0000000000000000e+00" cType="1" res="-2.7741828933358192e-02" rms="2.9755526781082153e-01" purity="2.5217247009277344e-01" nType="-99"/>
          </Node>
          <Node pos="r" depth="2" NCoef="0" IVar="2" Cut="5.7942742109298706e-01" cType="1" res="4.9997754395008087e-02" rms="1.7096887528896332e-01" purity="9.2073547840118408e-01" nType="0">
            <Node pos="l" depth="3" NCoef="0" IVar="-1" Cut="0.0000000000000000e+00" cType="1" res="5.7131741195917130e-02" rms="3.2826301455497742e-01" purity="5.5535411834716797e-01" nType="-99"/>
            <Node pos="r" depth="3" NCoef="0" IVar="-1" Cut="0.0000000000000000e+00" cType="1" res="7.2348959743976593e-02" rms="1.3599878549575806e-01" purity="9.6900516748428345e-01" nType="-99"/>
          </Node>
        </Node>
      </Node>
    </BinaryTree>
    <BinaryTree type="DecisionTree" boostWeight="1.0000000000000000e+00" itree="13">
      <Node pos="s" depth="0" NCoef="0" IVar="1" Cut="3.0000000000000000e+00" cType="1" res="-1.2924993643537164e-03" rms="1.1642523109912872e-02" purity="5.0000000000000000e-01" nType="0">
        <Node pos="l" depth="1" NCoef="0" IVar="1" Cut="1.0000000000000000e+00" cType="1" res="-6.0566337197087705e-05" rms="7.9548768699169159e-03" purity="6.3820403814315796e-01" nType="0">
          <Node pos="l" depth="2" NCoef="0" IVar="3" Cut="3.0000000000000000e+00" cType="1" res="-6.6207121562911198e-06" rms="1.5738919377326965e-02" purity="7.1755506098270416e-02" nType="0">
            <Node pos="l" depth="3" NCoef="0" IVar="-1" Cut="0.0000000000000000e+00" cType="1" res="-8.0550409853458405e-02" rms="2.2636695206165314e-01" purity="1.2232284247875214e-01" nType="-99"/>
            <Node pos="r" depth="3" NCoef="0" IVar="-1" Cut="0.0000000000000000e+00" cType="1" res="-7.4589259922504425e-02" rms="1.1388597637414932e-01" purity="1.3181263580918312e-02" nType="-99"/>
          </Node>
          <Node pos="r" depth="2" NCoef="0" IVar="3" Cut="2.0000000000000000e+00" cType="1" res="-2.3748206149321049e-04" rms="1.7315832898020744e-02" purity="9.0690141916275024e-01" nType="0">
            <Node pos="l" depth="3" NCoef="0" IVar="-1" Cut="0.0000000000000000e+00" cType="1" res="8.0069057643413544e-02" rms="1.6663867235183716e-01" purity="9.6580964326858521e-01" nType="-99"/>
            <Node pos="r" depth="3" NCoef="0" IVar="-1" Cut="0.0000000000000000e+00" cType="1" res="-5.3825080394744873e-03" rms="4.9118798971176147e-01" purity="4.9067834019660950e-01" nType="-99"/>
          </Node>
        </Node>
        <Node pos="r" depth="1" NCoef="0" IVar="3" Cut="3.0000000000000000e+00" cType="1" res="-1.3825239147990942e-03" rms="8.7695550173521042e-03" purity="7.3067881166934967e-02" nType="0">
          <Node pos="l" depth="2" NCoef="0" IVar="2" Cut="1.5384615957736969e-01" cType="1" res="-6.8885967135429382e-02" rms="2.2619450092315674e-01" purity="1.2380930036306381e-01" nType="0">
            <Node pos="l" depth="3" NCoef="0" IVar="-1" Cut="0.0000000000000000e+00" cType="1" res="-8.6819037795066833e-02" rms="1.5834431350231171e-01" purity="2.1157266572117805e-02" nType="-99"/>
            <Node pos="r" depth="3" NCoef="0" IVar="-1" Cut="0.0000000000000000e+00" cType="1" res="-7.5768001377582550e-02" rms="2.8174272179603577e-01" purity="2.3603010177612305e-01" nType="-99"/>
          </Node>
          <Node pos="r" depth="2" NCoef="0" IVar="0" Cut="-2.8897314071655273e+00" cType="1" res="-3.5003054887056351e-02" rms="1.1857876181602478e-01" purity="1.4311714097857475e-02" nType="0">
            <Node pos="l" depth="3" NCoef="0" IVar="-1" Cut="0.0000000000000000e+00" cType="1" res="-8.9082300662994385e-02" rms="8.4106244146823883e-02" purity="7.1266428567469120e-03" nType="-99"/>
            <Node pos="r" depth="3" NCoef="0" IVar="-1" Cut="0.0000000000000000e+00" cType="1" res="-6.0260843485593796e-02" rms="1.4712157845497131e-01" purity="2.2169619798660278e-02" nType="-99"/>
          </Node>
        </Node>
      </Node>
    </BinaryTree>
    <BinaryTree type="DecisionTree" boostWeight="1.0000000000000000e+00" itree="14">
      <Node pos="s" depth="0" NCoef="0" IVar="2" Cut="1.5384615957736969e-01" cType="1" res="3.9892234781291336e-05" rms="2.1373338997364044e-01" purity="5.0000000000000000e-01" nType="0">
        <Node pos="l" depth="1" NCoef="0" IVar="0" Cut="-7.6674079895019531e-01" cType="1" res="-2.9953528195619583e-02" rms="2.3066706955432892e-01" purity="9.6056148409843445e-02" nType="0">
          <Node pos="l" depth="2" NCoef="0" IVar="2" Cut="-6.2722223997116089e-01" cType="1" res="-3.8409244269132614e-02" rms="1.9628132879734039e-01" purity="5.8859888464212418e-02" nType="0">
            <Node pos="l" depth="3" NCoef="0" IVar="-1" Cut="0.0000000000000000e+00" cType="1" res="-6.0353010892868042e-02" rms="1.3795416057109833e-01" purity="2.3780781775712967e-02" nType="-99"/>
            <Node pos="r" depth="3" NCoef="0" IVar="-1" Cut="0.0000000000000000e+00" cType="1" res="-5.6101724505424500e-02" rms="2.5263923406600952e-01" purity="1.0516252368688583e-01" nType="-99"/>
          </Node>
          <Node pos="r" depth="2" NCoef="0" IVar="0" Cut="7.8571319580078125e-01" cType="1" res="-2.3507704958319664e-02" rms="2.5357952713966370e-01" purity="1.2441099435091019e-01" nType="0">
            <Node pos="l" depth="3" NCoef="0" IVar="-1" Cut="0.0000000000000000e+00" cType="1" res="7.8783687204122543e-03" rms="3.7954300642013550e-01" purity="3.2930609583854675e-01" nType="-99"/>
            <Node pos="r" depth="3" NCoef="0" IVar="-1" Cut="0.0000000000000000e+00" cType="1" res="-5.5712986737489700e-02" rms="1.9304075837135315e-01" purity="5.6412670761346817e-02" nType="-99"/>
          </Node>
        </Node>
        <Node pos="r" depth="1" NCoef="0" IVar="1" Cut="3.0000000000000000e+00" cType="1" res="-4.8022381961345673e-03" rms="6.9905214011669159e-02" purity="7.9341280460357666e-01" nType="0">
          <Node pos="l" depth="2" NCoef="0" IVar="1" Cut="1.0000000000000000e+00" cType="1" res="-1.2355056242085993e-04" rms="3.7264052778482437e-02" purity="8.6897981166839600e-01" nType="0">
            <Node pos="l" depth="3" NCoef="0" IVar="-1" Cut="0.0000000000000000e+00" cType="1" res="-6.3345305621623993e-02" rms="2.7155661582946777e-01" purity="2.1699474751949310e-01" nType="-99"/>
            <Node pos="r" depth="3" NCoef="0" IVar="-1" Cut="0.0000000000000000e+00" cType="1" res="7.3267489671707153e-02" rms="1.6046646237373352e-01" purity="9.6745669841766357e-01" nType="-99"/>
          </Node>
          <Node pos="r" depth="2" NCoef="0" IVar="-1" Cut="0.0000000000000000e+00" cType="1" res="-6.3501477241516113e-02" rms="2.7173903584480286e-01" purity="2.2047317028045654e-01" nType="-99"/>
        </Node>
      </Node>
    </BinaryTree>
    <BinaryTree type="DecisionTree" boostWeight="1.0000000000000000e+00" itree="15">
      <Node pos="s" depth="0" NCoef="0" IVar="2" Cut="5.7692307233810425e-01" cType="1" res="1.2704687833320349e-04" rms="2.1127648651599884e-01" purity="5.0000000000000000e-01" nType="0">
        <Node pos="l" depth="1" NCoef="0" IVar="0" Cut="1.5396928787231445e+00" cType="1" res="-1.8477980047464371e-02" rms="2.5096911191940308e-01" purity="1.6342328488826752e-01" nType="0">
          <Node pos="l" depth="2" NCoef="0" IVar="1" Cut="3.0000000000000000e+00" cType="1" res="-6.7552021937444806e-04" rms="5.7393270544707775e-03" purity="2.1482406556606293e-01" nType="0">
            <Node pos="l" depth="3" NCoef="0" IVar="-1" Cut="0.0000000000000000e+00" cType="1" res="1.6644652932882309e-02" rms="3.7951281666755676e-01" purity="4.7436380386352539e-01" nType="-99"/>
            <Node pos="r" depth="3" NCoef="0" IVar="-1" Cut="0.0000000000000000e+00" cType="1" res="-6.7482776939868927e-02" rms="1.5827785432338715e-01" purity="2.5518340989947319e-02" nType="-99"/>
          </Node>
          <Node pos="r" depth="2" NCoef="0" IVar="2" Cut="-6.4356303215026855e-01" cType="1" res="-3.8776334375143051e-02" rms="1.8658205866813660e-01" purity="5.6550126522779465e-02" nType="0">
            <Node pos="l" depth="3" NCoef="0" IVar="-1" Cut="0.0000000000000000e+00" cType="1" res="-6.2637962400913239e-02" rms="1.2583044171333313e-01" purity="1.7708875238895416e-02" nType="-99"/>
            <Node pos="r" depth="3" NCoef="0" IVar="-1" Cut="0.0000000000000000e+00" cType="1" res="-6.3391029834747314e-02" rms="2.3751762509346008e-01" purity="1.0206059366464615e-01" nType="-99"/>
          </Node>
        </Node>
        <Node pos="r" depth="1" NCoef="0" IVar="2" Cut="8.6982762813568115e-01" cType="1" res="2.6043970137834549e-02" rms="1.3388560712337494e-01" purity="9.6885353326797485e-01" nType="0">
          <Node pos="l" depth="2" NCoef="0" IVar="-1" Cut="0.0000000000000000e+00" cType="1" res="-6.9098556414246559e-03" rms="2.5978878140449524e-01" purity="8.5996007919311523e-01" nType="-99"/>
          <Node pos="r" depth="2" NCoef="0" IVar="2" Cut="9.1989725828170776e-01" cType="1" res="3.2225415110588074e-02" rms="8.8897734880447388e-02" purity="9.9036401510238647e-01" nType="0">
            <Node pos="l" depth="3" NCoef="0" IVar="-1" Cut="0.0000000000000000e+00" cType="1" res="5.0495963543653488e-02" rms="1.5407279133796692e-01" purity="9.6685373783111572e-01" nType="-99"/>
            <Node pos="r" depth="3" NCoef="0" IVar="-1" Cut="0.0000000000000000e+00" cType="1" res="9.2727988958358765e-02" rms="7.1096733212471008e-02" purity="9.9456405639648438e-01" nType="-99"/>
          </Node>
        </Node>
      </Node>
    </BinaryTree>
    <BinaryTree type="DecisionTree" boostWeight="1.0000000000000000e+00" itree="16">
      <Node pos="s" depth="0" NCoef="0" IVar="1" Cut="1.0000000000000000e+00" cType="1" res="-8.3374942187219858e-04" rms="1.0052476078271866e-02" purity="5.0000000000000000e-01" nType="0">
        <Node pos="l" depth="1" NCoef="0" IVar="3" Cut="3.0000000000000000e+00" cType="1" res="4.4499869545688853e-05" rms="1.5777183696627617e-02" purity="7.1755506098270416e-02" nType="0">
          <Node pos="l" depth="2" NCoef="0" IVar="0" Cut="1.8282073736190796e+00" cType="1" res="-4.3957896530628204e-02" rms="2.1998676657676697e-01" purity="1.2232284247875214e-01" nType="0">
            <Node pos="l" depth="3" NCoef="0" IVar="-1" Cut="0.0000000000000000e+00" cType="1" res="-4.7695022076368332e-02" rms="2.4334444105625153e-01" purity="1.7735385894775391e-01" nType="-99"/>
            <Node pos="r" depth="3" NCoef="0" IVar="-1" Cut="0.0000000000000000e+00" cType="1" res="-7.6941847801208496e-02" rms="1.9272689521312714e-01" purity="6.5648704767227173e-02" nType="-99"/>
          </Node>
          <Node pos="r" depth="2" NCoef="0" IVar="0" Cut="2.9516716003417969e+00" cType="1" res="-1.8997121602296829e-02" rms="1.1391276866197586e-01" purity="1.3181263580918312e-02" nType="0">
            <Node pos="l" depth="3" NCoef="0" IVar="-1" Cut="0.0000000000000000e+00" cType="1" res="-4.4571243226528168e-02" rms="1.3917586207389832e-01" purity="1.9765818491578102e-02" nType="-99"/>
            <Node pos="r" depth="3" NCoef="0" IVar="-1" Cut="0.0000000000000000e+00" cType="1" res="-8.1592068076133728e-02" rms="7.8133456408977509e-02" purity="6.1430702917277813e-03" nType="-99"/>
          </Node>
        </Node>
        <Node pos="r" depth="1" NCoef="0" IVar="1" Cut="3.0000000000000000e+00" cType="1" res="-3.8784218486398458e-04" rms="4.1330987587571144e-03" purity="6.3751024007797241e-01" nType="0">
          <Node pos="l" depth="2" NCoef="0" IVar="3" Cut="2.0000000000000000e+00" cType="1" res="-2.2044905927032232e-04" rms="1.7255239188671112e-02" purity="9.0690141916275024e-01" nType="0">
            <Node pos="l" depth="3" NCoef="0" IVar="-1" Cut="0.0000000000000000e+00" cType="1" res="6.4095780253410339e-02" rms="1.6361095011234283e-01" purity="9.6580964326858521e-01" nType="-99"/>
            <Node pos="r" depth="3" NCoef="0" IVar="-1" Cut="0.0000000000000000e+00" cType="1" res="-5.3431484848260880e-03" rms="4.8865497112274170e-01" purity="4.9067834019660950e-01" nType="-99"/>
          </Node>
          <Node pos="r" depth="2" NCoef="0" IVar="2" Cut="-6.9230771064758301e-01" cType="1" res="-3.0657621100544930e-02" rms="1.8048496544361115e-01" purity="7.3067881166934967e-02" nType="0">
            <Node pos="l" depth="3" NCoef="0" IVar="-1" Cut="0.0000000000000000e+00" cType="1" res="-5.6854419410228729e-02" rms="1.2155602872371674e-01" purity="1.4902490191161633e-02" nType="-99"/>
            <Node pos="r" depth="3" NCoef="0" IVar="-1" Cut="0.0000000000000000e+00" cType="1" res="-5.8786511421203613e-02" rms="2.1235877275466919e-01" purity="1.1462623625993729e-01" nType="-99"/>
          </Node>
        </Node>
      </Node>
    </BinaryTree>
    <BinaryTree type="DecisionTree" boostWeight="1.0000000000000000e+00" itree="17">
      <Node pos="s" depth="0" NCoef="0" IVar="3" Cut="1.0000000000000000e+00" cType="1" res="-7.4120104545727372e-04" rms="9.8024141043424606e-03" purity="5.0000000000000000e-01" nType="0">
        <Node pos="l" depth="1" NCoef="0" IVar="0" Cut="-9.7678852081298828e-01" cType="1" res="2.7051564306020737e-02" rms="9.1687090694904327e-02" purity="9.8761111497879028e-01" nType="0">
          <Node pos="l" depth="2" NCoef="0" IVar="-1" Cut="0.0000000000000000e+00" cType="1" res="7.3238082230091095e-02" rms="1.1630554497241974e-01" purity="9.7700935602188110e-01" nType="-99"/>
          <Node pos="r" depth="2" NCoef="0" IVar="0" Cut="7.6715713739395142e-01" cType="1" res="2.6407310739159584e-02" rms="8.5054129362106323e-02" purity="9.9003374576568604e-01" nType="0">
            <Node pos="l" depth="3" NCoef="0" IVar="-1" Cut="0.0000000000000000e+00" cType="1" res="8.8711783289909363e-02" rms="7.1257606148719788e-02" purity="9.9430888891220093e-01" nType="-99"/>
            <Node pos="r" depth="3" NCoef="0" IVar="-1" Cut="0.0000000000000000e+00" cType="1" res="7.3347046971321106e-02" rms="1.1051491647958755e-01" purity="9.8015367984771729e-01" nType="-99"/>
          </Node>
        </Node>
        <Node pos="r" depth="1" NCoef="0" IVar="1" Cut="1.0000000000000000e+00" cType="1" res="-1.0148528963327408e-03" rms="1.1457971297204494e-02" purity="3.1997364759445190e-01" nType="0">
          <Node pos="l" depth="2" NCoef="0" IVar="3" Cut="3.0000000000000000e+00" cType="1" res="3.0186323783709668e-05" rms="8.9833708480000496e-03" purity="4.4497326016426086e-02" nType="0">
            <Node pos="l" depth="3" NCoef="0" IVar="-1" Cut="0.0000000000000000e+00" cType="1" res="-6.3391953706741333e-02" rms="2.1452264487743378e-01" purity="7.3298960924148560e-02" nType="-99"/>
            <Node pos="r" depth="3" NCoef="0" IVar="-1" Cut="0.0000000000000000e+00" cType="1" res="-5.5553507059812546e-02" rms="1.1388459801673889e-01" purity="1.3181263580918312e-02" nType="-99"/>
          </Node>
          <Node pos="r" depth="2" NCoef="0" IVar="1" Cut="3.0000000000000000e+00" cType="1" res="-5.3046707762405276e-04" rms="4.7206329181790352e-03" purity="4.5070821046829224e-01" nType="0">
            <Node pos="l" depth="3" NCoef="0" IVar="-1" Cut="0.0000000000000000e+00" cType="1" res="1.9429422914981842e-02" rms="3.1686741113662720e-01" purity="8.2067823410034180e-01" nType="-99"/>
            <Node pos="r" depth="3" NCoef="0" IVar="-1" Cut="0.0000000000000000e+00" cType="1" res="-5.8691751211881638e-02" rms="1.7525070905685425e-01" purity="4.4801991432905197e-02" nType="-99"/>
          </Node>
        </Node>
      </Node>
    </BinaryTree>
    <BinaryTree type="DecisionTree" boostWeight="1.0000000000000000e+00" itree="18">
      <Node pos="s" depth="0" NCoef="0" IVar="2" Cut="1.5384615957736969e-01" cType="1" res="1.1383293167455122e-04" rms="2.0728532969951630e-01" purity="5.0000000000000000e-01" nType="0">
        <Node pos="l" depth="1" NCoef="0" IVar="2" Cut="-6.2722223997116089e-01" cType="1" res="-1.6851263120770454e-02" rms="2.2810554504394531e-01" purity="9.6056148409843445e-02" nType="0">
          <Node pos="l" depth="2" NCoef="0" IVar="2" Cut="-9.6538457870483398e+00" cType="1" res="-8.7750181555747986e-03" rms="1.4007744193077087e-01" purity="2.7204770594835281e-02" nType="0">
            <Node pos="l" depth="3" NCoef="0" IVar="-1" Cut="0.0000000000000000e+00" cType="1" res="-6.7048899829387665e-02" rms="9.8859831690788269e-02" purity="1.0015770792961121e-02" nType="-99"/>
            <Node pos="r" depth="3" NCoef="0" IVar="-1" Cut="0.0000000000000000e+00" cType="1" res="3.0333694070577621e-02" rms="2.1397715806961060e-01" purity="7.4010036885738373e-02" nType="-99"/>
          </Node>
          <Node pos="r" depth="2" NCoef="0" IVar="0" Cut="-1.0708305835723877e+00" cType="1" res="-2.4792598560452461e-02" rms="2.8943738341331482e-01" purity="1.6375741362571716e-01" nType="0">
            <Node pos="l" depth="3" NCoef="0" IVar="-1" Cut="0.0000000000000000e+00" cType="1" res="-5.3205065429210663e-02" rms="2.3208181560039520e-01" purity="8.2111857831478119e-02" nType="-99"/>
            <Node pos="r" depth="3" NCoef="0" IVar="-1" Cut="0.0000000000000000e+00" cType="1" res="-1.6484700143337250e-02" rms="3.1112679839134216e-01" purity="1.9967335462570190e-01" nType="-99"/>
          </Node>
        </Node>
        <Node pos="r" depth="1" NCoef="0" IVar="2" Cut="2.8402423858642578e-01" cType="1" res="1.2436774559319019e-02" rms="1.8979409337043762e-01" purity="7.9341280460357666e-01" nType="0">
          <Node pos="l" depth="2" NCoef="0" IVar="-1" Cut="0.0000000000000000e+00" cType="1" res="-3.3721443265676498e-02" rms="2.7898555994033813e-01" purity="2.1963466703891754e-01" nType="-99"/>
          <Node pos="r" depth="2" NCoef="0" IVar="2" Cut="5.8693790435791016e-01" cType="1" res="2.1161079406738281e-02" rms="1.6606530547142029e-01" purity="9.0276706218719482e-01" nType="0">
            <Node pos="l" depth="3" NCoef="0" IVar="-1" Cut="0.0000000000000000e+00" cType="1" res="3.9068412035703659e-02" rms="2.9948204755783081e-01" purity="5.0641596317291260e-01" nType="-99"/>
            <Node pos="r" depth="3" NCoef="0" IVar="-1" Cut="0.0000000000000000e+00" cType="1" res="4.8290617763996124e-02" rms="1.3024269044399261e-01" purity="9.6952956914901733e-01" nType="-99"/>
          </Node>
        </Node>
      </Node>
    </BinaryTree>
    <BinaryTree type="DecisionTree" boostWeight="1.0000000000000000e+00" itree="19">
      <Node pos="s" depth="0" NCoef="0" IVar="1" Cut="1.0000000000000000e+00" cType="1" res="-5.6746887275949121e-04" rms="9.3533610925078392e-03" purity="5.0000000000000000e-01" nType="0">
        <Node pos="l" depth="1" NCoef="0" IVar="2" Cut="-6.9230771064758301e-01" cType="1" res="-2.0928582176566124e-02" rms="1.7662373185157776e-01" purity="7.1755506098270416e-02" nType="0">
          <Node pos="l" depth="2" NCoef="0" IVar="-1" Cut="0.0000000000000000e+00" cType="1" res="-4.2807247489690781e-02" rms="1.1526714265346527e-01" purity="1.3419726863503456e-02" nType="-99"/>
          <Node pos="r" depth="2" NCoef="0" IVar="0" Cut="1.8144717216491699e+00" cType="1" res="-2.9120247811079025e-02" rms="2.0960530638694763e-01" purity="1.1377006769180298e-01" nType="0">
            <Node pos="l" depth="3" NCoef="0" IVar="-1" Cut="0.0000000000000000e+00" cType="1" res="-3.7366915494203568e-02" rms="2.2314529120922089e-01" purity="1.4889843761920929e-01" nType="-99"/>
            <Node pos="r" depth="3" NCoef="0" IVar="-1" Cut="0.0000000000000000e+00" cType="1" res="-6.3983239233493805e-02" rms="1.9061850011348724e-01" purity="6.8847335875034332e-02" nType="-99"/>
          </Node>
        </Node>
        <Node pos="r" depth="1" NCoef="0" IVar="1" Cut="3.0000000000000000e+00" cType="1" res="-2.7106370544061065e-04" rms="3.2788817770779133e-03" purity="6.3751024007797241e-01" nType="0">
          <Node pos="l" depth="2" NCoef="0" IVar="3" Cut="2.0000000000000000e+00" cType="1" res="-2.1640254999510944e-04" rms="1.7368884757161140e-02" purity="9.0690141916275024e-01" nType="0">
            <Node pos="l" depth="3" NCoef="0" IVar="-1" Cut="0.0000000000000000e+00" cType="1" res="5.0284788012504578e-02" rms="1.6232790052890778e-01" purity="9.6580964326858521e-01" nType="-99"/>
            <Node pos="r" depth="3" NCoef="0" IVar="-1" Cut="0.0000000000000000e+00" cType="1" res="-4.8022335395216942e-03" rms="4.8734509944915771e-01" purity="4.9067834019660950e-01" nType="-99"/>
          </Node>
          <Node pos="r" depth="2" NCoef="0" IVar="3" Cut="3.0000000000000000e+00" cType="1" res="-6.3210993539541960e-04" rms="5.1281885243952274e-03" purity="7.3067881166934967e-02" nType="0">
            <Node pos="l" depth="3" NCoef="0" IVar="-1" Cut="0.0000000000000000e+00" cType="1" res="-4.4535234570503235e-02" rms="2.1678069233894348e-01" purity="1.2380930036306381e-01" nType="-99"/>
            <Node pos="r" depth="3" NCoef="0" IVar="-1" Cut="0.0000000000000000e+00" cType="1" res="-4.3270248919725418e-02" rms="1.1845888197422028e-01" purity="1.4311714097857475e-02" nType="-99"/>
          </Node>
        </Node>
      </Node>
    </BinaryTree>
    <BinaryTree type="DecisionTree" boostWeight="1.0000000000000000e+00" itree="20">
      <Node pos="s" depth="0" NCoef="0" IVar="3" Cut="1.0000000000000000e+00" cType="1" res="-5.1689340034499764e-04" rms="9.2560555785894394e-03" purity="5.0000000000000000e-01" nType="0">
        <Node pos="l" depth="1" NCoef="0" IVar="0" Cut="-9.7678852081298828e-01" cType="1" res="1.8090976402163506e-02" rms="9.0891987085342407e-02" purity="9.8761111497879028e-01" nType="0">
          <Node pos="l" depth="2" NCoef="0" IVar="-1" Cut="0.0000000000000000e+00" cType="1" res="6.2040600925683975e-02" rms="1.1555200070142746e-01" purity="9.7700935602188110e-01" nType="-99"/>
          <Node pos="r" depth="2" NCoef="0" IVar="0" Cut="4.1836801171302795e-01" cType="1" res="1.7616372555494308e-02" rms="8.4242552518844604e-02" purity="9.9003374576568604e-01" nType="0">
            <Node pos="l" depth="3" NCoef="0" IVar="-1" Cut="0.0000000000000000e+00" cType="1" res="8.0262757837772369e-02" rms="7.1858450770378113e-02" purity="9.9409449100494385e-01" nType="-99"/>
            <Node pos="r" depth="3" NCoef="0" IVar="-1" Cut="0.0000000000000000e+00" cType="1" res="6.7412592470645905e-02" rms="9.7597494721412659e-02" purity="9.8492980003356934e-01" nType="-99"/>
          </Node>
        </Node>
        <Node pos="r" depth="1" NCoef="0" IVar="0" Cut="-1.5355520248413086e+00" cType="1" res="-6.5417508594691753e-03" rms="2.3427216708660126e-01" purity="3.1997364759445190e-01" nType="0">
          <Node pos="l" depth="2" NCoef="0" IVar="2" Cut="-6.9230771064758301e-01" cType="1" res="-2.2869631648063660e-02" rms="1.9196872413158417e-01" purity="1.0833282023668289e-01" nType="0">
            <Node pos="l" depth="3" NCoef="0" IVar="-1" Cut="0.0000000000000000e+00" cType="1" res="-3.6221623420715332e-02" rms="1.3136747479438782e-01" purity="1.9462635740637779e-02" nType="-99"/>
            <Node pos="r" depth="3" NCoef="0" IVar="-1" Cut="0.0000000000000000e+00" cType="1" res="-5.2615869790315628e-02" rms="2.3697756230831146e-01" purity="1.9766226410865784e-01" nType="-99"/>
          </Node>
          <Node pos="r" depth="2" NCoef="0" IVar="0" Cut="1.2293106317520142e+00" cType="1" res="-2.2588210413232446e-04" rms="2.4842558801174164e-01" purity="4.0183949470520020e-01" nType="0">
            <Node pos="l" depth="3" NCoef="0" IVar="-1" Cut="0.0000000000000000e+00" cType="1" res="1.6599237918853760e-02" rms="2.7853906154632568e-01" purity="6.0710459947586060e-01" nType="-99"/>
            <Node pos="r" depth="3" NCoef="0" IVar="-1" Cut="0.0000000000000000e+00" cType="1" res="-3.7009809166193008e-02" rms="2.0335792005062103e-01" purity="1.4695984125137329e-01" nType="-99"/>
          </Node>
        </Node>
      </Node>
    </BinaryTree>
    <BinaryTree type="DecisionTree" boostWeight="1.0000000000000000e+00" itree="21">
      <Node pos="s" depth="0" NCoef="0" IVar="2" Cut="1.5384615957736969e-01" cType="1" res="1.1479842214612290e-04" rms="2.0531851053237915e-01" purity="5.0000000000000000e-01" nType="0">
        <Node pos="l" depth="1" NCoef="0" IVar="2" Cut="-6.2722223997116089e-01" cType="1" res="-1.1342091485857964e-02" rms="2.2697988152503967e-01" purity="9.6056148409843445e-02" nType="0">
          <Node pos="l" depth="2" NCoef="0" IVar="2" Cut="-9.6538457870483398e+00" cType="1" res="-3.7654268089681864e-03" rms="1.3935075700283051e-01" purity="2.7204770594835281e-02" nType="0">
            <Node pos="l" depth="3" NCoef="0" IVar="-1" Cut="0.0000000000000000e+00" cType="1" res="-5.4445799440145493e-02" rms="9.8516315221786499e-02" purity="1.0015770792961121e-02" nType="-99"/>
            <Node pos="r" depth="3" NCoef="0" IVar="-1" Cut="0.0000000000000000e+00" cType="1" res="3.5548835992813110e-02" rms="2.1309943497180939e-01" purity="7.4010036885738373e-02" nType="-99"/>
          </Node>
          <Node pos="r" depth="2" NCoef="0" IVar="2" Cut="9.4710975885391235e-02" cType="1" res="-1.8792193382978439e-02" rms="2.8805020451545715e-01" purity="1.6375741362571716e-01" nType="0">
            <Node pos="l" depth="3" NCoef="0" IVar="-1" Cut="0.0000000000000000e+00" cType="1" res="-2.6291422545909882e-02" rms="2.8587752580642700e-01" purity="1.5093950927257538e-01" nType="-99"/>
            <Node pos="r" depth="3" NCoef="0" IVar="-1" Cut="0.0000000000000000e+00" cType="1" res="-8.2673896104097366e-03" rms="2.9162961244583130e-01" purity="1.8690584599971771e-01" nType="-99"/>
          </Node>
        </Node>
        <Node pos="r" depth="1" NCoef="0" IVar="2" Cut="2.5147989392280579e-01" cType="1" res="8.4367431700229645e-03" rms="1.8758793175220490e-01" purity="7.9341280460357666e-01" nType="0">
          <Node pos="l" depth="2" NCoef="0" IVar="-1" Cut="0.0000000000000000e+00" cType="1" res="-3.0487770214676857e-02" rms="2.7742767333984375e-01" purity="2.1333941817283630e-01" nType="-99"/>
          <Node pos="r" depth="2" NCoef="0" IVar="0" Cut="-1.5567730665206909e+00" cType="1" res="1.3881415128707886e-02" rms="1.6948099434375763e-01" purity="8.8001686334609985e-01" nType="0">
            <Node pos="l" depth="3" NCoef="0" IVar="-1" Cut="0.0000000000000000e+00" cType="1" res="-1.1341244913637638e-02" rms="2.4264796078205109e-01" purity="6.0688340663909912e-01" nType="-99"/>
            <Node pos="r" depth="3" NCoef="0" IVar="-1" Cut="0.0000000000000000e+00" cType="1" res="4.1747696697711945e-02" rms="1.5819764137268066e-01" purity="9.1293293237686157e-01" nType="-99"/>
          </Node>
        </Node>
      </Node>
    </BinaryTree>
    <BinaryTree type="DecisionTree" boostWeight="1.0000000000000000e+00" itree="22">
      <Node pos="s" depth="0" NCoef="0" IVar="1" Cut="1.0000000000000000e+00" cType="1" res="-4.2199640301987529e-04" rms="9.0282429009675980e-03" purity="5.0000000000000000e-01" nType="0">
        <Node pos="l" depth="1" NCoef="0" IVar="2" Cut="-6.9230771064758301e-01" cType="1" res="-1.5721047297120094e-02" rms="1.7553934454917908e-01" purity="7.1755506098270416e-02" nType="0">
          <Node pos="l" depth="2" NCoef="0" IVar="-1" Cut="0.0000000000000000e+00" cType="1" res="-2.9498975723981857e-02" rms="1.1515594273805618e-01" purity="1.3419726863503456e-02" nType="-99"/>
          <Node pos="r" depth="2" NCoef="0" IVar="0" Cut="1.8144717216491699e+00" cType="1" res="-2.3142555728554726e-02" rms="2.0814572274684906e-01" purity="1.1377006769180298e-01" nType="0">
            <Node pos="l" depth="3" NCoef="0" IVar="-1" Cut="0.0000000000000000e+00" cType="1" res="-3.3704891800880432e-02" rms="2.2217257320880890e-01" purity="1.4889843761920929e-01" nType="-99"/>
            <Node pos="r" depth="3" NCoef="0" IVar="-1" Cut="0.0000000000000000e+00" cType="1" res="-5.4713830351829529e-02" rms="1.8858578801155090e-01" purity="6.8847335875034332e-02" nType="-99"/>
          </Node>
        </Node>
        <Node pos="r" depth="1" NCoef="0" IVar="1" Cut="3.0000000000000000e+00" cType="1" res="-2.0768282411154360e-04" rms="2.8541851788759232e-03" purity="6.3751024007797241e-01" nType="0">
          <Node pos="l" depth="2" NCoef="0" IVar="0" Cut="1.4045653343200684e+00" cType="1" res="1.3950131833553314e-02" rms="2.2803102433681488e-01" purity="9.0690141916275024e-01" nType="0">
            <Node pos="l" depth="3" NCoef="0" IVar="-1" Cut="0.0000000000000000e+00" cType="1" res="2.6222502812743187e-02" rms="2.2096686065196991e-01" purity="9.1572695970535278e-01" nType="-99"/>
            <Node pos="r" depth="3" NCoef="0" IVar="-1" Cut="0.0000000000000000e+00" cType="1" res="-1.0188491083681583e-02" rms="2.8302711248397827e-01" purity="8.2703036069869995e-01" nType="-99"/>
          </Node>
          <Node pos="r" depth="2" NCoef="0" IVar="2" Cut="-6.9230771064758301e-01" cType="1" res="-1.3184614479541779e-02" rms="1.7698566615581512e-01" purity="7.3067881166934967e-02" nType="0">
            <Node pos="l" depth="3" NCoef="0" IVar="-1" Cut="0.0000000000000000e+00" cType="1" res="-2.6522850617766380e-02" rms="1.2113739550113678e-01" purity="1.4902490191161633e-02" nType="-99"/>
            <Node pos="r" depth="3" NCoef="0" IVar="-1" Cut="0.0000000000000000e+00" cType="1" res="-3.6298260092735291e-02" rms="2.0770569145679474e-01" purity="1.1462623625993729e-01" nType="-99"/>
          </Node>
        </Node>
      </Node>
    </BinaryTree>
    <BinaryTree type="DecisionTree" boostWeight="1.0000000000000000e+00" itree="23">
      <Node pos="s" depth="0" NCoef="0" IVar="2" Cut="1.5384615957736969e-01" cType="1" res="6.8932051362935454e-05" rms="2.0451745390892029e-01" purity="5.0000000000000000e-01" nType="0">
        <Node pos="l" depth="1" NCoef="0" IVar="2" Cut="-6.2722223997116089e-01" cType="1" res="-9.3819778412580490e-03" rms="2.2641344368457794e-01" purity="9.6056148409843445e-02" nType="0">
          <Node pos="l" depth="2" NCoef="0" IVar="2" Cut="-9.6538457870483398e+00" cType="1" res="-2.2688596509397030e-03" rms="1.3865534961223602e-01" purity="2.7204770594835281e-02" nType="0">
            <Node pos="l" depth="3" NCoef="0" IVar="-1" Cut="0.0000000000000000e+00" cType="1" res="-4.6015407890081406e-02" rms="9.8371461033821106e-02" purity="1.0015770792961121e-02" nType="-99"/>
            <Node pos="r" depth="3" NCoef="0" IVar="-1" Cut="0.0000000000000000e+00" cType="1" res="3.0030241236090660e-02" rms="2.1197578310966492e-01" purity="7.4010036885738373e-02" nType="-99"/>
          </Node>
          <Node pos="r" depth="2" NCoef="0" IVar="2" Cut="7.1058340370655060e-02" cType="1" res="-1.6376277431845665e-02" rms="2.8751859068870544e-01" purity="1.6375741362571716e-01" nType="0">
            <Node pos="l" depth="3" NCoef="0" IVar="-1" Cut="0.0000000000000000e+00" cType="1" res="-2.5845890864729881e-02" rms="2.8573483228683472e-01" purity="1.4747792482376099e-01" nType="-99"/>
            <Node pos="r" depth="3" NCoef="0" IVar="-1" Cut="0.0000000000000000e+00" cType="1" res="-1.0234759189188480e-02" rms="2.8898286819458008e-01" purity="1.7870260775089264e-01" nType="-99"/>
          </Node>
        </Node>
        <Node pos="r" depth="1" NCoef="0" IVar="2" Cut="3.4911295771598816e-01" cType="1" res="6.9337924942374229e-03" rms="1.8671262264251709e-01" purity="7.9341280460357666e-01" nType="0">
          <Node pos="l" depth="2" NCoef="0" IVar="2" Cut="2.2143699228763580e-01" cType="1" res="-1.6327071934938431e-02" rms="2.7688360214233398e-01" purity="2.4192681908607483e-01" nType="0">
            <Node pos="l" depth="3" NCoef="0" IVar="-1" Cut="0.0000000000000000e+00" cType="1" res="-2.9725832864642143e-02" rms="2.7908390760421753e-01" purity="2.0440353453159332e-01" nType="-99"/>
            <Node pos="r" depth="3" NCoef="0" IVar="-1" Cut="0.0000000000000000e+00" cType="1" res="-7.0081758312880993e-03" rms="2.7432349324226379e-01" purity="2.7930924296379089e-01" nType="-99"/>
          </Node>
          <Node pos="r" depth="2" NCoef="0" IVar="2" Cut="6.2448835372924805e-01" cType="1" res="1.2778449803590775e-02" rms="1.5552443265914917e-01" purity="9.3198233842849731e-01" nType="0">
            <Node pos="l" depth="3" NCoef="0" IVar="-1" Cut="0.0000000000000000e+00" cType="1" res="3.7695251405239105e-02" rms="3.0034345388412476e-01" purity="6.1389189958572388e-01" nType="-99"/>
            <Node pos="r" depth="3" NCoef="0" IVar="-1" Cut="0.0000000000000000e+00" cType="1" res="3.5454478114843369e-02" rms="1.2558522820472717e-01" purity="9.7196722030639648e-01" nType="-99"/>
          </Node>
        </Node>
      </Node>
    </BinaryTree>
    <BinaryTree type="DecisionTree" boostWeight="1.0000000000000000e+00" itree="24">
      <Node pos="s" depth="0" NCoef="0" IVar="0" Cut="-1.9199576377868652e+00" cType="1" res="6.4785679569467902e-05" rms="2.0429216325283051e-01" purity="5.0000000000000000e-01" nType="0">
        <Node pos="l" depth="1" NCoef="0" IVar="2" Cut="-6.9230771064758301e-01" cType="1" res="-1.5853488817811012e-02" rms="1.7332288622856140e-01" purity="1.0329797863960266e-01" nType="0">
          <Node pos="l" depth="2" NCoef="0" IVar="0" Cut="-3.1039478778839111e+00" cType="1" res="-5.6239156983792782e-03" rms="1.2852436304092407e-01" purity="1.8064118921756744e-02" nType="0">
            <Node pos="l" depth="3" NCoef="0" IVar="-1" Cut="0.0000000000000000e+00" cType="1" res="-7.3974899947643280e-02" rms="6.7202478647232056e-02" purity="4.4820718467235565e-03" nType="-99"/>
            <Node pos="r" depth="3" NCoef="0" IVar="-1" Cut="0.0000000000000000e+00" cType="1" res="-1.0722210863605142e-03" rms="1.6803099215030670e-01" purity="3.1387396156787872e-02" nType="-99"/>
          </Node>
          <Node pos="r" depth="2" NCoef="0" IVar="-1" Cut="0.0000000000000000e+00" cType="1" res="-5.0954014062881470e-02" rms="2.2150605916976929e-01" purity="2.2551272809505463e-01" nType="-99"/>
        </Node>
        <Node pos="r" depth="1" NCoef="0" IVar="1" Cut="1.0000000000000000e+00" cType="1" res="2.1115793788339943e-04" rms="9.9803484976291656e-02" purity="5.8245009183883667e-01" nType="0">
          <Node pos="l" depth="2" NCoef="0" IVar="3" Cut="3.0000000000000000e+00" cType="1" res="8.8483415311202407e-05" rms="1.5746019780635834e-02" purity="7.1755506098270416e-02" nType="0">
            <Node pos="l" depth="3" NCoef="0" IVar="-1" Cut="0.0000000000000000e+00" cType="1" res="-3.6418020725250244e-02" rms="2.1401889622211456e-01" purity="1.2232284247875214e-01" nType="-99"/>
            <Node pos="r" depth="3" NCoef="0" IVar="-1" Cut="0.0000000000000000e+00" cType="1" res="-2.5770204141736031e-02" rms="1.1376006156206131e-01" purity="1.3181263580918312e-02" nType="-99"/>
          </Node>
          <Node pos="r" depth="2" NCoef="0" IVar="1" Cut="3.0000000000000000e+00" cType="1" res="-2.2857263684272766e-04" rms="9.5175258815288544e-02" purity="7.9468148946762085e-01" nType="0">
            <Node pos="l" depth="3" NCoef="0" IVar="-1" Cut="0.0000000000000000e+00" cType="1" res="2.1357275545597076e-02" rms="2.2300179302692413e-01" purity="9.1200351715087891e-01" nType="-99"/>
            <Node pos="r" depth="3" NCoef="0" IVar="-1" Cut="0.0000000000000000e+00" cType="1" res="-1.6207905486226082e-02" rms="2.1944315731525421e-01" purity="1.4258182048797607e-01" nType="-99"/>
          </Node>
        </Node>
      </Node>
    </BinaryTree>
    <BinaryTree type="DecisionTree" boostWeight="1.0000000000000000e+00" itree="25">
      <Node pos="s" depth="0" NCoef="0" IVar="3" Cut="1.0000000000000000e+00" cType="1" res="-3.0029698973521590e-04" rms="8.8037932291626930e-03" purity="5.0000000000000000e-01" nType="0">
        <Node pos="l" depth="1" NCoef="0" IVar="0" Cut="-9.7678852081298828e-01" cType="1" res="1.1575120501220226e-02" rms="9.0404368937015533e-02" purity="9.8761111497879028e-01" nType="0">
          <Node pos="l" depth="2" NCoef="0" IVar="-1" Cut="0.0000000000000000e+00" cType="1" res="5.2478753030300140e-02" rms="1.1508563905954361e-01" purity="9.7700935602188110e-01" nType="-99"/>
          <Node pos="r" depth="2" NCoef="0" IVar="0" Cut="4.1836801171302795e-01" cType="1" res="1.0984736494719982e-02" rms="8.3738401532173157e-02" purity="9.9003374576568604e-01" nType="0">
            <Node pos="l" depth="3" NCoef="0" IVar="-1" Cut="0.0000000000000000e+00" cType="1" res="6.9266527891159058e-02" rms="7.1387797594070435e-02" purity="9.9409449100494385e-01" nType="-99"/>
            <Node pos="r" depth="3" NCoef="0" IVar="-1" Cut="0.0000000000000000e+00" cType="1" res="5.5084068328142166e-02" rms="9.7052820026874542e-02" purity="9.8492980003356934e-01" nType="-99"/>
          </Node>
        </Node>
        <Node pos="r" depth="1" NCoef="0" IVar="0" Cut="1.5396928787231445e+00" cType="1" res="-4.2208391241729259e-03" rms="2.3206636309623718e-01" purity="3.1997364759445190e-01" nType="0">
          <Node pos="l" depth="2" NCoef="0" IVar="0" Cut="-9.7375619411468506e-01" cType="1" res="-6.5667333547025919e-04" rms="2.4659098684787750e-01" purity="4.0218842029571533e-01" nType="0">
            <Node pos="l" depth="3" NCoef="0" IVar="-1" Cut="0.0000000000000000e+00" cType="1" res="-2.3249903693795204e-02" rms="2.1049599349498749e-01" purity="1.8601506948471069e-01" nType="-99"/>
            <Node pos="r" depth="3" NCoef="0" IVar="-1" Cut="0.0000000000000000e+00" cType="1" res="1.1886183172464371e-02" rms="2.7741831541061401e-01" purity="6.1695557832717896e-01" nType="-99"/>
          </Node>
          <Node pos="r" depth="2" NCoef="0" IVar="2" Cut="-6.9231808185577393e-01" cType="1" res="-1.3561072759330273e-02" rms="1.8845438957214355e-01" purity="1.0452200472354889e-01" nType="0">
            <Node pos="l" depth="3" NCoef="0" IVar="-1" Cut="0.0000000000000000e+00" cType="1" res="-1.9764168187975883e-02" rms="1.2497407197952271e-01" purity="1.7621280625462532e-02" nType="-99"/>
            <Node pos="r" depth="3" NCoef="0" IVar="-1" Cut="0.0000000000000000e+00" cType="1" res="-3.7198103964328766e-02" rms="2.3590733110904694e-01" purity="1.9335839152336121e-01" nType="-99"/>
          </Node>
        </Node>
      </Node>
    </BinaryTree>
    <BinaryTree type="DecisionTree" boostWeight="1.0000000000000000e+00" itree="26">
      <Node pos="s" depth="0" NCoef="0" IVar="2" Cut="1.5384615957736969e-01" cType="1" res="5.4169973736861721e-05" rms="2.0361451804637909e-01" purity="5.0000000000000000e-01" nType="0">
        <Node pos="l" depth="1" NCoef="0" IVar="2" Cut="-6.2722223997116089e-01" cType="1" res="-7.3161558248102665e-03" rms="2.2573001682758331e-01" purity="9.6056148409843445e-02" nType="0">
          <Node pos="l" depth="2" NCoef="0" IVar="2" Cut="-9.6538457870483398e+00" cType="1" res="-3.2106196158565581e-04" rms="1.3797041773796082e-01" purity="2.7204770594835281e-02" nType="0">
            <Node pos="l" depth="3" NCoef="0" IVar="-1" Cut="0.0000000000000000e+00" cType="1" res="-3.3213157206773758e-02" rms="9.8149716854095459e-02" purity="1.0015770792961121e-02" nType="-99"/>
            <Node pos="r" depth="3" NCoef="0" IVar="-1" Cut="0.0000000000000000e+00" cType="1" res="2.7554715052247047e-02" rms="2.1084690093994141e-01" purity="7.4010036885738373e-02" nType="-99"/>
          </Node>
          <Node pos="r" depth="2" NCoef="0" IVar="2" Cut="1.1245045065879822e-01" cType="1" res="-1.4194401912391186e-02" rms="2.8678154945373535e-01" purity="1.6375741362571716e-01" nType="0">
            <Node pos="l" depth="3" NCoef="0" IVar="-1" Cut="0.0000000000000000e+00" cType="1" res="-2.0102126523852348e-02" rms="2.8533962368965149e-01" purity="1.5419699251651764e-01" nType="-99"/>
            <Node pos="r" depth="3" NCoef="0" IVar="-1" Cut="0.0000000000000000e+00" cType="1" res="-2.3008678108453751e-03" rms="2.9094779491424561e-01" purity="1.9386382400989532e-01" nType="-99"/>
          </Node>
        </Node>
        <Node pos="r" depth="1" NCoef="0" IVar="0" Cut="1.7471649646759033e+00" cType="1" res="5.4077557288110256e-03" rms="1.8572489917278290e-01" purity="7.9341280460357666e-01" nType="0">
          <Node pos="l" depth="2" NCoef="0" IVar="0" Cut="-1.8060164451599121e+00" cType="1" res="8.3215385675430298e-03" rms="1.7878066003322601e-01" purity="8.4013235569000244e-01" nType="0">
            <Node pos="l" depth="3" NCoef="0" IVar="-1" Cut="0.0000000000000000e+00" cType="1" res="-2.7554988861083984e-02" rms="2.3790659010410309e-01" purity="3.6571946740150452e-01" nType="-99"/>
            <Node pos="r" depth="3" NCoef="0" IVar="-1" Cut="0.0000000000000000e+00" cType="1" res="2.9860099777579308e-02" rms="1.7016251385211945e-01" purity="8.9631134271621704e-01" nType="-99"/>
          </Node>
          <Node pos="r" depth="2" NCoef="0" IVar="-1" Cut="0.0000000000000000e+00" cType="1" res="-3.2668270170688629e-02" rms="2.3691073060035706e-01" purity="3.8049995899200439e-01" nType="-99"/>
        </Node>
      </Node>
    </BinaryTree>
    <BinaryTree type="DecisionTree" boostWeight="1.0000000000000000e+00" itree="27">
      <Node pos="s" depth="0" NCoef="0" IVar="3" Cut="1.0000000000000000e+00" cType="1" res="-2.6146546588279307e-04" rms="8.7336907163262367e-03" purity="5.0000000000000000e-01" nType="0">
        <Node pos="l" depth="1" NCoef="0" IVar="0" Cut="-9.7678852081298828e-01" cType="1" res="8.7616378441452980e-03" rms="9.0295545756816864e-02" purity="9.8761111497879028e-01" nType="0">
          <Node pos="l" depth="2" NCoef="0" IVar="-1" Cut="0.0000000000000000e+00" cType="1" res="4.4973056763410568e-02" rms="1.1500128358602524e-01" purity="9.7700935602188110e-01" nType="-99"/>
          <Node pos="r" depth="2" NCoef="0" IVar="0" Cut="4.1836801171302795e-01" cType="1" res="8.2452986389398575e-03" rms="8.3623185753822327e-02" purity="9.9003374576568604e-01" nType="0">
            <Node pos="l" depth="3" NCoef="0" IVar="-1" Cut="0.0000000000000000e+00" cType="1" res="6.1329849064350128e-02" rms="7.1211196482181549e-02" purity="9.9409449100494385e-01" nType="-99"/>
            <Node pos="r" depth="3" NCoef="0" IVar="-1" Cut="0.0000000000000000e+00" cType="1" res="4.7158490866422653e-02" rms="9.6992410719394684e-02" purity="9.8492980003356934e-01" nType="-99"/>
          </Node>
        </Node>
        <Node pos="r" depth="1" NCoef="0" IVar="1" Cut="1.0000000000000000e+00" cType="1" res="-3.5799870966002345e-04" rms="1.0217849165201187e-02" purity="3.1997364759445190e-01" nType="0">
          <Node pos="l" depth="2" NCoef="0" IVar="3" Cut="3.0000000000000000e+00" cType="1" res="5.3184507123660296e-05" rms="9.1886203736066818e-03" purity="4.4497326016426086e-02" nType="0">
            <Node pos="l" depth="3" NCoef="0" IVar="-1" Cut="0.0000000000000000e+00" cType="1" res="-3.4628797322511673e-02" rms="2.0994728803634644e-01" purity="7.3298960924148560e-02" nType="-99"/>
            <Node pos="r" depth="3" NCoef="0" IVar="-1" Cut="0.0000000000000000e+00" cType="1" res="-1.6794459894299507e-02" rms="1.1374601721763611e-01" purity="1.3181263580918312e-02" nType="-99"/>
          </Node>
          <Node pos="r" depth="2" NCoef="0" IVar="0" Cut="-1.0740867853164673e+00" cType="1" res="4.9439120630268008e-05" rms="2.5511702895164490e-01" purity="4.5070821046829224e-01" nType="0">
            <Node pos="l" depth="3" NCoef="0" IVar="-1" Cut="0.0000000000000000e+00" cType="1" res="-1.9883055239915848e-02" rms="2.0698815584182739e-01" purity="1.7086564004421234e-01" nType="-99"/>
            <Node pos="r" depth="3" NCoef="0" IVar="-1" Cut="0.0000000000000000e+00" cType="1" res="1.0197985917329788e-02" rms="2.9673853516578674e-01" purity="7.4212408065795898e-01" nType="-99"/>
          </Node>
        </Node>
      </Node>
    </BinaryTree>
    <BinaryTree type="DecisionTree" boostWeight="1.0000000000000000e+00" itree="28">
      <Node pos="s" depth="0" NCoef="0" IVar="2" Cut="1.5384615957736969e-01" cType="1" res="5.0884576921816915e-05" rms="2.0314128696918488e-01" purity="5.0000000000000000e-01" nType="0">
        <Node pos="l" depth="1" NCoef="0" IVar="2" Cut="-6.2722223997116089e-01" cType="1" res="-5.5474312976002693e-03" rms="2.2541812062263489e-01" purity="9.6056148409843445e-02" nType="0">
          <Node pos="l" depth="2" NCoef="0" IVar="2" Cut="-9.6538457870483398e+00" cType="1" res="3.1118438346311450e-04" rms="1.3767039775848389e-01" purity="2.7204770594835281e-02" nType="0">
            <Node pos="l" depth="3" NCoef="0" IVar="-1" Cut="0.0000000000000000e+00" cType="1" res="-2.5812191888689995e-02" rms="9.8083913326263428e-02" purity="1.0015770792961121e-02" nType="-99"/>
            <Node pos="r" depth="3" NCoef="0" IVar="-1" Cut="0.0000000000000000e+00" cType="1" res="2.4276360869407654e-02" rms="2.1033099293708801e-01" purity="7.4010036885738373e-02" nType="-99"/>
          </Node>
          <Node pos="r" depth="2" NCoef="0" IVar="2" Cut="8.2884661853313446e-02" cType="1" res="-1.1308182962238789e-02" rms="2.8648626804351807e-01" purity="1.6375741362571716e-01" nType="0">
            <Node pos="l" depth="3" NCoef="0" IVar="-1" Cut="0.0000000000000000e+00" cType="1" res="-1.8749384209513664e-02" rms="2.8435847163200378e-01" purity="1.4879736304283142e-01" nType="-99"/>
            <Node pos="r" depth="3" NCoef="0" IVar="-1" Cut="0.0000000000000000e+00" cType="1" res="-5.1476154476404190e-03" rms="2.8906148672103882e-01" purity="1.8296827375888824e-01" nType="-99"/>
          </Node>
        </Node>
        <Node pos="r" depth="1" NCoef="0" IVar="2" Cut="2.1893554925918579e-01" cType="1" res="4.1173351928591728e-03" rms="1.8518224358558655e-01" purity="7.9341280460357666e-01" nType="0">
          <Node pos="l" depth="2" NCoef="0" IVar="-1" Cut="0.0000000000000000e+00" cType="1" res="-2.6132505387067795e-02" rms="2.7761444449424744e-01" purity="2.0360410213470459e-01" nType="-99"/>
          <Node pos="r" depth="2" NCoef="0" IVar="2" Cut="5.7942813634872437e-01" cType="1" res="6.8881441839039326e-03" rms="1.7205473780632019e-01" purity="8.5698491334915161e-01" nType="0">
            <Node pos="l" depth="3" NCoef="0" IVar="-1" Cut="0.0000000000000000e+00" cType="1" res="1.9535075873136520e-02" rms="2.8315728902816772e-01" purity="4.1317242383956909e-01" nType="-99"/>
            <Node pos="r" depth="3" NCoef="0" IVar="-1" Cut="0.0000000000000000e+00" cType="1" res="1.7925340682268143e-02" rms="1.2959839403629303e-01" purity="9.6900516748428345e-01" nType="-99"/>
          </Node>
        </Node>
      </Node>
    </BinaryTree>
    <BinaryTree type="DecisionTree" boostWeight="1.0000000000000000e+00" itree="29">
      <Node pos="s" depth="0" NCoef="0" IVar="0" Cut="1.9240984916687012e+00" cType="1" res="4.0718754462432116e-05" rms="2.0303280651569366e-01" purity="5.0000000000000000e-01" nType="0">
        <Node pos="l" depth="1" NCoef="0" IVar="1" Cut="3.0000000000000000e+00" cType="1" res="-1.1331371206324548e-04" rms="2.2797090932726860e-03" purity="5.8205825090408325e-01" nType="0">
          <Node pos="l" depth="2" NCoef="0" IVar="1" Cut="1.0000000000000000e+00" cType="1" res="-2.1201180061325431e-05" rms="3.1885770149528980e-03" purity="7.9481768608093262e-01" nType="0">
            <Node pos="l" depth="3" NCoef="0" IVar="-1" Cut="0.0000000000000000e+00" cType="1" res="-2.0500767976045609e-02" rms="2.1927836537361145e-01" purity="1.4253710210323334e-01" nType="-99"/>
            <Node pos="r" depth="3" NCoef="0" IVar="-1" Cut="0.0000000000000000e+00" cType="1" res="1.5225189737975597e-02" rms="2.2193172574043274e-01" purity="9.1227638721466064e-01" nType="-99"/>
          </Node>
          <Node pos="r" depth="2" NCoef="0" IVar="3" Cut="3.0000000000000000e+00" cType="1" res="-2.9085110872983932e-04" rms="3.9567514322698116e-03" purity="7.3067881166934967e-02" nType="0">
            <Node pos="l" depth="3" NCoef="0" IVar="-1" Cut="0.0000000000000000e+00" cType="1" res="-2.5973252952098846e-02" rms="2.1327517926692963e-01" purity="1.2380930036306381e-01" nType="-99"/>
            <Node pos="r" depth="3" NCoef="0" IVar="-1" Cut="0.0000000000000000e+00" cType="1" res="-7.2479080408811569e-03" rms="1.1827947944402695e-01" purity="1.4311714097857475e-02" nType="-99"/>
          </Node>
        </Node>
        <Node pos="r" depth="1" NCoef="0" IVar="3" Cut="3.0000000000000000e+00" cType="1" res="-5.8647952973842621e-03" rms="1.2575131654739380e-01" purity="1.0051348060369492e-01" nType="0">
          <Node pos="l" depth="2" NCoef="0" IVar="-1" Cut="0.0000000000000000e+00" cType="1" res="-3.8297012448310852e-02" rms="2.1754430234432220e-01" purity="2.1099610626697540e-01" nType="-99"/>
          <Node pos="r" depth="2" NCoef="0" IVar="-1" Cut="0.0000000000000000e+00" cType="1" res="-1.3095687143504620e-02" rms="1.1773559451103210e-01" purity="1.4543320052325726e-02" nType="-99"/>
        </Node>
      </Node>
    </BinaryTree>
    <BinaryTree type="DecisionTree" boostWeight="1.0000000000000000e+00" itree="30">
      <Node pos="s" depth="0" NCoef="0" IVar="2" Cut="1.5384615957736969e-01" cType="1" res="2.8933907742612064e-05" rms="2.0283396542072296e-01" purity="5.0000000000000000e-01" nType="0">
        <Node pos="l" depth="1" NCoef="0" IVar="2" Cut="-6.2722223997116089e-01" cType="1" res="-4.7804065980017185e-03" rms="2.2514054179191589e-01" purity="9.6056148409843445e-02" nType="0">
          <Node pos="l" depth="2" NCoef="0" IVar="2" Cut="-9.6538457870483398e+00" cType="1" res="6.0401076916605234e-04" rms="1.3733111321926117e-01" purity="2.7204770594835281e-02" nType="0">
            <Node pos="l" depth="3" NCoef="0" IVar="-1" Cut="0.0000000000000000e+00" cType="1" res="-1.9895147532224655e-02" rms="9.8004922270774841e-02" purity="1.0015770792961121e-02" nType="-99"/>
            <Node pos="r" depth="3" NCoef="0" IVar="-1" Cut="0.0000000000000000e+00" cType="1" res="2.0814945921301842e-02" rms="2.0969989895820618e-01" purity="7.4010036885738373e-02" nType="-99"/>
          </Node>
          <Node pos="r" depth="2" NCoef="0" IVar="2" Cut="6.5145179629325867e-02" cType="1" res="-1.0074880905449390e-02" rms="2.8623151779174805e-01" purity="1.6375741362571716e-01" nType="0">
            <Node pos="l" depth="3" NCoef="0" IVar="-1" Cut="0.0000000000000000e+00" cType="1" res="-1.8334968015551567e-02" rms="2.8481301665306091e-01" purity="1.4675962924957275e-01" nType="-99"/>
            <Node pos="r" depth="3" NCoef="0" IVar="-1" Cut="0.0000000000000000e+00" cType="1" res="-6.1748856678605080e-03" rms="2.8724545240402222e-01" purity="1.7696797847747803e-01" nType="-99"/>
          </Node>
        </Node>
        <Node pos="r" depth="1" NCoef="0" IVar="2" Cut="2.8402423858642578e-01" cType="1" res="3.5222959704697132e-03" rms="1.8487350642681122e-01" purity="7.9341280460357666e-01" nType="0">
          <Node pos="l" depth="2" NCoef="0" IVar="-1" Cut="0.0000000000000000e+00" cType="1" res="-1.5930816531181335e-02" rms="2.7270624041557312e-01" purity="2.1963466703891754e-01" nType="-99"/>
          <Node pos="r" depth="2" NCoef="0" IVar="2" Cut="5.8693790435791016e-01" cType="1" res="6.6480622626841068e-03" rms="1.6265738010406494e-01" purity="9.0276706218719482e-01" nType="0">
            <Node pos="l" depth="3" NCoef="0" IVar="-1" Cut="0.0000000000000000e+00" cType="1" res="2.6135791093111038e-02" rms="2.9133686423301697e-01" purity="5.0641596317291260e-01" nType="-99"/>
            <Node pos="r" depth="3" NCoef="0" IVar="-1" Cut="0.0000000000000000e+00" cType="1" res="1.6378754749894142e-02" rms="1.2864200770854950e-01" purity="9.6952956914901733e-01" nType="-99"/>
          </Node>
        </Node>
      </Node>
    </BinaryTree>
    <BinaryTree type="DecisionTree" boostWeight="1.0000000000000000e+00" itree="31">
      <Node pos="s" depth="0" NCoef="0" IVar="0" Cut="-1.9199576377868652e+00" cType="1" res="2.4785678760963492e-05" rms="2.0274752378463745e-01" purity="5.0000000000000000e-01" nType="0">
        <Node pos="l" depth="1" NCoef="0" IVar="3" Cut="3.0000000000000000e+00" cType="1" res="-4.0946764784166589e-05" rms="6.2817381694912910e-04" purity="1.0329797863960266e-01" nType="0">
          <Node pos="l" depth="2" NCoef="0" IVar="-1" Cut="0.0000000000000000e+00" cType="1" res="-3.2945569604635239e-02" rms="2.2024248540401459e-01" purity="2.1590955555438995e-01" nType="-99"/>
          <Node pos="r" depth="2" NCoef="0" IVar="-1" Cut="0.0000000000000000e+00" cType="1" res="-1.2239710427820683e-02" rms="1.1912915110588074e-01" purity="1.4759788289666176e-02" nType="-99"/>
        </Node>
        <Node pos="r" depth="1" NCoef="0" IVar="0" Cut="1.2735712528228760e+00" cType="1" res="1.8948441138491035e-03" rms="2.0863294601440430e-01" purity="5.8245009183883667e-01" nType="0">
          <Node pos="l" depth="2" NCoef="0" IVar="1" Cut="3.0000000000000000e+00" cType="1" res="-3.2064264814835042e-05" rms="7.8133530914783478e-02" purity="7.4098831415176392e-01" nType="0">
            <Node pos="l" depth="3" NCoef="0" IVar="-1" Cut="0.0000000000000000e+00" cType="1" res="1.4268040657043457e-02" rms="2.1529224514961243e-01" purity="8.5286909341812134e-01" nType="-99"/>
            <Node pos="r" depth="3" NCoef="0" IVar="-1" Cut="0.0000000000000000e+00" cType="1" res="-1.2349877506494522e-02" rms="2.1851126849651337e-01" purity="1.4242148399353027e-01" nType="-99"/>
          </Node>
          <Node pos="r" depth="2" NCoef="0" IVar="2" Cut="-6.9230771064758301e-01" cType="1" res="-5.9818918816745281e-03" rms="1.9185374677181244e-01" purity="2.3965768516063690e-01" nType="0">
            <Node pos="l" depth="3" NCoef="0" IVar="-1" Cut="0.0000000000000000e+00" cType="1" res="-3.7474913988262415e-03" rms="1.2765392661094666e-01" purity="1.9673528149724007e-02" nType="-99"/>
            <Node pos="r" depth="3" NCoef="0" IVar="-1" Cut="0.0000000000000000e+00" cType="1" res="-1.7021842300891876e-02" rms="2.2360295057296753e-01" purity="3.8144308328628540e-01" nType="-99"/>
          </Node>
        </Node>
      </Node>
    </BinaryTree>
    <BinaryTree type="DecisionTree" boostWeight="1.0000000000000000e+00" itree="32">
      <Node pos="s" depth="0" NCoef="0" IVar="3" Cut="1.0000000000000000e+00" cType="1" res="-2.0867778221145272e-04" rms="8.6517222225666046e-03" purity="5.0000000000000000e-01" nType="0">
        <Node pos="l" depth="1" NCoef="0" IVar="0" Cut="-9.7678852081298828e-01" cType="1" res="6.1144432984292507e-03" rms="9.0211756527423859e-02" purity="9.8761111497879028e-01" nType="0">
          <Node pos="l" depth="2" NCoef="0" IVar="-1" Cut="0.0000000000000000e+00" cType="1" res="3.6635231226682663e-02" rms="1.1489646136760712e-01" purity="9.7700935602188110e-01" nType="-99"/>
          <Node pos="r" depth="2" NCoef="0" IVar="0" Cut="4.1836801171302795e-01" cType="1" res="5.6854733265936375e-03" rms="8.3547629415988922e-02" purity="9.9003374576568604e-01" nType="0">
            <Node pos="l" depth="3" NCoef="0" IVar="-1" Cut="0.0000000000000000e+00" cType="1" res="5.0797224044799805e-02" rms="7.1168780326843262e-02" purity="9.9409449100494385e-01" nType="-99"/>
            <Node pos="r" depth="3" NCoef="0" IVar="-1" Cut="0.0000000000000000e+00" cType="1" res="3.8111194968223572e-02" rms="9.6885077655315399e-02" purity="9.8492980003356934e-01" nType="-99"/>
          </Node>
        </Node>
        <Node pos="r" depth="1" NCoef="0" IVar="0" Cut="-1.5355520248413086e+00" cType="1" res="-2.2304924204945564e-03" rms="2.3057521879673004e-01" purity="3.1997364759445190e-01" nType="0">
          <Node pos="l" depth="2" NCoef="0" IVar="2" Cut="-6.9230771064758301e-01" cType="1" res="-7.4081718921661377e-03" rms="1.8818981945514679e-01" purity="1.0833282023668289e-01" nType="0">
            <Node pos="l" depth="3" NCoef="0" IVar="-1" Cut="0.0000000000000000e+00" cType="1" res="-6.8684541620314121e-03" rms="1.3080063462257385e-01" purity="1.9462635740637779e-02" nType="-99"/>
            <Node pos="r" depth="3" NCoef="0" IVar="-1" Cut="0.0000000000000000e+00" cType="1" res="-2.3079074919223785e-02" rms="2.3181574046611786e-01" purity="1.9766226410865784e-01" nType="-99"/>
          </Node>
          <Node pos="r" depth="2" NCoef="0" IVar="0" Cut="9.7797507047653198e-01" cType="1" res="-2.2768827329855412e-04" rms="2.4498231709003448e-01" purity="4.0183949470520020e-01" nType="0">
            <Node pos="l" depth="3" NCoef="0" IVar="-1" Cut="0.0000000000000000e+00" cType="1" res="6.5992618910968304e-03" rms="2.7647408843040466e-01" purity="6.1703628301620483e-01" nType="-99"/>
            <Node pos="r" depth="3" NCoef="0" IVar="-1" Cut="0.0000000000000000e+00" cType="1" res="-1.2753417715430260e-02" rms="2.0795005559921265e-01" purity="1.8286843597888947e-01" nType="-99"/>
          </Node>
        </Node>
      </Node>
    </BinaryTree>
    <BinaryTree type="DecisionTree" boostWeight="1.0000000000000000e+00" itree="33">
      <Node pos="s" depth="0" NCoef="0" IVar="2" Cut="1.5384615957736969e-01" cType="1" res="2.5350373107357882e-05" rms="2.0247527956962585e-01" purity="5.0000000000000000e-01" nType="0">
        <Node pos="l" depth="1" NCoef="0" IVar="2" Cut="-6.2722223997116089e-01" cType="1" res="-3.9352080784738064e-03" rms="2.2482818365097046e-01" purity="9.6056148409843445e-02" nType="0">
          <Node pos="l" depth="2" NCoef="0" IVar="2" Cut="-9.6538457870483398e+00" cType="1" res="1.0731959482654929e-03" rms="1.3704423606395721e-01" purity="2.7204770594835281e-02" nType="0">
            <Node pos="l" depth="3" NCoef="0" IVar="-1" Cut="0.0000000000000000e+00" cType="1" res="-1.3196701183915138e-02" rms="9.7941055893898010e-02" purity="1.0015770792961121e-02" nType="-99"/>
            <Node pos="r" depth="3" NCoef="0" IVar="-1" Cut="0.0000000000000000e+00" cType="1" res="1.9237659871578217e-02" rms="2.0913645625114441e-01" purity="7.4010036885738373e-02" nType="-99"/>
          </Node>
          <Node pos="r" depth="2" NCoef="0" IVar="2" Cut="1.1245045065879822e-01" cType="1" res="-8.8599510490894318e-03" rms="2.8589290380477905e-01" purity="1.6375741362571716e-01" nType="0">
            <Node pos="l" depth="3" NCoef="0" IVar="-1" Cut="0.0000000000000000e+00" cType="1" res="-1.3612454757094383e-02" rms="2.8456020355224609e-01" purity="1.5419699251651764e-01" nType="-99"/>
